<?xml version="1.0"?>
<opencv_storage>
<opencv_ml_ann_mlp>
  <format>3</format>
  <layer_sizes>
    784 100 100 10</layer_sizes>
  <activation_function>SIGMOID_SYM</activation_function>
  <f_param1>6.6666666666666663e-01</f_param1>
  <f_param2>1.7159000000000000e+00</f_param2>
  <min_val>-9.4999999999999996e-01</min_val>
  <max_val>9.4999999999999996e-01</max_val>
  <min_val1>-9.7999999999999998e-01</min_val1>
  <max_val1>9.7999999999999998e-01</max_val1>
  <training_params>
    <train_method>BACKPROP</train_method>
    <dw_scale>1.0000000000000000e-03</dw_scale>
    <moment_scale>0.</moment_scale>
    <term_criteria>
      <iterations>300</iterations></term_criteria></training_params>
  <input_scale>
    1. 0. 1. 0. 1. 0. 1. 0. 1. 0. 1. 0. 1. 0. 1. 0. 1. 0. 1. 0. 1. 0. 1.
    0. 2.1038466639100939e+00 -4.4180779942111972e-03
    7.3465782237226585e-01 -5.7548196085827489e-03
    1.1340324793763241e+00 -4.0825169257547667e-03
    2.7216779505031781e+01 -4.0825169257547667e-03 1. 0. 1. 0. 1. 0. 1.
    0. 1. 0. 1. 0. 1. 0. 1. 0. 1. 0. 1. 0. 1. 0. 1. 0. 1. 0. 1. 0. 1. 0.
    1. 0. 1.5309438471580373e+01 -4.0825169257547667e-03
    5.1378417543335395e+00 -4.7096882748057442e-03
    9.4786496244496321e-01 -8.7993464013640752e-03
    4.7730511152646854e-01 -1.1590559124901078e-02
    3.3760533284073685e-01 -1.4758979800687546e-02
    3.0085576674119052e-01 -1.9284854648110313e-02
    2.0537012327968251e-01 -2.4671797476665858e-02
    1.8086495511061523e-01 -2.9071027118112890e-02
    1.7563481948961016e-01 -3.0592658308098594e-02
    1.7563787008994008e-01 -3.1164012749625037e-02
    1.6883284765585466e-01 -3.1962871942047548e-02
    1.7342828322169204e-01 -3.0202535523057669e-02
    1.6749403091669038e-01 -3.1310217512693320e-02
    1.8472760188024673e-01 -2.8383396028899912e-02
    2.3092249674211657e-01 -2.3119190632164905e-02
    2.6906821685325510e-01 -1.9166625980513538e-02
    3.1165625491435334e-01 -1.6772300785307448e-02
    5.1465024036334295e-01 -1.0996360135763427e-02
    8.2560602957106433e-01 -8.3248607981748976e-03
    1.2398189311055090e+00 -4.3806935565727980e-03 1. 0. 1. 0. 1. 0. 1.
    0. 1. 0. 1. 0. 3.8273596178950933e+00 -4.0825169257547667e-03
    7.7076371143579658e+00 -5.3953459800505765e-03
    1.2262463813256379e+00 -8.5224123502131831e-03
    2.1857209069202939e+00 -1.1985036306279610e-02
    3.7480844479353959e-01 -1.7653477749775714e-02
    2.0022325818265649e-01 -2.7710898932479657e-02
    1.4013031729855807e-01 -3.7020094324990732e-02
    1.0294031691548404e-01 -5.2151280221332807e-02
    7.7337564294725908e-02 -6.7036200730668419e-02
    6.4350144069828780e-02 -8.3017048362084941e-02
    5.3134064659327226e-02 -9.9379297835572672e-02
    4.5528222999621615e-02 -1.1518412777789271e-01
    4.0333765593801335e-02 -1.2913325615454091e-01
    3.8172050383375566e-02 -1.3839467726744728e-01
    3.7314415010388242e-02 -1.3888363076174820e-01
    3.8862636726537038e-02 -1.3184343822661324e-01
    4.2965532185901718e-02 -1.2042952234827012e-01
    4.9839378548531522e-02 -1.0189079484830869e-01
    6.5388748483052359e-02 -7.8604904363951955e-02
    8.9976498603427962e-02 -5.6995613040341439e-02
    1.3390326577294903e-01 -3.9657683879755073e-02
    2.5247440459466680e-01 -2.3728386125155435e-02
    4.0004769536487894e-01 -1.4088346338433153e-02
    9.0704718335127554e-01 -7.8308406829326795e-03 1. 0. 1. 0. 1. 0. 1.
    0. 1.6603229489473221e+00 -5.3683775349296749e-03
    1.5163428875843565e+00 -8.8706058923684866e-03
    1.1709417775958955e+00 -1.4070817027444010e-02
    3.1744113434375015e-01 -2.2146809806048971e-02
    1.6587883755403252e-01 -3.5180136797917733e-02
    1.0075751730349713e-01 -5.5023680199439789e-02
    6.8516103777253992e-02 -7.9096132135524966e-02
    4.8580266476534253e-02 -1.0764901248535225e-01
    3.7687844665627961e-02 -1.3716993570650837e-01
    3.0729268372916497e-02 -1.6710576141191991e-01
    2.6462458803787101e-02 -1.9600875548259125e-01
    2.3151210409567968e-02 -2.2449111368547134e-01
    2.0925208082991271e-02 -2.4865599141752553e-01
    1.9801368144819295e-02 -2.6211797063462611e-01
    2.0007967342284324e-02 -2.6259690164666721e-01
    2.0980704578722208e-02 -2.4785590321914444e-01
    2.3255946689967451e-02 -2.2194700322681937e-01
    2.7278164226132485e-02 -1.8721140499215855e-01
    3.5205639871294270e-02 -1.4764013164625320e-01
    4.7552439450484485e-02 -1.0816436385538704e-01
    7.2393683818392299e-02 -7.6812111654108173e-02
    1.1396537993357475e-01 -4.7075299604561950e-02
    1.8633604677174664e-01 -3.0201967580920600e-02
    5.4890432975324055e-01 -1.5241243556148311e-02
    1.8870427315559291e+00 -5.2837196483566011e-03 1. 0. 1. 0.
    6.4460793564548942e+00 -4.0825169257547658e-03
    1.4881961063114144e+00 -7.7634230212578776e-03
    1.0378574750912513e+00 -1.4893254767559455e-02
    2.9626314199892556e-01 -2.3962750468679763e-02
    1.2271782724507993e-01 -5.0340898033052542e-02
    7.5503214617767808e-02 -7.8767470263075956e-02
    4.8023122663132030e-02 -1.1618154027353761e-01
    3.3763819709914628e-02 -1.6124756197962478e-01
    2.5250311458977676e-02 -2.1196163534976650e-01
    2.0052094965084099e-02 -2.6689873121059338e-01
    1.6720901271095080e-02 -3.2567801032750021e-01
    1.4433780328490018e-02 -3.9024154804428057e-01
    1.2838641258765621e-02 -4.5207637577719822e-01
    1.1935670058468253e-02 -4.9939798378235850e-01
    1.1566812160518124e-02 -5.2342832397506245e-01
    1.1674165860786076e-02 -5.1761889440708375e-01
    1.2286269902340810e-02 -4.8090241906897768e-01
    1.3504748722938009e-02 -4.2307969402109191e-01
    1.5561919052793203e-02 -3.5674039490496118e-01
    1.9127727707166170e-02 -2.8368364842044325e-01
    2.5034828244085983e-02 -2.1683666135332635e-01
    3.4856099854641463e-02 -1.5852438026891422e-01
    5.0904882032675139e-02 -1.0878458131852732e-01
    8.2190903785030009e-02 -7.0922530876102396e-02
    1.8750171775889582e-01 -3.8953481864410604e-02
    4.8068752630553679e-01 -1.4252385154959166e-02
    2.8379498678091473e+00 -5.7704980645452656e-03 1. 0. 1. 0.
    1.1536420576779074e+00 -1.1901740561710412e-02
    3.4806876020438438e-01 -2.2050155958947753e-02
    1.3108076953627013e-01 -5.1838074992610297e-02
    6.1951416938616229e-02 -9.0659703547970996e-02
    3.8928522875927463e-02 -1.3966710556553796e-01
    2.7267172044038460e-02 -1.9708212055276858e-01
    2.0310544526470912e-02 -2.6438472766459992e-01
    1.6058619090491534e-02 -3.4073044164379185e-01
    1.3413662972845386e-02 -4.2253574910981878e-01
    1.1659149742615876e-02 -5.1540864854364965e-01
    1.0458320244453354e-02 -6.1603532693124363e-01
    9.7011251647249417e-03 -7.1598329682613437e-01
    9.3313156332037895e-03 -7.9412046598170660e-01
    9.2169012100847113e-03 -8.3504925263841268e-01
    9.2684362963140459e-03 -8.2418581131767721e-01
    9.5139360324611212e-03 -7.6283928350277330e-01
    1.0108144176694272e-02 -6.6655949828398464e-01
    1.1171070003323126e-02 -5.5625039790047115e-01
    1.3031960000588465e-02 -4.4764565402688039e-01
    1.6161069925254887e-02 -3.4762461409223266e-01
    2.1051996788279799e-02 -2.6084090667243637e-01
    2.8664363472002463e-02 -1.9030605326636274e-01
    4.3799712526290821e-02 -1.3108012967263930e-01
    8.8715176669426937e-02 -7.4846037383439853e-02
    2.2544219187530931e-01 -3.1930129109272974e-02
    1.7465783701487902e+00 -8.2089183396993146e-03 1. 0.
    3.0382652336798213e+01 -5.5701529284130054e-03
    5.6952462131221326e-01 -1.5661927086085863e-02
    1.6422848396732007e-01 -3.6365660633163578e-02
    7.0587879827199648e-02 -7.9024307931213802e-02
    4.0514631513379903e-02 -1.3328908621586855e-01
    2.6780784428177353e-02 -1.9915441070732662e-01
    1.9322387991394883e-02 -2.7542969146413893e-01
    1.5052602089655870e-02 -3.6333594608959097e-01
    1.2418851013265312e-02 -4.6308053298899382e-01
    1.0822571024019725e-02 -5.7484518896921732e-01
    9.8544086338043825e-03 -6.9880387280738732e-01
    9.2830187890575854e-03 -8.2877368352491809e-01
    9.0074868253702551e-03 -9.5689204766999747e-01
    8.9149207576242825e-03 -1.0564726393771116e+00
    8.9019724135588046e-03 -1.1047183078736826e+00
    8.9022737607425007e-03 -1.0835076091183173e+00
    8.9165573854273171e-03 -9.9895164574737372e-01
    9.1017039348284430e-03 -8.7474762363395098e-01
    9.6395423414931299e-03 -7.2455973459718970e-01
    1.0744575840055575e-02 -5.8060589820293118e-01
    1.2804502010278487e-02 -4.5215876382959225e-01
    1.6164493498503400e-02 -3.3932343107123353e-01
    2.1755020593201647e-02 -2.4893037280300365e-01
    3.2098587832302343e-02 -1.7293970156995084e-01
    5.6103241780279242e-02 -1.0410424039345649e-01
    1.2964213042516703e-01 -4.8317622009459750e-02
    4.8541314454218504e-01 -1.4708018279628208e-02
    5.2117237350060854e+00 -4.0825169257547667e-03
    6.7049033577396222e-01 -1.3231009292606188e-02
    2.4375065889415110e-01 -2.6243820940936934e-02
    9.9317704767939163e-02 -5.9158590845022965e-02
    4.8869076680976266e-02 -1.1300485291708950e-01
    3.0097579331474431e-02 -1.7844152508780120e-01
    2.0746524026233240e-02 -2.5800481011643789e-01
    1.5629562512516047e-02 -3.5091181161850776e-01
    1.2649151806693614e-02 -4.5909822417438662e-01
    1.0837898273378558e-02 -5.8414555692950476e-01
    9.8279264066316891e-03 -7.2495420680603806e-01
    9.3051070721609456e-03 -8.7563926623715083e-01
    9.0948880042541775e-03 -1.0148029044892122e+00
    9.0573545680194597e-03 -1.1321685662228851e+00
    9.0554108274627180e-03 -1.2021883425077196e+00
    9.0808663884127377e-03 -1.2295375038647796e+00
    9.0723709836048102e-03 -1.2096976992530375e+00
    9.0356182139097012e-03 -1.1446098274798200e+00
    9.0106171506072388e-03 -1.0231255420609500e+00
    9.2054011907544645e-03 -8.6295358399973732e-01
    9.8953953711339582e-03 -6.9048023851396068e-01
    1.1378785206741562e-02 -5.3290132006238677e-01
    1.4125519371424632e-02 -3.9754744006276055e-01
    1.8925092601564067e-02 -2.8768127889100548e-01
    2.8009150098363078e-02 -1.9700702540851978e-01
    4.6932781744196905e-02 -1.2122893967131874e-01
    1.1071645081439330e-01 -5.6808610912865203e-02
    4.8271828388700305e-01 -1.5390667951263946e-02
    1.2357769628161059e+00 -5.0254929821188302e-03
    3.4084327675239168e-01 -1.7320519180300704e-02
    1.3079811498430369e-01 -4.3080539138663484e-02
    6.4712412758713506e-02 -8.5248896947691236e-02
    3.7207419379852932e-02 -1.3945836882493945e-01
    2.4858152431941404e-02 -2.1088330755129384e-01
    1.7838905150873663e-02 -3.0001797729333762e-01
    1.3760719731315114e-02 -4.0728152617562596e-01
    1.1354928120847716e-02 -5.3288847995060140e-01
    9.9935311401737701e-03 -6.8062942536381499e-01
    9.3252364895925095e-03 -8.4198850255578495e-01
    9.0567574469155917e-03 -9.8243825473033908e-01
    9.0001864657767855e-03 -1.0749410206177445e+00
    8.9792216175286245e-03 -1.1079807253900844e+00
    8.9938924314447530e-03 -1.1065909866747210e+00
    9.0251680310060711e-03 -1.1041449232725029e+00
    9.0281449405893929e-03 -1.1080246799657834e+00
    9.0074291609982537e-03 -1.1002043281838867e+00
    8.9779656800706639e-03 -1.0437866693996500e+00
    9.0743768988995922e-03 -9.1297850442442741e-01
    9.5603998434639730e-03 -7.3919131377694225e-01
    1.0794544642347401e-02 -5.7100550467303579e-01
    1.3318540978204832e-02 -4.2367100161696558e-01
    1.8229752003881883e-02 -2.9819620669549857e-01
    2.7511175302463796e-02 -1.9768613533173737e-01
    4.6299027012198526e-02 -1.2068381546044687e-01
    1.1199645993336554e-01 -5.3935628496243289e-02
    4.9683176133878221e-01 -1.3505543379059230e-02
    1.2135025916301894e+00 -5.9057126126002548e-03
    2.6564179405804561e-01 -2.1109667901146024e-02
    1.0349084381728776e-01 -5.2989036881848292e-02
    5.4134811331694038e-02 -9.3078492356859194e-02
    3.3829270306457576e-02 -1.5039873374962087e-01
    2.3065104567247429e-02 -2.2619102328598756e-01
    1.6574686520695520e-02 -3.2364534010158574e-01
    1.2813608645905221e-02 -4.4213121716537451e-01
    1.0680765347830560e-02 -5.8424747721514458e-01
    9.5801693578614795e-03 -7.4857559262355899e-01
    9.0918936977612066e-03 -9.0044933236446290e-01
    8.9727262193568576e-03 -9.9238770713310409e-01
    8.9819519055079709e-03 -9.9508844582905953e-01
    9.0820062361602442e-03 -9.4955659857977437e-01
    9.1764797612000990e-03 -9.0890462620353851e-01
    9.1956015418566493e-03 -9.1393597102263968e-01
    9.1467019539129609e-03 -9.5430483674302435e-01
    9.0464398169267015e-03 -1.0030879428764543e+00
    8.9980387824558083e-03 -9.9948655135463493e-01
    9.0926540338881860e-03 -9.0150861177674246e-01
    9.5622567025844003e-03 -7.3668151560828854e-01
    1.0769019356842361e-02 -5.6758942145055025e-01
    1.3360669430876521e-02 -4.2017189920780101e-01
    1.8851421857897347e-02 -2.9017459542242080e-01
    3.0444269756015222e-02 -1.8148235125157422e-01
    5.5290631176703513e-02 -1.0493977495234404e-01
    1.3419187001379709e-01 -4.7213172933187608e-02
    5.0079854522521305e-01 -1.4130865617771429e-02
    8.6592077801118750e-01 -5.7728051867412507e-03
    2.2961390400521112e-01 -2.2632277138113641e-02
    1.0095565869099236e-01 -5.2803174684012043e-02
    5.5061939830372622e-02 -9.2205806740944821e-02
    3.4378371408908800e-02 -1.4745169983709391e-01
    2.3012820556852713e-02 -2.2728458804171869e-01
    1.6184974494829037e-02 -3.3242831639121695e-01
    1.2441736626448881e-02 -4.6269615812556164e-01
    1.0366445817928003e-02 -6.1903352143624946e-01
    9.4040119553180906e-03 -7.8428268532505208e-01
    9.0616285729332741e-03 -9.0820987918795304e-01
    9.0276598486294709e-03 -9.3137298385228173e-01
    9.2614461294292412e-03 -8.6957693484385423e-01
    9.6085890673250074e-03 -7.9705952732714902e-01
    9.7127245345455509e-03 -7.7141210191978882e-01
    9.5067723677463162e-03 -8.0356009282996355e-01
    9.3102427461099514e-03 -8.7393929706678419e-01
    9.1123038468280335e-03 -9.5157541370809595e-01
    9.0526943272145437e-03 -9.6213106545131555e-01
    9.1642554906533492e-03 -8.6347325893960780e-01
    9.7610766420335414e-03 -7.0132424639191082e-01
    1.1122250632863200e-02 -5.3739656439070949e-01
    1.3932455672998783e-02 -3.9677102693919941e-01
    2.0093294770402510e-02 -2.7122264169335480e-01
    3.4631988773663712e-02 -1.5932446435323991e-01
    7.0653342057910351e-02 -8.1258408700802684e-02
    1.6657039989223177e-01 -3.6950867042760079e-02
    6.3381134461946831e-01 -1.1873399189204707e-02
    1.1890742635516922e+00 -7.0551739637400397e-03
    2.7187404253543629e-01 -2.0771176849707331e-02
    1.1215355577505325e-01 -4.7203562399790323e-02
    6.4047150216850077e-02 -8.2003836232647606e-02
    3.7699984436756581e-02 -1.3745728492178422e-01
    2.3569637058332028e-02 -2.2518195549159836e-01
    1.6017065431567844e-02 -3.3849238108059060e-01
    1.2117447090558515e-02 -4.8293499702811588e-01
    1.0115402446214745e-02 -6.4828821904598688e-01
    9.2857287761024532e-03 -8.0980531132096956e-01
    9.0752699606343259e-03 -8.9646046061893581e-01
    9.1895703573481244e-03 -8.7178559265499089e-01
    9.6099674381496681e-03 -7.8497609556634629e-01
    9.9879206995551022e-03 -7.3254173735263994e-01
    9.7307756351548563e-03 -7.4095055945724220e-01
    9.3907556905952812e-03 -8.0221046978473176e-01
    9.2634071053515083e-03 -9.0126281481954318e-01
    9.0965707880393890e-03 -9.7772292777300929e-01
    9.0565166767232076e-03 -9.5554794253494879e-01
    9.2655007477132657e-03 -8.2490289881853818e-01
    1.0100768352726762e-02 -6.5598783516841030e-01
    1.1750607276521729e-02 -4.9936418652616171e-01
    1.4583948964667304e-02 -3.6957330910853065e-01
    2.0545306471433603e-02 -2.5846440689370354e-01
    3.7518820030696919e-02 -1.4969571472681045e-01
    1.0108848101217496e-01 -6.1111356387893508e-02
    2.2499252054679278e-01 -2.8011568808075701e-02
    1.1173591407938479e+00 -9.1250996498164240e-03
    1.3958819197838115e+00 -5.3043512951784838e-03
    3.7172987183149653e-01 -1.6238399901172540e-02
    1.5030415156391430e-01 -3.6378614816852721e-02
    7.8039041670625295e-02 -6.8582010470840019e-02
    4.1503882772181609e-02 -1.2736849891403002e-01
    2.3538333232684960e-02 -2.2614335961635912e-01
    1.5462427079906763e-02 -3.5220290631899825e-01
    1.1648493961269058e-02 -5.0758351264543122e-01
    9.8511889908257204e-03 -6.7944963961590432e-01
    9.1766156748710921e-03 -8.2825104798213767e-01
    9.0795319460043253e-03 -8.8883003574129060e-01
    9.2432547929562799e-03 -8.4190091143889212e-01
    9.6169336711802098e-03 -7.6653452789534315e-01
    9.7040862635580302e-03 -7.7020475479573480e-01
    9.1824004548704888e-03 -8.2034371951753815e-01
    9.0221486619736380e-03 -9.1768349044746200e-01
    9.1039929428001869e-03 -1.0290959404025219e+00
    9.0004175478489486e-03 -1.0582789957353820e+00
    8.9891423011017220e-03 -9.6567404305680271e-01
    9.3999912450939676e-03 -7.9447676337845186e-01
    1.0527038572582560e-02 -6.1674936335832320e-01
    1.2285167278453694e-02 -4.7007288390074897e-01
    1.4959388512931451e-02 -3.5512441443246612e-01
    2.0091687812791130e-02 -2.5540754464498211e-01
    3.5817150554283542e-02 -1.5382451343799078e-01
    1.1834017383780147e-01 -5.2454282053605500e-02
    2.6955335370853167e-01 -2.1505865070045684e-02
    9.7593261748757754e-01 -9.9219816111237036e-03
    7.6547192357901865e+00 -4.0825169257547667e-03
    5.9914440434565353e-01 -1.0934385379308176e-02
    2.0833055220658958e-01 -2.5544797876397993e-02
    9.3973239798281594e-02 -5.7073080970823017e-02
    4.2724174432875753e-02 -1.2466202029939263e-01
    2.2427537614770596e-02 -2.3849817291840633e-01
    1.4606786361226609e-02 -3.7325889731751249e-01
    1.1204170363603227e-02 -5.3313606806675962e-01
    9.6664264279342823e-03 -7.0209413981322266e-01
    9.1351227959779544e-03 -8.3745004990550431e-01
    9.0833794130886179e-03 -8.8007424931675216e-01
    9.2319999839093215e-03 -8.4101427266750906e-01
    9.4027437080550415e-03 -8.1679095851072969e-01
    9.1982651471546207e-03 -8.9192403730482583e-01
    8.7863379291949449e-03 -9.7855056346064451e-01
    8.9601106040964398e-03 -1.1108034291517508e+00
    9.0953034118440544e-03 -1.1806299570947056e+00
    8.9167596206221351e-03 -1.1288577554289330e+00
    8.9646163171245557e-03 -9.7607041281396068e-01
    9.5517249996382881e-03 -7.7519539522147773e-01
    1.0763916272172904e-02 -5.9444660485818457e-01
    1.2388528244233175e-02 -4.6091023791539754e-01
    1.4829329311590322e-02 -3.5550054572089246e-01
    1.9316476802955316e-02 -2.6354918038032160e-01
    3.2238662755345197e-02 -1.6450368713065402e-01
    1.0178387638579016e-01 -5.9513032522771507e-02
    2.8160676310321775e-01 -2.3368667891515354e-02
    6.8137948719919539e-01 -7.4043237608979236e-03
    2.1677081021706726e+00 -4.0825169257547667e-03
    9.6828429446622244e-01 -7.9883454293463354e-03
    3.3778067000818779e-01 -1.8296452958776840e-02
    1.1012713424410198e-01 -5.1339434532362942e-02
    4.2193078163128728e-02 -1.2934639719891805e-01
    2.0849796247658994e-02 -2.5752139340050229e-01
    1.3846410772487106e-02 -3.9501132961156366e-01
    1.0897630979309679e-02 -5.5042172292818203e-01
    9.5907413426751294e-03 -7.0732308831278545e-01
    9.1408352561085510e-03 -8.2604981707907066e-01
    9.1278995218893790e-03 -8.6785315071101776e-01
    9.2266829733360003e-03 -8.6074372211415462e-01
    9.2409831619656383e-03 -9.0403567970277843e-01
    8.9645791564348255e-03 -1.0347035295982636e+00
    8.7929712365879820e-03 -1.1454361823194157e+00
    9.1305985089769198e-03 -1.2742078920823614e+00
    9.1042142617443842e-03 -1.2481935412875207e+00
    8.8985315860213837e-03 -1.1397750920942384e+00
    9.0031104051283874e-03 -9.6328344629334939e-01
    9.5911179236369565e-03 -7.6301131574111825e-01
    1.0642844571430145e-02 -5.9702704002420259e-01
    1.2120770906235662e-02 -4.7201998945292917e-01
    1.4424704567579208e-02 -3.6837041207106841e-01
    1.8700098612517119e-02 -2.7332531634520335e-01
    3.0303960202343848e-02 -1.7338663362772719e-01
    8.4045739185599391e-02 -6.8942719853947176e-02
    2.6657282114179148e-01 -2.4644657314558623e-02
    3.1510835765894534e+00 -6.9849019281066219e-03
    6.5049273574319830e+00 -4.7702800621167874e-03
    1.0834727644497475e+00 -4.1894280225390238e-03
    4.1348683773770312e-01 -1.8648256381970412e-02
    1.0536764207332489e-01 -5.3272123704905180e-02
    3.9437687853005290e-02 -1.4042051677981554e-01
    1.9237766378276837e-02 -2.7718062364316937e-01
    1.3302078070767992e-02 -4.1220900758168094e-01
    1.0818343387599577e-02 -5.5400339815306554e-01
    9.6864675984830468e-03 -6.9200544270492148e-01
    9.2448693226821633e-03 -7.9258313982720718e-01
    9.2135184390030808e-03 -8.4194083559182187e-01
    9.2290378319375942e-03 -8.6976698260718999e-01
    9.1260415072594771e-03 -9.5866434691792879e-01
    8.8804006446702895e-03 -1.0941026571060872e+00
    8.8797964875475550e-03 -1.2048945535106514e+00
    9.1468978002377660e-03 -1.2724254103359656e+00
    8.9802249753631255e-03 -1.1836340627652491e+00
    8.8799652257232943e-03 -1.0783524891312286e+00
    9.1038267435211984e-03 -9.2258453333646129e-01
    9.6005143329042260e-03 -7.5248127303585577e-01
    1.0462540184554626e-02 -6.0978718332237880e-01
    1.1799828497338932e-02 -4.8675393868849515e-01
    1.4117684561402858e-02 -3.8089677652984794e-01
    1.8689568617624490e-02 -2.7829889045759920e-01
    3.0110332991676945e-02 -1.7549155193650753e-01
    7.1349130087979176e-02 -7.7026142538646050e-02
    1.9988510513655666e-01 -2.9626303999656638e-02
    8.4094525335208525e-01 -9.1102402446475907e-03
    6.1237753886321498e+00 -4.0825169257547667e-03
    1.6909102611898854e+00 -6.7072773693865459e-03
    2.9060222872968322e-01 -2.1601432335573118e-02
    9.7449342839386846e-02 -6.0707692277510023e-02
    3.5128318226281312e-02 -1.5702241152753660e-01
    1.7978327035971048e-02 -2.9716316829999756e-01
    1.2972135741630021e-02 -4.2230679805745347e-01
    1.0926611684804018e-02 -5.4572670683442071e-01
    9.9394243167690299e-03 -6.5910028912336482e-01
    9.5170892642893745e-03 -7.4125055232891279e-01
    9.4183173905225872e-03 -7.8837956472434367e-01
    9.3234438830669935e-03 -8.3396729322086094e-01
    9.0908602873452683e-03 -9.1941339753528917e-01
    8.8553309504785412e-03 -1.0259556200619726e+00
    8.8775613412684518e-03 -1.1227755144981371e+00
    8.9860571702642302e-03 -1.1450631619152505e+00
    8.9169675187790176e-03 -1.0794597021434531e+00
    8.9903200414028113e-03 -9.9988631339674205e-01
    9.2156451799928485e-03 -8.7891758398800457e-01
    9.6126381809093359e-03 -7.4358354374596913e-01
    1.0327951414885607e-02 -6.1562164263755803e-01
    1.1728731090174187e-02 -4.9307976460795289e-01
    1.4212188896869156e-02 -3.7987428084700636e-01
    1.9203497078539213e-02 -2.7351764929762651e-01
    3.0903316836217960e-02 -1.7353912085962375e-01
    6.5301956507944486e-02 -8.4050148221375340e-02
    1.7839395414126039e-01 -3.4162442218051363e-02
    7.2680060806126534e-01 -8.9396474791535643e-03 1. 0.
    1.2263737007433526e+00 -8.9320884537474176e-03
    2.2636152789709318e-01 -2.5397763430053854e-02
    7.7516311632616741e-02 -7.3900175694955175e-02
    2.9881229021335241e-02 -1.7786004742175898e-01
    1.6917332253984091e-02 -3.1338342960570287e-01
    1.2825042487910698e-02 -4.2901306127159833e-01
    1.1106879955347627e-02 -5.3508893613681163e-01
    1.0267557252323577e-02 -6.2078198750601798e-01
    9.8628811810199234e-03 -6.8268923835054318e-01
    9.6874184941051992e-03 -7.2347013698264284e-01
    9.4821683198973647e-03 -7.6555897899305758e-01
    9.2097577685446678e-03 -8.2507042481961534e-01
    9.0180135158619921e-03 -9.1939023544776177e-01
    8.9352815371610324e-03 -1.0062601332296954e+00
    8.9470083282042461e-03 -1.0328150547988861e+00
    9.0041800398750205e-03 -1.0106726878790984e+00
    9.1032483615716333e-03 -9.5150929723216771e-01
    9.2356390105956653e-03 -8.5546568645152354e-01
    9.5820198680995929e-03 -7.4032106833884559e-01
    1.0336779490160927e-02 -6.1326579426167072e-01
    1.1888667060846268e-02 -4.8515629201913280e-01
    1.4755469135091659e-02 -3.6804197776930747e-01
    2.0318339514053187e-02 -2.6078182399496985e-01
    3.2644014383103000e-02 -1.6833375676862808e-01
    6.2500684961346781e-02 -8.8542637028574608e-02
    1.7109776495512422e-01 -3.5936233899407921e-02
    1.2057200212717352e+00 -1.0710812855630580e-02
    3.1084035706307054e+00 -5.9059667841983403e-03
    1.1947550115224044e+00 -6.3521141445941169e-03
    1.8459952406871327e-01 -3.3320214094402743e-02
    6.0063061530205179e-02 -9.1304862985141400e-02
    2.6124691582275841e-02 -1.9910803065973620e-01
    1.6062765900929157e-02 -3.2796741246305139e-01
    1.2574762178659240e-02 -4.3899542662547630e-01
    1.1092271024320957e-02 -5.3445408811407946e-01
    1.0397746220095131e-02 -6.0594789680655092e-01
    9.9918239700375680e-03 -6.5940509392984525e-01
    9.7265660223358908e-03 -6.9784836599699163e-01
    9.5376283492236060e-03 -7.3042289419662365e-01
    9.3973170455657826e-03 -7.8112566692492813e-01
    9.1631363690461050e-03 -8.7168855191159800e-01
    8.9947413603606984e-03 -9.5845445408422691e-01
    9.0127820363154667e-03 -1.0112466121564123e+00
    9.0746977830615579e-03 -1.0104488437684862e+00
    9.0740873457440842e-03 -9.5294507586676680e-01
    9.1725874047577736e-03 -8.5872463833459933e-01
    9.5567783204039188e-03 -7.3231139362819653e-01
    1.0492049895120014e-02 -5.9491059544069125e-01
    1.2272183566913935e-02 -4.6342915009115859e-01
    1.5468821882370341e-02 -3.4877114414893740e-01
    2.1602314695750677e-02 -2.4588474663859947e-01
    3.4548855257881220e-02 -1.5820093566860099e-01
    6.5794896362632041e-02 -8.5437962671695844e-02
    2.0501057750388216e-01 -3.1557961563764260e-02
    8.0112838185817015e-01 -9.7604141189720391e-03
    1.6330067703019068e+01 -4.0825169257547676e-03
    9.2599146384527464e-01 -1.1281662667848262e-02
    1.3885709865451468e-01 -3.9757101629765125e-02
    5.0812940557092921e-02 -1.0385233479292914e-01
    2.4299944569476883e-02 -2.1198097145090775e-01
    1.5527313999749314e-02 -3.3747788855041810e-01
    1.2263456380429100e-02 -4.5170193276974174e-01
    1.0830555475179219e-02 -5.5213160960619312e-01
    1.0134482034941036e-02 -6.3188647505087880e-01
    9.7265278391635620e-03 -6.9322439099774313e-01
    9.4810228062583851e-03 -7.3838490045824501e-01
    9.3269664859713421e-03 -7.7073076657941308e-01
    9.2118835958347536e-03 -8.2876952328269016e-01
    9.0652411048955366e-03 -9.1927271014272005e-01
    8.9715128503452118e-03 -1.0088060986882783e+00
    9.0050697105492471e-03 -1.0608282793932027e+00
    9.0414249902396691e-03 -1.0481237261139540e+00
    9.0015145645349817e-03 -9.6705521345440448e-01
    9.1734534916265917e-03 -8.4650228433733210e-01
    9.7550161788788840e-03 -7.0122275449120453e-01
    1.0932734670331646e-02 -5.5538565443651511e-01
    1.3062795677920784e-02 -4.2707460646741952e-01
    1.6875887836370441e-02 -3.1681047982258770e-01
    2.4101940546579017e-02 -2.2068580332366877e-01
    3.8751463222016364e-02 -1.4105726370130067e-01
    7.3159609120596256e-02 -7.8171042345357100e-02
    1.9892691542262070e-01 -2.9182578492498456e-02
    1.1745052636088484e+00 -8.0257859679937985e-03 1. 0.
    6.7743045194532669e-01 -1.0342104899698654e-02
    1.3034223502601749e-01 -4.3273622028637812e-02
    4.8396784585620529e-02 -1.0916701376363136e-01
    2.4554369196308077e-02 -2.0903257268663047e-01
    1.5957442297017288e-02 -3.3022464068133384e-01
    1.2265676368740121e-02 -4.5487526569794062e-01
    1.0581039790359304e-02 -5.6919680718391474e-01
    9.7712862742586806e-03 -6.7294360006505827e-01
    9.3716729213697333e-03 -7.6060122562919896e-01
    9.1670714229806546e-03 -8.2875749514337049e-01
    9.0565093371887725e-03 -8.8650818993286140e-01
    8.9927793155633890e-03 -9.5984040337562160e-01
    8.9601866312100115e-03 -1.0513839685493109e+00
    8.9706534258689029e-03 -1.1209048246414319e+00
    8.9915709913075108e-03 -1.1289434394918580e+00
    8.9897909461324008e-03 -1.0627393739357245e+00
    9.0489413975631070e-03 -9.3933290255853630e-01
    9.3869994595349414e-03 -7.8734756501774561e-01
    1.0238985882502244e-02 -6.2699095585584852e-01
    1.1917777300855883e-02 -4.8806277491330052e-01
    1.4791158246896483e-02 -3.6895114434919413e-01
    1.9759322047736599e-02 -2.6929222578181711e-01
    2.8636730168165581e-02 -1.8721262347438247e-01
    4.4816751016600868e-02 -1.2162743363810283e-01
    8.8757045142441426e-02 -6.6493819652545694e-02
    2.3309658019791660e-01 -2.6033003065103984e-02
    3.4296926369754859e+00 -5.7733159389087348e-03
    7.6547192357901865e+00 -4.0825169257547667e-03
    7.8814988570461819e-01 -1.0009503548448651e-02
    1.4248410269843431e-01 -4.0498731456984981e-02
    5.4363151333695764e-02 -9.9984707932933251e-02
    2.8375327488622572e-02 -1.8820172417891326e-01
    1.7729156407121936e-02 -2.9963131237262419e-01
    1.3022109541900492e-02 -4.2724846894466612e-01
    1.0766760710396927e-02 -5.5525136047379708e-01
    9.6810743355093577e-03 -6.8177739738408816e-01
    9.1870388757289943e-03 -8.0158751598510614e-01
    8.9979268816343348e-03 -9.0865684586542761e-01
    8.9719310664269480e-03 -1.0089452370233423e+00
    9.0022585562169813e-03 -1.1036228854408645e+00
    9.0612208366722975e-03 -1.1813322012848917e+00
    9.0423344294405638e-03 -1.1921856786161482e+00
    9.0119546128711852e-03 -1.1253050489984862e+00
    9.0406791698941658e-03 -9.9470795821094149e-01
    9.3022236841844245e-03 -8.3223274412924364e-01
    1.0018220458531771e-02 -6.6712599007954476e-01
    1.1463256311922469e-02 -5.2269449230298171e-01
    1.3974510147232210e-02 -3.9906542810446116e-01
    1.8207166230644323e-02 -2.9670064291410431e-01
    2.4981100867880378e-02 -2.1262622368528269e-01
    3.6186649309320182e-02 -1.4869395756610573e-01
    5.6897637528183539e-02 -9.6895728416537763e-02
    1.1475704424736648e-01 -5.0931088854385367e-02
    3.4232733864082288e-01 -2.0214429346740590e-02
    6.2807952703919492e+00 -4.0825169257547667e-03
    7.9016456627511626e+00 -4.0825169257547676e-03
    6.1066837998566887e+00 -6.0049057365257437e-03
    1.8016755677681681e-01 -3.3706347080329477e-02
    7.2587196736811327e-02 -7.8972450476426176e-02
    3.7455665821716146e-02 -1.4774137678937121e-01
    2.2428955822545487e-02 -2.4325024984597407e-01
    1.5405581048547274e-02 -3.6034629759351816e-01
    1.1969998229364799e-02 -4.8644317204398235e-01
    1.0208599615130163e-02 -6.2240998151146698e-01
    9.3414041031404278e-03 -7.5670417593653161e-01
    8.9670432839366356e-03 -8.8873651263300035e-01
    8.8608855988812490e-03 -1.0021705916762687e+00
    8.8928679606332679e-03 -1.0895925700834848e+00
    8.9179406011185743e-03 -1.1174380226865099e+00
    8.9114340937564915e-03 -1.0748398501629048e+00
    8.9850710736181592e-03 -9.6307263008735955e-01
    9.3227862196658406e-03 -8.1766817267627045e-01
    1.0074657913157727e-02 -6.6465591023765036e-01
    1.1549793802228309e-02 -5.2359507978864084e-01
    1.3996888188408021e-02 -4.0214202844498298e-01
    1.7929426219009413e-02 -3.0306915962171466e-01
    2.4197135218011402e-02 -2.2168084444305056e-01
    3.3843079925784600e-02 -1.5936593526785550e-01
    4.9465112384615262e-02 -1.1006069947430872e-01
    8.3866566172356299e-02 -7.0039764962740489e-02
    1.9636356479161621e-01 -3.7135622828174480e-02
    6.8419120753163565e-01 -1.2201409867647502e-02
    3.4020974381289726e+00 -4.0825169257547667e-03 1. 0. 1. 0.
    3.5436976592843078e-01 -2.2738726647074308e-02
    1.2394825414122598e-01 -5.1905397225874068e-02
    5.7706483627069961e-02 -9.9988024180624122e-02
    3.3587353790810542e-02 -1.6843162263323730e-01
    2.1636815134268017e-02 -2.6031071981245063e-01
    1.5448413568205534e-02 -3.6983708061131620e-01
    1.2174356454018282e-02 -4.9009799512089147e-01
    1.0449052992553004e-02 -6.1537067921304456e-01
    9.5637224340296180e-03 -7.3897799359204341e-01
    9.1617488731368553e-03 -8.4317590464230574e-01
    9.0462563769141725e-03 -9.0195141353546182e-01
    9.0738577911196883e-03 -8.9980608323712019e-01
    9.2695563858204554e-03 -8.3974857905988531e-01
    9.7197871775051570e-03 -7.3465553413096107e-01
    1.0637555873087607e-02 -6.1257571084840612e-01
    1.2242464956319374e-02 -4.9207118796130972e-01
    1.4900760471377032e-02 -3.7992816658281020e-01
    1.8951479783046236e-02 -2.8881739331366080e-01
    2.5040927583794417e-02 -2.1344093709719539e-01
    3.4772498014742532e-02 -1.5366778231001738e-01
    4.9488756807815740e-02 -1.0912600801168756e-01
    7.5483885452548014e-02 -7.4098756154493753e-02
    1.3956777504971854e-01 -4.3317185116264312e-02
    3.3370543946177528e-01 -1.9343791974134241e-02
    1.0817138996367865e+00 -1.0402482001507098e-02 1. 0. 1. 0. 1. 0.
    6.5316724493651523e-01 -1.0352700832243766e-02
    2.3527088699057305e-01 -2.8750102390248028e-02
    1.0589559191438495e-01 -5.7568373617723469e-02
    5.9537456219121085e-02 -9.5310536788380001e-02
    3.6544894002382616e-02 -1.5360976204178156e-01
    2.4435116732738491e-02 -2.2342452610552213e-01
    1.8040449598609017e-02 -3.0357777033971306e-01
    1.4347328131871021e-02 -3.8847997348318075e-01
    1.2340002153670652e-02 -4.7019583239547175e-01
    1.1332497678375531e-02 -5.3312356540700145e-01
    1.0976936830697366e-02 -5.6650598866125268e-01
    1.1043147742482542e-02 -5.6278365603933089e-01
    1.1601952764605759e-02 -5.2716469557117129e-01
    1.2738150523733418e-02 -4.6805739652434009e-01
    1.4423444732045322e-02 -3.9580504525709581e-01
    1.6997044748378556e-02 -3.2478944599478732e-01
    2.1107963135629754e-02 -2.5570503161948921e-01
    2.6973584154826809e-02 -1.9461171231865995e-01
    3.6514784921153232e-02 -1.4457420509781937e-01
    5.1060803624541448e-02 -1.0177354277104227e-01
    7.5086963606358748e-02 -7.1425222681155323e-02
    1.1955398329308130e-01 -4.7777756856691722e-02
    2.5292947381802755e-01 -2.5752435925905506e-02
    5.1297176906466124e-01 -1.1379423743751069e-02
    2.4583835782087951e+00 -4.7528749178703368e-03 1. 0. 1. 0. 1. 0.
    4.2538092194313197e+00 -6.6643011104424010e-03
    6.1654432262170566e-01 -1.0964213203956000e-02
    2.1602544608191854e-01 -2.7604451585167823e-02
    1.0864826383686564e-01 -5.1553601190592747e-02
    6.1737350291149698e-02 -8.6771845834210895e-02
    4.0364909928613746e-02 -1.2839203275243580e-01
    2.8612152561722906e-02 -1.7577589804768851e-01
    2.2694195330940446e-02 -2.2305443764921434e-01
    1.9225169603306887e-02 -2.6664028561813097e-01
    1.7635987363975612e-02 -2.9484431541339895e-01
    1.6989234794794677e-02 -3.0750543293969690e-01
    1.7168678155634391e-02 -3.0518012168766356e-01
    1.8296930547594088e-02 -2.8923177911951814e-01
    2.0057933343472379e-02 -2.6323129112972693e-01
    2.2263524117221829e-02 -2.3372358935880061e-01
    2.5802018189541493e-02 -2.0102782405108269e-01
    3.1346829126865844e-02 -1.6369105191188499e-01
    4.0373375387709659e-02 -1.2766599609265630e-01
    5.5556842332466098e-02 -9.3965139331644326e-02
    7.9579095443036790e-02 -6.5683259060425186e-02
    1.2393037386965705e-01 -4.5926531049863738e-02
    2.0540333524789875e-01 -2.8718809656577044e-02
    5.0190948322325490e-01 -1.5693036508780435e-02
    1.5912073332956527e+00 -5.6753061554211609e-03
    2.3552982263969806e+00 -4.0825169257547658e-03 1. 0. 1. 0. 1. 0. 1.
    0. 6.4460793564548942e+00 -4.0825169257547658e-03
    4.2655553896960768e-01 -1.5121393856472593e-02
    1.9235291492922035e-01 -3.1369554543040350e-02
    9.9074653779864116e-02 -5.3330234885471187e-02
    6.6059337903862758e-02 -7.9228266914997791e-02
    4.6793070342535159e-02 -1.0837665033583997e-01
    3.8155093701435369e-02 -1.3397906785967686e-01
    3.2475493672729311e-02 -1.5751318066969958e-01
    2.9280715938901667e-02 -1.7510551348168438e-01
    2.8337019777137335e-02 -1.8262689734335766e-01
    2.8843043729560394e-02 -1.8053534074685540e-01
    3.0495643608517826e-02 -1.6987649098197535e-01
    3.4411445280974971e-02 -1.5315731360838736e-01
    3.8312780160134272e-02 -1.3543312368073065e-01
    4.4941565784027020e-02 -1.1648029922513764e-01
    5.5227542355114533e-02 -9.3951254136442341e-02
    7.1958047886264295e-02 -7.2576887098086171e-02
    9.6920183237295565e-02 -5.2364359666723509e-02
    1.5261325299611461e-01 -3.6382999514273727e-02
    2.8569172361868639e-01 -2.1503063731033129e-02
    8.0531623469345792e-01 -1.3019279127544236e-02
    8.6984809647906935e+00 -4.4942151651418587e-03
    4.1517121278862037e+00 -4.0825169257547667e-03 1. 0. 1. 0. 1. 0. 1.
    0. 1. 0. 1. 0. 2.2855909048659870e+00 -5.7901636256605001e-03
    5.8099546031975102e-01 -9.0538459233161193e-03
    3.8443818204485203e-01 -1.6005442979134008e-02
    2.4797937345246546e-01 -2.2119760111959919e-02
    2.0937992323957350e-01 -2.6845995824700649e-02
    1.6186917948672025e-01 -3.1845063244354099e-02
    1.3019713925899318e-01 -4.3748408743342695e-02
    1.0996886744491646e-01 -4.7282947372399249e-02
    1.0102754437895323e-01 -5.3138804550923083e-02
    9.5859856188538567e-02 -5.6622819386299920e-02
    8.7696849394196696e-02 -6.0338355611520469e-02
    9.5082200380204471e-02 -5.6295001438439726e-02
    1.0640768770340518e-01 -5.1366537777357127e-02
    1.2410541878473520e-01 -4.2632279776202958e-02
    1.6549655953012565e-01 -3.3171027081821514e-02
    2.5277062613373452e-01 -2.2462882975751206e-02
    3.5213484965517022e-01 -1.6069086972597599e-02
    5.9285407782360333e-01 -1.1432202800698484e-02
    5.9585189636506186e-01 -9.0072945000518514e-03
    2.8851969640687107e+00 -5.7703939281374215e-03 1. 0. 1. 0. 1. 0. 1.
    0.</input_scale>
  <output_scale>
    5.2631578947368418e-01 4.9999999999999994e-01 5.2631578947368418e-01
    4.9999999999999994e-01 5.2631578947368418e-01 4.9999999999999994e-01
    5.2631578947368418e-01 4.9999999999999994e-01 5.2631578947368418e-01
    4.9999999999999994e-01 5.2631578947368418e-01 4.9999999999999994e-01
    5.2631578947368418e-01 4.9999999999999994e-01 5.2631578947368418e-01
    4.9999999999999994e-01 5.2631578947368418e-01 4.9999999999999994e-01
    5.2631578947368418e-01 4.9999999999999994e-01</output_scale>
  <inv_output_scale>
    1.8999999999999999e+00 -9.4999999999999996e-01
    1.8999999999999999e+00 -9.4999999999999996e-01
    1.8999999999999999e+00 -9.4999999999999996e-01
    1.8999999999999999e+00 -9.4999999999999996e-01
    1.8999999999999999e+00 -9.4999999999999996e-01
    1.8999999999999999e+00 -9.4999999999999996e-01
    1.8999999999999999e+00 -9.4999999999999996e-01
    1.8999999999999999e+00 -9.4999999999999996e-01
    1.8999999999999999e+00 -9.4999999999999996e-01
    1.8999999999999999e+00 -9.4999999999999996e-01</inv_output_scale>
  <weights>
    <_>
      -2.4205505044311306e-03 1.4350020023881954e-03
      6.4644512343053386e-04 4.8633238430626955e-04
      3.7031664159510754e-04 -1.6347347408353825e-03
      -1.2924630049669246e-03 1.7709373011530339e-03
      7.3201703133273985e-04 8.4176117600069666e-04
      -2.2103004689572893e-03 2.5701767177842448e-03
      -4.6055566270852285e-04 -1.2959532608692174e-03
      1.2146696274049592e-03 1.3501453984548978e-03
      1.2006486140541946e-03 -7.9047858364686484e-04
      5.2702745043081700e-04 1.4969797402949717e-03
      1.8790840525207588e-03 -8.0425485038962896e-05
      -2.1396785201270195e-03 3.8027502702400544e-04
      5.4070604485474824e-04 1.9483366631563347e-03
      -1.1016644708152256e-03 1.9584281285844650e-03
      1.8217483075673349e-03 3.5326222553837576e-04
      -2.4665188888353640e-04 -1.5093692338370161e-03
      2.4117844440002967e-03 -1.0806241320293882e-03
      -5.1099068755931939e-04 1.1185571773340256e-03
      2.2493344026269821e-03 -5.7268389394363574e-04
      1.0421095318872201e-03 -4.2355703764858566e-04
      -6.8650041093578490e-04 -5.9625754962180889e-04
      -2.3240753129875041e-03 2.4844909353482392e-03
      -4.5812788503573639e-04 -1.3234199368159457e-03
      -1.3117890958410138e-03 -1.2971892833947409e-03
      1.9286432407072259e-03 2.4776955337968321e-03
      4.4171985651576075e-04 -6.4402036669152440e-04
      -1.9063480179137810e-04 -6.2389818836504937e-05
      -1.3084339282737141e-03 1.2973360679489304e-03
      2.4794315242453327e-03 -1.6896887634146917e-04
      2.3502187914656940e-03 -1.0219549636833831e-03
      1.7979035016160393e-03 -2.3143435270049804e-03
      -6.7635147751573383e-04 1.7444478761288152e-03
      4.0994780195165853e-04 -1.1371349919335483e-03
      -2.1511456119164040e-03 2.5932848588354198e-03
      -1.2192245718567042e-03 6.2259539968795340e-04
      -2.4739335763265301e-03 -5.5506389869876402e-04
      9.3319818898351112e-04 2.1824289240875705e-03
      -2.4770198212941850e-03 1.8768121412062618e-03
      -1.7568050742993696e-03 1.5740954205610838e-03
      7.9169482570736166e-05 -1.6393361948915856e-03
      8.5506088794419836e-04 -1.9247983747517560e-05
      6.6870247944575878e-04 -4.2905209528778420e-04
      -3.3062849336926858e-04 -2.3421222666677173e-03
      1.2299060377926766e-03 -2.4927376995615520e-03
      -1.7246591510148518e-03 -1.2900388111961947e-03
      2.5464509944050323e-03 -1.7040511063194179e-03
      1.5449500455183046e-03 9.8159894791508451e-04
      -1.6395223755152628e-03 -6.2404130075466161e-04
      -2.2485511052531527e-03 1.8022481891010835e-03
      -4.4152206997778156e-04 -1.8918223063722698e-03
      5.1696284291902759e-04 -1.1462587045603955e-03
      1.3271121066285687e-03 2.0349253709197814e-03
      -2.0789439996259971e-04 -2.6278472881858567e-03
      -6.2137547830144280e-04 -5.6314481290179158e-04
      -5.8884356465172384e-04 1.1347947913265721e-03
      1.8158400495619021e-03 1.2053427000363397e-03
      -3.3871773124435558e-04 1.5782343508407672e-03
      2.3643370250245712e-03 1.4576160908754509e-03
      1.2876331728093708e-03 -2.2223573664666742e-03
      -1.2420822153991372e-03 1.1362399353808165e-03
      1.7100964781361510e-03 -5.0338429278175907e-04
      -3.0546605958209138e-04 4.3034523465551626e-04
      -6.4746045629228421e-04 -1.6978176696383109e-03
      -8.7716089684717268e-04 1.3099967938766299e-03
      2.5309688048468135e-03 2.2139388332729913e-03
      1.2271952495767201e-03 -1.3760202161781077e-03
      2.2781054343213652e-03 1.1187243823972766e-03
      -5.9168778960385607e-04 9.0443563466739970e-05
      1.1737100848109752e-03 1.6946094836335348e-03
      1.4360221092004171e-03 1.5096901934200362e-03
      1.2055304274241829e-03 -2.3970962661184411e-03
      1.1189925039224962e-05 2.4339091520092721e-03
      6.8246957020225065e-04 -1.9466637872566574e-03
      1.9128338834277757e-03 1.1872493140987470e-03
      -1.6671804626521374e-03 -9.2280886061430151e-04
      -9.0378716211687784e-04 1.5028303414525847e-05
      1.5830882291244469e-03 -2.0735257460117373e-03
      -1.3935019467597616e-03 4.7332415432493305e-04
      2.0341573810042654e-03 1.5534700032835617e-04
      1.6897684656261975e-04 2.0980553297524130e-03
      -1.2725018011645519e-03 1.5074175020667185e-03
      -1.1927308437742850e-03 6.3270803180099126e-04
      1.2009875370347731e-03 -1.4028178347273699e-03
      -1.8407066614731700e-03 9.7811846455308940e-04
      -2.5555596028841446e-04 1.1701808567341364e-03
      7.0336764253263877e-06 -1.0000431699142614e-03
      -2.2141343502134940e-03 -1.6687057698110078e-03
      1.1007261996600771e-03 -1.6939208097205450e-03
      3.5574447253273496e-04 -2.6434521257609127e-03
      7.4932379401512360e-04 -1.0962931057807044e-03
      2.0796859914649882e-03 -1.3826350646334250e-03
      1.2133118845778682e-04 1.2703957711136737e-03
      -1.9114526515396119e-03 -1.3823455460982696e-03
      2.3022513274066556e-03 2.5358567994682784e-03
      -1.5442369473697430e-03 1.7981362358265537e-04
      4.9164853528702494e-05 -1.8031647956547069e-03
      -2.4879459553097151e-03 2.1383652794560544e-03
      -1.7063002883048932e-03 -1.2903812449038034e-03
      2.0691899488953155e-03 2.3874476647723678e-03
      -1.2440421304832857e-03 1.5220685602870521e-03
      -1.2804791524286005e-03 6.7518982672510366e-05
      2.2473935682637883e-03 2.5395760880831206e-03
      2.0356583424529263e-03 -1.6138746992204096e-03
      -1.3125068490776859e-03 -2.4967956905256933e-04
      9.9626523151477467e-04 -2.2087560357629669e-03
      -1.1333992639877570e-03 -2.4273224828371152e-04
      7.7630524580477305e-04 -1.1719426692489087e-03
      -2.1526167959436096e-03 6.9756280721370938e-04
      -1.7932330600998283e-03 2.2032823546913132e-03
      1.6967791950376206e-03 -4.6670675607554966e-04
      1.9657832172314212e-03 4.7572160320977859e-04
      2.4196172310331802e-05 -1.8023716354937927e-03
      -5.5313062079023116e-04 -7.7810070075995657e-04
      7.8924255296625189e-04 -1.8539894772010110e-03
      5.8732082178827090e-04 -1.4364542198512952e-05
      -3.7005197919411916e-04 -1.3051920236366695e-04
      5.1243703799553448e-04 -4.5621173344591185e-04
      -2.0872351248095214e-03 1.5649932360349626e-03
      3.6981424496011366e-04 7.2743027414240500e-04
      2.5460278507528199e-03 2.5365933194760764e-03
      2.5158350421405724e-03 -2.3615546120955722e-03
      -1.2583764613015537e-03 -1.6633140146560046e-03
      -1.8493254841341802e-03 1.9246471609057954e-03
      -1.5308133917483928e-03 8.5661101783838774e-04
      1.1633602907073620e-03 1.1636892052986827e-03
      2.3952945647002163e-03 -2.2650504756487467e-03
      2.5287807167435040e-03 -1.3288081774388873e-03
      -7.6078269073251144e-04 -2.3974205932407581e-03
      -6.1567097556772905e-04 -2.4550451659969101e-03
      -2.0194665297914079e-03 -4.5393484599494074e-04
      2.0670526686705610e-03 -1.4286995200401475e-03
      1.5193755833401176e-03 1.6001437509212948e-03
      6.6061854525575404e-04 7.5144454020521138e-04
      -1.5832582881968548e-03 -8.5068829274626879e-04
      2.3305822256111386e-03 -1.2878606820544620e-03
      4.1478542558612589e-04 -1.2017254463562359e-03
      -4.4069246579095638e-04 -1.5635863704909340e-03
      -2.0983871093812170e-05 1.0026498544624348e-03
      1.1317690796402345e-04 -5.1452835386936024e-04
      2.1118045128503617e-03 1.0621802801247557e-03
      2.5321294644884951e-03 -1.1390643432238222e-03
      -2.0036757981347496e-03 1.7314170889499391e-03
      6.9629191236917293e-06 2.0688158345708263e-04
      -1.2167102806306606e-03 -8.4588001560312830e-04
      -2.3932734020564923e-03 -1.3774006877800213e-03
      -1.7264958234849092e-03 -2.4408056547225868e-03
      -1.3030197702342545e-03 1.4223462354478059e-03
      -1.8150743848009752e-03 1.0607679553529001e-03
      1.1457832214779072e-03 -7.8212374879075978e-04
      2.3380798146733057e-03 1.8903937641332677e-03
      -2.4637757559718390e-03 -1.7327611006138013e-03
      -3.2378306990859938e-04 1.6180144935055938e-04
      -1.2961637534946498e-03 -1.5411780484630919e-03
      -2.1537375971565132e-03 1.2317466357031616e-04
      1.5599706515948475e-03 1.1229033724529734e-03
      1.5818133332635399e-03 -1.9540008608226636e-03
      -2.2558202760087150e-03 1.9116751418444995e-03
      8.3133094378275629e-04 -2.2891370683491056e-03
      2.4031849968570462e-03 -1.3613195690988339e-04
      2.4622165196933540e-03 2.2469265872351492e-03
      2.4494425977865169e-03 -2.9295322001577306e-04
      1.6263391547587558e-03 -1.6648528357311662e-03
      1.8727763036764215e-03 1.8520790954860090e-03
      6.4534836527017534e-04 -1.7195487636912942e-03
      -4.6828258247767459e-04 -6.0614827423209833e-04
      4.4961056154226058e-04 -2.0485627850883813e-03
      2.2165655611570000e-03 -1.6492413479823576e-03
      1.4803770786422232e-04 -3.0716332438940645e-04
      1.2275297819493308e-03 -7.9261346353845356e-04
      -8.7650038045191661e-04 1.7467783934365863e-03
      2.1873663002375428e-03 1.7071729699708561e-03
      1.9790759716433563e-05 -1.6041026222094910e-03
      1.5395465515133505e-03 -2.2511662081614524e-05
      1.5536478704625903e-03 1.4058071744813801e-03
      1.2250369605975531e-04 5.7198692410962270e-05
      -2.0377801436181173e-03 -4.7540037857234395e-04
      2.5022676434635475e-03 3.3698534705258745e-04
      -4.5652052671102329e-04 -6.4871204061360674e-04
      -1.4368690111675427e-03 -1.8460580862454084e-03
      1.6788573759091644e-03 -2.3169259312089808e-05
      1.0241894484573474e-03 -5.2059452859064444e-04
      1.9369844312283346e-03 1.3613665550706595e-03
      -1.4609165515413313e-03 1.6353555721958823e-03
      -1.7484303080780345e-03 -9.8769956475628002e-04
      1.9895852174061689e-03 1.3500322622759257e-03
      -4.2483851452518773e-04 1.1806367047931671e-03
      -2.1505342640950440e-03 -1.4969507753817850e-03
      -1.0560767198640789e-03 -9.2839625224441541e-04
      -5.2891810164221848e-04 3.8078254351640633e-04
      -1.8593186183068571e-03 1.4254308029464551e-03
      -1.5216629997243951e-03 -1.8371929884189002e-03
      -1.2258620193153433e-03 3.8351729596315610e-04
      2.1099175712824109e-03 1.7863209992656887e-03
      -1.2247747008538195e-03 1.8162513154208419e-03
      3.5836765706962333e-04 -1.4583466846682103e-03
      -9.4678862064250565e-04 -2.0185694331992534e-03
      5.0007426908329296e-04 3.3419538479413874e-04
      -2.2175583327624817e-03 -1.0735187867801201e-03
      9.4736631819714132e-04 8.3970004763847137e-04
      6.2358923090343843e-04 9.6438103725346653e-04
      -2.2164555538606943e-03 5.4420167816968225e-05
      -1.8052510358768502e-03 1.9240928100986337e-03
      -2.1490698847570181e-03 -2.4642684111729599e-04
      -8.7907366447753643e-04 4.6436471972906502e-04
      -1.1994013800273768e-06 -2.1401963432074326e-03
      -6.8970606255694563e-04 3.8017699352059709e-04
      -2.0592862362326545e-03 -2.5428084608797009e-03
      1.4869682197062102e-03 -1.3405091543033452e-03
      1.6968982477163824e-03 1.7704015934604858e-03
      6.4125698621222916e-04 -1.9799294755912370e-03
      -2.4456948771803062e-03 4.5459415416279625e-04
      1.2540231720655629e-03 -9.8573991260705852e-04
      -5.0831974461482338e-04 1.4804685750113480e-03
      1.4618755857651791e-03 5.2373276336358714e-04
      1.0008846415550826e-03 1.0255819283968911e-03
      5.8217573122884710e-04 -1.4314002514243861e-03
      2.4823145945763680e-03 1.3654473545955429e-03
      2.1318104993299112e-03 -2.0792807229852582e-03
      1.4158614666938980e-03 -1.4027274169071838e-03
      -2.2045368648913638e-03 1.4152284822082494e-03
      2.0776017304350481e-03 1.8025744156330470e-03
      9.9866222355474567e-04 -2.3696410317319218e-03
      -2.2997048297506593e-03 -4.1220031205319632e-04
      1.3155909968711251e-03 -1.8512591218222370e-03
      7.2309700106338800e-04 -6.7249481941697139e-04
      -9.3880677162632526e-04 5.4085995937998971e-06
      -1.2568627966251663e-03 2.3540797354095421e-03
      1.9258483297359360e-04 2.0414061453407719e-03
      -5.5441016609146411e-05 1.6725815764287602e-03
      -1.5141144667079401e-03 -8.0722320790434969e-04
      4.8796252411046546e-04 1.2086175359074178e-03
      1.2514949110977117e-03 3.7731660468528301e-04
      -2.4826689300271616e-03 1.2886341754009213e-03
      -5.3360375401134501e-04 -1.5712886999594831e-04
      1.1766592042732685e-04 6.8167344273453528e-04
      1.3105015618259488e-03 2.4140224040915858e-03
      2.0326166271387794e-03 3.8221501712223189e-04
      1.8753598136256482e-03 1.5706139240755106e-03
      1.4080165751850481e-04 5.4730393808934119e-04
      1.1817469450253414e-03 -7.6467872788588717e-04
      2.2710444851607738e-03 1.4284207686235297e-03
      -2.1640394359977761e-03 2.4457893471332356e-03
      1.0302372038769772e-03 -6.6290070468812839e-04
      -1.4451298252028944e-03 1.1914342813724884e-03
      -1.0918813788870273e-03 -9.1364733944037930e-04
      -2.4583099820259641e-03 -6.8171030556053613e-05
      1.2496583613574785e-03 6.3776170489075507e-04
      -3.8683981927118051e-04 -1.8659025885716541e-03
      -1.9792176715292720e-03 3.6679595765748348e-04
      -1.6397670071395846e-03 2.2832643959672383e-03
      -1.6444973995184962e-03 -4.3799719571041755e-05
      -1.9234802182087976e-03 1.9955441270866278e-03
      7.8379081026646973e-04 -6.4226866380196466e-04
      -2.2320138745057973e-03 1.1573243959949119e-03
      -1.6460949203925604e-03 -2.0755162909711178e-03
      -1.2109553474629624e-03 -9.6223127535712103e-04
      -2.4556823726113244e-03 -2.0884822605287236e-03
      8.3647399913376011e-04 -1.1715070707087234e-03
      2.4278281631352622e-04 1.1581771796937818e-03
      -4.0330837013380296e-04 1.5824098313722309e-03
      -1.7101300713433915e-03 9.8356730709377085e-04
      1.6734374921022789e-03 -2.1473635452652425e-03
      -1.1191184655680651e-03 -2.3292075670681387e-04
      -3.0185425824921211e-04 -2.4501754057127340e-03
      1.5519678781633105e-03 1.7895093487173177e-03
      2.2824508221209183e-03 -6.9918115323958703e-04
      2.0545364196580111e-03 -2.3435375089882133e-03
      -1.8624521674573851e-03 -7.1530963808762377e-04
      1.1792094761575828e-03 1.1042226654290843e-04
      -2.2926958353979734e-03 1.0962807321928645e-03
      1.6831733648141063e-03 1.6013711343898489e-03
      -1.9381831863357066e-03 -2.3382058752455916e-03
      -3.0810437302436147e-04 -1.8981676633092390e-03
      -2.3042132699242283e-04 -2.0610169473894739e-03
      2.5842750669696794e-03 1.4309275739700636e-03
      1.5143113665246092e-03 9.0615531771475757e-04
      -1.3587519638244719e-03 2.4651313105914078e-03
      1.5240451687102117e-03 -2.4282771561775010e-03
      1.6318612250107445e-03 3.3842549473152013e-04
      3.0722036925785279e-04 -7.3227304338553559e-04
      2.0044199844071438e-03 -2.0345171809719943e-03
      2.3343011015022606e-03 1.1342255738478880e-03
      4.9593631029242922e-04 8.5410644862180007e-04
      -1.6293632787721685e-03 -1.3219935808418687e-04
      -5.1521000701130115e-04 -1.9641604846128209e-04
      1.4276188815836748e-03 2.3182068196054752e-03
      -2.0848562959408495e-03 -1.1070846748979814e-03
      1.7618235901167869e-03 -2.5618360897068618e-03
      2.2319216860293978e-03 -1.4248873289222749e-03
      2.5075396377822925e-04 1.0416372922339577e-03
      1.6182438616021888e-03 1.8310740123394638e-04
      -2.4202149852918923e-03 -1.4834529333748094e-03
      -2.1989756480028512e-03 1.6468337552542516e-03
      -9.1285134929262543e-04 1.5151216860828597e-03
      -3.0812673440370157e-04 1.5911389626931650e-03
      -6.5570337213540647e-04 -2.9035718609049234e-04
      -1.1680406412625435e-03 -1.1102282096722368e-03
      -1.2260975208491212e-03 -1.9098697270013918e-03
      -2.1367898873433620e-03 2.3938318505867615e-03
      1.7692072442782559e-03 -1.5633724628327972e-03
      1.9480833401877196e-03 4.9223404527388764e-04
      -2.5238726703305072e-03 -1.3079980521101626e-03
      -2.4689822304553876e-03 2.2754617926418891e-03
      -1.0526081234787173e-03 -3.6487051617187715e-04
      7.4661993505201955e-04 8.8176955885737579e-05
      1.4204778018725263e-04 2.2194126952998438e-03
      -1.1465519056710516e-03 3.3471743796456343e-04
      -1.3690072539198063e-04 -1.5037947783071259e-03
      -1.2131881101341631e-03 -6.5869390660468262e-04
      2.5136147601643034e-03 6.3911516776470122e-04
      -6.0170081568829549e-04 -1.5975527086024247e-03
      -1.5081125850617896e-03 -1.2483711438428058e-03
      1.6958192197941697e-03 -1.6874047182942665e-03
      2.0406328032924535e-03 5.4109352823225913e-04
      2.3572418043326508e-03 -6.6461234673784175e-04
      -2.2344712809501109e-03 1.7370420343524328e-03
      -2.4953692649923817e-03 -2.1902626961608791e-03
      -1.9654842893343217e-03 1.1293036224160132e-03
      -8.5480809002626572e-04 7.9639741538591817e-04
      -1.9809337215259256e-03 -2.4630292053501096e-03
      1.2599241735902565e-03 8.3371238203419936e-06
      2.1592955624610472e-03 2.1999471951598660e-03
      1.1908400715213755e-03 -1.1157910434807460e-03
      -2.4904038560582875e-04 1.9828792170721488e-03
      -1.3476219811589117e-03 1.6144009070914120e-03
      4.8018778456202432e-04 2.3727915737910585e-03
      -2.1034541822378084e-03 -2.1415394661600902e-03
      -2.0942570282149673e-04 -1.2922274163676011e-04
      -9.7633837759629482e-04 1.0675545593480118e-03
      2.4247779846677262e-03 1.6104579019445920e-03
      1.0372634287889719e-03 -1.3263478651929445e-03
      4.8783615052579307e-04 -2.3871620269005785e-03
      2.1658669210854781e-03 4.0543591949549873e-04
      -1.4967398316167893e-03 9.9766840101011352e-04
      9.5842339174919401e-05 -1.4131016345175648e-04
      -1.8496277487055810e-03 -3.8688260955722497e-04
      -7.2722988927389869e-04 5.3577705431732210e-04
      6.4167778067824818e-04 1.3213568390607301e-03
      -2.8343058822535193e-04 -2.2457459230124043e-03
      1.0844417227544930e-03 9.4519626124856611e-04
      2.7932098715385535e-04 1.6473504067753258e-03
      1.7313164229988214e-03 -1.9908499722539157e-03
      -3.4302859497689360e-04 -8.8577477050569438e-04
      1.1383949943254825e-04 -8.2428983473605184e-04
      2.4935082164892781e-03 1.6620632511049668e-03
      -1.7924774336673535e-03 1.4014582207323013e-03
      1.9521544230356070e-03 -4.3369631488864012e-06
      -2.2558503169665257e-03 -6.3522439460446671e-04
      1.1794046097692999e-03 -5.8840801530963866e-04
      -5.7352567867470278e-04 -2.0118437580888137e-03
      -1.3476482375602335e-03 1.3548378242118010e-03
      -1.7252890213117569e-03 -9.4683011213765925e-04
      1.6393767554926939e-03 -1.6294771394427603e-03
      2.5219725353717230e-03 1.6091874831158180e-03
      1.7540571965168929e-03 -1.3138946119233880e-03
      -1.3818338026690637e-03 1.2919432192977096e-03
      5.2065326746362215e-04 -1.4259099601866515e-03
      1.4388457219316937e-03 2.1229797614214863e-03
      2.3265137146770715e-03 -9.4943249687301544e-04
      -2.2401223218766913e-03 -1.0299216535163650e-03
      -2.3407606355034072e-03 -1.5261092614926182e-03
      -2.3265652824038833e-03 4.7096330133939405e-04
      -2.2141228230922556e-03 -1.0368395841838908e-03
      -2.3902130000099330e-03 -6.7511542148368335e-04
      -1.2864807580300723e-03 -7.2476447770544576e-04
      -2.1492792608209699e-03 -1.8627811264475247e-04
      -2.3201687831470703e-03 1.1290287380168712e-03
      -1.8669768818578415e-03 2.2362722195235735e-03
      8.0332181871714059e-04 -2.6364440904096234e-04
      -1.0969783726154777e-03 -1.2612401614405214e-03
      -2.3146101162683252e-03 1.8099731669868398e-03
      2.3059498799041142e-04 -1.4460718159596216e-03
      -4.4575466122235706e-04 -9.1976276145972413e-04
      -3.3430557980620768e-04 1.3008530129872023e-03
      -6.2276622778126517e-04 9.5453722034921510e-04
      -2.1125038787852216e-03 -2.0708700987723499e-03
      1.3896253439127217e-03 -1.6220540185531104e-03
      -6.1094991801359757e-05 -2.4033101651940400e-03
      2.0200620487014569e-03 1.3401661262286558e-03
      1.7378402962273996e-03 1.2622001108558072e-03
      2.1219500594079161e-03 6.8735298374746859e-04
      -9.4233822913175277e-04 -1.5570917301707494e-03
      9.4202241748686814e-04 -8.2246624124944297e-05
      -2.0779578190614528e-03 -2.3425124091877416e-03
      2.4800072015925679e-03 -3.7517521843828569e-04
      1.5333096958438271e-03 -2.0463205170469185e-04
      -9.6729401694072340e-04 1.0278042168776680e-03
      -2.1471447447724110e-03 2.2219113751527934e-03
      -7.6046705465305554e-04 -1.4477190878338095e-03
      2.2969418109218087e-03 -1.0498357161568637e-03
      7.5893157523197209e-06 -5.1427017222484869e-04
      -2.0741507888035832e-04 -1.2750270045966054e-03
      -1.0205244621941986e-03 -2.2674548856424664e-03
      -1.3183111555557783e-03 -2.1033634975185676e-03
      -2.2761261064939906e-03 -9.1252804572785587e-04
      8.5654489175597992e-04 -1.9076068142659392e-03
      6.5237747732591148e-05 9.3643072674621847e-04
      -1.3167067929967476e-03 -1.8707731569319669e-04
      2.1096796350695396e-04 7.6982404271420371e-04
      1.7329578598765589e-03 1.5787247828741168e-03
      -1.5179642873671131e-03 -8.7803738569985153e-04
      4.3472526194037012e-04 5.6108848391255299e-04
      8.1344258797895409e-04 -3.0913411210118117e-04
      -1.3031592582726976e-03 8.9551951712634685e-04
      1.3912398855951233e-03 1.0562222524353839e-03
      -2.4191583006407012e-04 -1.3910501813282044e-03
      -1.1338867673053499e-03 8.0296326768569399e-04
      1.8205861206110248e-04 1.5261867539824105e-03
      -2.3428463568896710e-03 -1.2240567201625651e-03
      -9.6631872044087251e-04 2.6675942656919824e-04
      -8.5755558735715973e-04 2.1016492322200953e-03
      -1.2781205696404214e-03 3.2698463444199926e-04
      -5.4219878123946041e-04 -2.4234602196634945e-03
      -1.5195794717596999e-04 -1.1159745783324152e-04
      -1.2754761472135786e-03 1.8740413463363139e-03
      7.1723437773865557e-05 7.0681783326243908e-04
      6.2635235000914981e-05 -1.9164362505714274e-03
      1.7087481195290730e-03 -2.1696413633305617e-03
      -2.9219060401943685e-04 1.1382689203266938e-03
      -1.1539536179386771e-03 -2.0406751141909523e-03
      2.6531530683694866e-04 -1.8971258327623304e-03
      -7.3802756998401673e-04 -5.6600145153860144e-06
      -2.3373421163277400e-03 6.1385090351922774e-04
      -2.1614650108792610e-03 1.7154924714512978e-03
      -3.2312846534339213e-04 2.1057069694721407e-03
      -3.7232250150414617e-04 1.8566350946428575e-03
      2.2811978958039861e-03 -1.0426359743104729e-03
      1.0763833965110746e-03 -2.4059253182243359e-03
      1.9347237773982432e-04 2.3471026210998363e-03
      5.9245486328478314e-04 -1.2721968826263702e-03
      -1.4765407922161216e-03 4.7361676204731853e-04
      2.0528567978636831e-03 2.3960840416291378e-03
      2.2891213066334138e-03 1.2260727197541549e-03
      4.7076443270880312e-04 -1.8989075810434202e-03
      1.5614734726158710e-03 1.5756456005196256e-03
      -1.9407772307120661e-03 -1.8114495270365185e-03
      1.7837455557398541e-03 -7.8965220393009000e-04
      1.2194176206592926e-03 -3.9373441084868441e-04
      -7.0036304922911543e-04 1.7669639648478135e-03
      -7.6998449352049783e-04 2.3700409985625667e-03
      -2.3310014938941756e-04 1.9394414123851826e-05
      1.1251285611750094e-03 -1.1411157294395837e-03
      -1.8065037803539484e-03 -1.3750306883229082e-03
      1.5184359208290611e-03 -2.5577932330219425e-03
      -1.5315560569063270e-03 1.2450623862970492e-03
      -1.6769463282852266e-03 -1.1407877696454607e-03
      -1.7450602488574770e-03 2.3707486576198195e-04
      2.2397168151562005e-03 2.4220829391889110e-03
      -1.1825633399235272e-03 4.6799572598169991e-04
      1.6521004652817952e-03 2.0649586365204982e-03
      1.8520543735109361e-03 1.4466576111475499e-03
      -1.0408105381045029e-03 -2.4429848070626158e-04
      2.1278611551909612e-03 1.1052344849717616e-03
      9.1089933745043311e-04 3.7423707290461141e-04
      1.0766520363299718e-03 -5.4924400659971080e-05
      1.4747365807939088e-03 -2.3342038998617810e-03
      9.3863755278867191e-04 2.0868864267757263e-03
      1.4353976223345937e-03 8.0670722930146273e-05
      -6.6601619693575488e-05 -1.1728615964104660e-03
      1.2641911193869706e-03 1.4600304651329560e-03
      2.4609058252736652e-03 1.2192572683549512e-03
      -1.4261947267697258e-03 6.6948891517977537e-04
      -1.4088055714047633e-03 2.1666629295697421e-03
      1.8462668773158160e-03 -1.5914993803691688e-03
      6.7238500974824689e-05 -1.0998054362592301e-03
      -1.1244515633596840e-03 2.2465617770209213e-03
      -1.3860609169086692e-03 8.8414290736526352e-04
      1.2418506404166746e-03 -1.6415465303808944e-03
      2.4166337702832010e-03 -2.1111835766581674e-03
      2.2585166705138405e-03 1.5041022026570572e-03
      -1.9402429626209854e-04 1.5635912823090561e-03
      1.0527846433361755e-03 -2.4169009030789610e-03
      -1.3854918430142484e-03 1.1361739990135213e-03
      -1.2725678100463907e-03 -2.2918120002442043e-04
      4.5706989180679627e-04 -1.2491618415399546e-03
      7.7696310751877891e-04 1.6452238744204136e-03
      -1.7248358245805401e-04 -2.0240745936171011e-03
      1.3772838039329447e-03 1.4563748305047501e-03
      -8.9460343635394412e-06 -8.8048899602689618e-04
      2.3318587350374203e-03 2.2810023990172744e-03
      -5.4024944613879249e-04 -1.8062263539025743e-03
      2.2589095719825567e-03 6.2317448038875340e-04
      -1.6378367687758216e-03 1.9693113426982930e-03
      1.6062785701707767e-03 -1.4651675207955888e-03
      -1.0536184707310462e-03 2.5578790769550616e-04
      -8.9609605955051329e-05 7.0863529884173976e-04
      1.1717752916543889e-03 -6.5315598326807719e-04
      1.0237435601995993e-03 -1.8723753304900521e-03
      -5.0490023417727335e-04 -8.7468650342374665e-04
      1.7086922934829211e-03 -1.1177371690212737e-03
      -1.0977192298165536e-03 1.1708706722467967e-03
      9.3807082562001153e-04 -2.0463162470105429e-03
      3.3340087556159629e-04 8.0738156914729627e-04
      2.3864595936154368e-03 -2.2633912999653308e-03
      -8.8443685462903025e-04 -1.0945426654387529e-03
      2.1114512972206503e-03 1.6292350416410603e-03
      -2.0214387742166955e-03 -1.5304206143414241e-03
      -2.5543792238464612e-03 -1.3190252779464999e-03
      1.3667392178958392e-03 -1.7589560372211733e-03
      1.6363905741839570e-03 1.3785901492832497e-03
      2.0083151546723349e-03 1.8272778278342235e-03
      6.9828899729658671e-04 5.1735722337835604e-04
      5.1785538133258347e-04 -2.2195795021714851e-03
      -1.9206163588961576e-03 -2.3564656836951659e-03
      8.2126803989862628e-04 -4.2084850458190711e-04
      -2.3587344326903787e-03 9.1357249180923600e-04
      1.9292145995443890e-03 -2.1951551430501085e-03
      -8.6467205170623806e-04 2.0450267767225462e-03
      -1.1554535384737091e-03 1.8222234801288639e-04
      -1.0240729083307129e-03 -2.4259810056627643e-03
      1.2909672784429216e-03 -1.4727425877345641e-03
      9.8566882800872960e-04 -1.7897816937535529e-03
      -1.5935451973514072e-03 -1.0374744319149859e-04
      -2.0618520102469022e-03 6.5600387690814999e-04
      -1.9672737562515623e-04 2.1460499370567288e-03
      1.1049065731680995e-03 -1.1124302738558074e-03
      -2.4493817607904389e-03 -1.9128838029790416e-05
      1.5226777457462066e-03 4.8162380028477479e-04
      -2.2248485088827374e-03 -1.3337644822310629e-03
      -1.2570264942768554e-03 -1.3471148801908305e-03
      -1.9327819353228107e-03 -8.3674110324846740e-04
      1.6038869237644995e-03 -2.3718096809756768e-03
      -2.3197604221525925e-03 2.1373903023772325e-03
      1.7335641348217687e-03 -5.4834811514299929e-05
      1.8489978706990979e-03 -5.9709966640714032e-04
      -7.5408931194511839e-04 -2.6701187113072674e-04
      -1.6205887633824940e-03 2.0358579351147518e-05
      1.4710876347898301e-03 -4.0469844855370448e-04
      -1.2499106254333717e-03 -2.0022857787331330e-03
      -1.6101205454131292e-03 2.1193049414988722e-03
      -1.0145529383584655e-04 -4.9366862534875374e-04
      1.8996068578570392e-03 1.2751935717241465e-03
      5.5986018710755094e-04 2.3401255253264319e-03
      1.8574524887066375e-03 2.5449263979385205e-03
      4.9174117610266280e-04 2.1159212455854250e-03
      -2.2518042367263066e-03 2.4168842712453172e-03
      2.0128130992059924e-03 -4.1407593537220707e-04
      -4.2911295418353003e-04 1.9337204557676676e-04
      8.1521574437030627e-04 1.9337108456058407e-03
      -2.0227188024618029e-03 5.3144872838818893e-05
      -8.3253476628240397e-04 -1.7613601221703166e-03
      -5.3310785367231958e-04 1.8644099487470393e-03
      -2.4323731400010648e-04 9.4286154477943979e-04
      -2.5086734848478748e-03 -1.2774683424536522e-03
      -2.0728466905956451e-03 4.9523821117368232e-06
      -5.3542046750893011e-04 -2.1120917059856094e-03
      8.8868961566093609e-04 -1.1822627199413681e-04
      -1.5608568662101197e-03 2.4843638094590916e-03
      -1.4643507096143977e-03 -3.0941395677795995e-04
      -1.2020835393391559e-03 1.2402720079093296e-03
      2.8467446622635289e-04 7.1301419407129364e-06
      -1.9520772735413894e-03 9.6478133724800226e-04
      1.6748590481547787e-04 -1.8426482634378873e-03
      -2.5044088343399019e-03 2.1328752650343042e-03
      9.7940098225204691e-04 -1.1246740974158590e-03
      -1.2147735505715627e-04 -1.9877965366416608e-03
      8.3164271816482465e-04 2.0051486555808354e-04
      1.0971990663864980e-03 1.7896879019800433e-03
      -1.1643265276362258e-03 1.4704769451938369e-03
      5.5558269047500654e-05 1.6323857113135344e-03
      2.4622543811438904e-03 2.1903342252888904e-03
      1.7804830544741793e-03 -2.3797625596339120e-04
      -8.2481057183995520e-04 -2.0514012269355376e-03
      -2.4228625125908812e-03 -6.5185124875874608e-04
      7.4441134276044952e-04 3.9274501889417248e-04
      -5.9630297485111508e-06 -2.0094444388413569e-03
      1.2786259815994892e-03 1.8483514612749267e-03
      1.0924476856528156e-03 1.3703479507249977e-03
      -2.2618816221256842e-03 -2.3716226246977214e-03
      -1.9177022292146152e-03 9.0703075697015916e-04
      6.5955289830785821e-04 -2.1405205958201765e-03
      -7.2486270088028117e-04 -1.0917630964900787e-03
      -1.9541590888534077e-03 4.5156899081024321e-04
      5.4002040559780588e-04 2.2391480353225472e-03
      -1.6010439034394876e-03 -1.1174760230132437e-03
      -1.4513431825391224e-03 -1.6545687068442430e-03
      1.1090023763992985e-04 2.1829173709937335e-03
      -1.2808192632084585e-05 2.1697119832870169e-03
      -7.6337168974958383e-04 2.2633557524947543e-03
      4.0524618451984639e-05 5.4523635759113750e-05
      1.4157782376254793e-03 -1.9231674831963266e-03
      -1.8932437268725808e-03 1.5073124817033645e-03
      3.7344011120402901e-04 -8.6869773231547463e-04
      -1.2680638710081300e-03 -1.3827853288151163e-03
      -2.4490457569583558e-03 5.2371653024836163e-04
      1.9584453219989749e-04 -2.5647546898701148e-03
      -1.2653929498345172e-03 2.4321291893376284e-03
      1.9017588273957724e-04 -1.2950321640435746e-04
      2.1116820088001718e-04 -2.5063244525518314e-03
      2.3174843074760293e-03 2.3703290141336010e-03
      -3.6058830986179390e-04 1.9146263822081034e-04
      2.2402937356027111e-03 -6.2038563732430443e-04
      -1.4608700166401033e-04 -2.5238414107063888e-03
      1.2232485752911701e-03 -1.8069679075870422e-03
      1.4890151317399774e-03 -1.5688944252391836e-03
      1.4129163617445123e-03 -1.6156236797334014e-03
      -2.2620988399443161e-03 -2.0706874204191542e-03
      1.4349816376438445e-03 -1.7463602319458989e-03
      2.1817553520688412e-03 1.4467103983496668e-04
      -1.1724437719222628e-04 9.8614374930735497e-04
      7.3463937970160527e-03 -3.7870702759467420e-03
      3.0621878726100216e-03 9.3292727538832193e-03
      -4.6549442446547871e-03 1.2336995805810918e-02
      -1.2413990558836471e-03 2.9059133223761180e-03
      -7.5888371843003113e-03 -1.0789500088225497e-02
      -1.7765508381158111e-02 -2.9468390072238292e-02
      -5.1002206047390209e-03 -4.9743079115282781e-03
      -3.3709608216371928e-03 -1.1556222714271479e-03
      7.9472879670628230e-03 -3.3645039055128036e-02
      -1.5784970883688784e-02 -5.3861436070851637e-03
      3.2343214829560735e-02 1.0823990995553185e-02
      5.3698633185874181e-04 -2.0081583511937749e-03
      -9.7149672251608458e-04 -5.6701725281824557e-04
      1.5226619305804190e-02 2.4314831103314841e-02
      1.4293212447282011e-03 -1.4935426101361579e-02
      2.5333421854834628e-03 2.0906608019057044e-02
      -1.7712829084826253e-02 5.3212575602800578e-03
      -3.8269554829073915e-03 -4.5190639016229718e-03
      -3.6985088393520884e-03 -7.4010570077951594e-03
      -9.6873577819707839e-03 5.1462518144418613e-03
      -6.2799728717198413e-03 -2.9425802559703909e-02
      -6.4567503488127771e-03 5.8711958792143320e-04
      -2.6644520083577206e-02 2.6702924577605848e-02
      1.3755711410899317e-02 1.9649982972338557e-02
      -7.8785900429931780e-03 3.8729973544072001e-04
      -1.8801126053229637e-02 8.1972076782210745e-04
      -5.4134198068134121e-03 -1.3642950607694854e-02
      1.2503691067480597e-02 6.2711907449092220e-04
      1.0104799400672040e-02 -7.4767588375613354e-03
      -1.5799069010085189e-02 -1.6482568749216157e-02
      -1.9605838584272676e-02 -7.9421939857409196e-03
      7.8554237900182230e-03 5.2364804259698479e-03
      1.0000287918042420e-03 1.0611046676795475e-02
      -1.2246628008754637e-02 1.1246078249540867e-02
      -8.5612206695349100e-04 -5.9143420653987450e-03
      -4.4073358524930458e-03 1.2642651256066654e-02
      1.6579679938781070e-03 -2.2245377465533171e-02
      -2.4129930242959776e-03 -6.0826153536523648e-03
      7.3940971596767229e-03 -5.9232021632738205e-03
      1.5151994407433592e-02 -1.0370752523440976e-03
      -1.3445537646420569e-02 -2.0385020274547622e-03
      1.6812634222342160e-03 -8.8787382325347891e-04
      3.2573676515561751e-03 -1.7146510438618798e-02
      2.2187495934736876e-02 -3.0386110665052112e-03
      1.5814772128883974e-02 -7.8748147526318465e-03
      -4.2380882726806360e-03 3.4491371853742191e-03
      -1.9757366710055211e-02 4.0619270792429940e-03
      -1.3218786990335726e-02 2.2495278652876413e-02
      -1.0531033062489471e-02 2.0063518598355846e-03
      -7.5764604544411498e-03 -2.1512992067391219e-02
      -7.2507308643561530e-03 -3.2278571129002787e-03
      -1.4122479005920887e-02 -7.2831058382595501e-03
      1.2483345566282960e-02 2.9693780696892175e-03
      -1.1776374326666427e-02 -1.0433781695269520e-02
      -5.3310932896710366e-03 4.8434762318396111e-03
      -7.2656690211023479e-03 -1.3092925334412893e-02
      1.8157236704824612e-03 -1.1756894054578774e-02
      -6.0136740783546831e-03 -1.6283563106702541e-03
      2.9427806557728114e-03 -1.8086298532789036e-02
      -2.1818190458914248e-02 8.8429281273063581e-03
      2.1292397008796243e-02 2.1614576639007087e-02
      6.5861110830206576e-03 -3.5513966607058269e-03
      8.0489572144793187e-03 -5.5393252390085052e-03
      1.4974554335694725e-02 1.8657237270894463e-02
      -4.1442555809039676e-03 -7.0560842586953948e-03
      5.3325899172945853e-03 2.5918351222536305e-02
      -2.2629883605279323e-02 1.2102631178642227e-02
      1.2660411434722066e-02 -1.3311627465332638e-02
      -9.0162507976960671e-03 -1.3578404085562882e-02
      -1.0658850962558371e-02 4.8330849504317757e-04
      2.2533219129992040e-03 -1.9828635417992322e-02
      -5.6973019090684517e-03 -1.0545159148498183e-03
      -1.2013583005224950e-02 2.2237010487036583e-02
      -7.6064934358517798e-03 1.8601277095956392e-02
      -9.2906765527279531e-03 -1.9623506782277131e-02
      -1.5321816808567949e-02 2.4171013446248595e-03
      -6.6712898193067496e-03 -1.6829912546549367e-02
      5.8810149048187281e-03 -2.9331077094753204e-03
      1.1235304941919450e-02 -2.2914120652934263e-04
      -1.1459486312213460e-02 -3.5935340349839577e-02
      -7.0262056777511805e-03 -9.1335566386646083e-03
      -1.8829153145511569e-04 -4.3214179599300283e-04
      6.5573177553495997e-03 1.1208349569630155e-02
      4.1613064843809616e-03 1.3436554005384699e-02
      -3.2260273848950076e-03 -6.6215588918781976e-03
      -4.8050509217214196e-03 -1.4580678112373199e-02
      1.8443204477526655e-02 -9.3250528582268233e-03
      2.9715384288515824e-04 1.1637863940249807e-02
      7.4684909589067998e-03 -4.9231044738514054e-03
      1.1194454150149968e-02 -4.5893139479058265e-04
      -1.7050320502206825e-02 -6.2348143361159103e-03
      -4.9999195734191709e-03 -3.9575883605092151e-03
      9.2231879911761020e-03 -1.4239214692999769e-02
      3.3599831958558903e-02 -8.8333148776552264e-03
      1.3084033764920773e-02 7.8963366440351294e-03
      5.7328974944927703e-03 -7.6844974176256825e-03
      -5.0003835056722850e-03 5.7571034315238899e-03
      -1.3191124430706250e-02 1.6571604126567800e-03
      -2.6281960501515272e-03 -1.8980269372818007e-03
      -5.5886532916402873e-03 -1.5566696038460162e-02
      -2.2938026656665410e-02 -1.5538047878440424e-03
      -2.6587098449709367e-02 -2.2069629176974258e-02
      2.8758818076999145e-02 -9.4502507074827689e-03
      -2.1618603255268862e-02 -2.0386223975977735e-02
      5.3377302287004307e-03 1.7254621355886436e-02
      1.1475944173927010e-02 1.4691226650645454e-02
      4.2269758003362565e-03 -1.3214137237028540e-02
      -2.6221011728728848e-03 -2.8928092007116606e-04
      -7.1566990928426623e-03 8.8971810095561758e-03
      -1.1875133880791625e-02 1.7190943988193520e-02
      -3.2336913473197571e-03 2.1791006900291978e-02
      4.7937126192969734e-03 -4.9551792308168913e-03
      1.6180611006107862e-02 -7.3704832638223838e-03
      8.1065114984397585e-03 -5.1971047193541398e-04
      -2.7831642404300720e-03 3.3170427371522339e-03
      4.3643664977301520e-03 1.3918655917416286e-02
      -1.8752283870560427e-02 6.7810129529345892e-03
      2.6123999805321828e-02 -1.7125394745025013e-02
      -1.0488898945609207e-02 -8.1569246636632835e-03
      -2.5350295300413813e-03 -2.1410827375884412e-03
      7.6089634055142063e-03 1.9252075782159987e-03
      1.1943513257655707e-04 1.4180287390159585e-03
      1.1415915284973877e-02 4.9041437656246389e-03
      -3.1722096244092814e-02 8.4259302640453618e-03
      -5.8400177888177892e-03 -2.9244813360233105e-02
      -1.4471007416274094e-03 1.3158804855027189e-03
      -2.5872310605921599e-03 -1.1824911331817366e-02
      -5.4763074439939151e-03 -8.8310182003960888e-04
      7.5991756987720460e-03 2.3853194542983931e-03
      7.5254576354073311e-03 -3.6751067920718104e-02
      1.6549219408343585e-02 -8.5485738485417719e-03
      -1.0637401168424161e-02 -9.7601450306156572e-03
      3.9167773065670050e-03 5.7613841291874572e-03
      2.0419663687819140e-02 7.9725290338902802e-03
      -7.1694214521978447e-03 -1.7261878758512367e-03
      -5.7472241876025494e-03 -4.8986990236657604e-02
      2.4159782125462770e-02 1.2796485590577335e-02
      3.6153621551757672e-03 3.1133508461957598e-02
      5.5875149951697496e-03 -6.7397103486259674e-05
      -1.0359422945311182e-03 -3.2631888528207157e-03
      -9.6566301111438192e-03 -1.8709634352614096e-03
      -4.6958483371830522e-03 -5.3816461730344153e-03
      9.1393297507792130e-03 -2.5494973123861642e-03
      2.3932615738122536e-02 -1.3820141321659520e-02
      1.8559766444528666e-03 1.7019833736604262e-02
      1.3033787230847284e-02 -1.7750227360442759e-02
      2.3350933352202913e-02 6.4099325872023216e-03
      -2.8797168247175751e-03 -1.9065969927584515e-02
      4.3626149061516944e-03 -5.4177463962307350e-03
      2.6897274627963571e-03 -2.2563704594746902e-03
      -2.3554721757442026e-02 -2.5302673235501668e-03
      -2.6334105138105138e-02 -1.9581979370948802e-02
      3.2905645965255845e-02 -8.3451358445807231e-03
      -2.2747426504807662e-02 -2.2548494082403749e-02
      7.5944805370900138e-03 1.7496284655888400e-02
      1.3593487845792153e-02 1.5313693739889672e-02
      5.9040749275631448e-03 -1.6044507278367610e-02
      -2.6867358829483754e-03 2.6037385353459598e-03
      -5.2298424727662924e-03 1.2261927942312453e-02
      -1.2263262855969155e-02 1.8093941563035610e-02
      -3.8574481103053862e-03 2.0529290705838626e-02
      7.8421777909301587e-03 -5.1190725843213722e-03
      1.7314932979477782e-02 -4.4976810891912524e-03
      1.0588520175399945e-02 1.2653376520518043e-03
      -4.0819993086537460e-03 2.0141164037922386e-03
      6.4870519699820571e-03 1.5989682616577610e-02
      -1.9115885467271759e-02 6.8883184820495045e-03
      2.5126550024384530e-02 -1.4286058230508195e-02
      -1.1325688320542518e-02 -8.5759051869272358e-03
      -2.3534603083212673e-03 -5.8181198928504941e-03
      9.2301946331160255e-03 6.1442904035214040e-03
      -2.8081029825284486e-03 -2.7448987525555768e-03
      9.8184415242451271e-03 3.2509718164035490e-03
      -3.2906233623117877e-02 1.0510898938554161e-02
      -4.7009227451048465e-03 -2.6319549184759764e-02
      -1.6838368079596703e-03 1.6793426989443762e-03
      -3.6167307753024506e-03 -1.1224346443384135e-02
      -3.0663392175493661e-03 -1.2470713846323577e-04
      7.0214862189945547e-03 7.0886302679051792e-03
      4.9907240760711799e-03 -3.9110901482265682e-02
      1.8361268132416848e-02 -8.1711605816503011e-03
      -1.1717601884794718e-02 -6.7077442181721252e-03
      1.2578129046364075e-03 5.9485645441508510e-03
      2.1701854577092304e-02 6.4248109975661256e-03
      -4.0655540536673100e-03 2.0614517264508428e-03
      -3.0998739587735388e-03 -4.8502986713591378e-02
      2.5141479390440230e-02 9.9694652075059623e-03
      6.0669247712263610e-03 2.8699801346286333e-02
      6.5666666658954981e-03 1.3031230203295356e-03
      -2.3067904632290254e-03 -1.7884797461560371e-03
      -9.2075952493727471e-03 -3.0863955883834822e-03
      -6.7906535937035462e-03 -4.0622442568966320e-03
      8.4002356041530998e-03 -1.7389529822360473e-03
      2.7426377573665516e-02 -1.4087526525317421e-02
      2.7676430439167775e-03 1.7261325276610343e-02
      1.2859703869125435e-02 -1.5754365865165404e-02
      2.5485617076937455e-02 5.4433239108717269e-03
      -5.1456799733327063e-03 -1.9333067457974144e-02
      3.3601361203949853e-03 -7.2935032487961484e-03
      4.1910919642125883e-03 -4.6914875349836230e-04
      -1.4251225798383059e-03 -1.5890473498686717e-03
      -8.0762309645902435e-05 -1.3598342427780033e-03
      -2.3329599160474835e-04 2.1944935225832502e-03
      -3.1341928430198013e-04 -2.1922263295850375e-03
      9.7071599040508046e-04 -6.0095353360470230e-04
      -1.0077192213966163e-03 -1.6419727606589401e-03
      5.0062523016231519e-04 -7.9409760698395627e-04
      2.3268245151482894e-03 -2.0468511316547454e-03
      9.2268684687723699e-04 -1.4314526758790267e-03
      -8.4419261471443789e-04 -1.1969432282164984e-03
      1.8446382604288426e-03 2.3847812536233358e-03
      5.5158385214071565e-04 -2.0539159806931984e-03
      -2.2647566972810321e-03 -1.2628191512540651e-03
      1.1407262941905308e-03 2.1487395153413848e-03
      -4.7508851702659301e-04 1.2692018152679002e-03
      -2.4660597771764283e-03 -2.0416373966926577e-03
      2.2137754427938965e-03 1.3502825186573373e-03
      1.4719360545103945e-03 -2.3465435388210190e-03
      -1.5276287578448759e-03 -2.5793101753537207e-03
      -5.1924723391230166e-04 1.5539785870332219e-03
      -2.4201102895537148e-03 1.7466410681558149e-03
      6.3910461728594321e-04 -1.3580609603487308e-03
      4.2472001109238287e-05 1.8645721533267363e-04
      8.4512351475353009e-04 1.1142599147828771e-03
      -1.3356634894867308e-03 -3.6212014051385967e-04
      -2.2966934939481890e-03 1.9719099116868076e-03
      2.2489214812416091e-03 -9.8434573254274800e-04
      -2.3646822055203901e-03 -5.0097484966022668e-04
      4.6597902949478708e-04 -1.0127771509833752e-03
      -1.4790635154697787e-03 -3.6178672657465933e-04
      -1.1247278916798088e-03 2.1313179137396844e-03
      -1.4050098584243489e-04 -1.9379884581442455e-03
      2.0459234548227141e-03 5.5426752087562084e-04
      1.5580987702582152e-03 -1.6592700571560091e-03
      6.8541150144384015e-04 -1.4185491821169468e-03
      -1.1243757311370922e-03 1.7037839999180647e-03
      1.7760356005650851e-03 2.7166019658182066e-04
      -6.6032413410801761e-05 2.5261432233031028e-03
      -2.1638512433223623e-03 -2.0983609924951603e-03
      -1.8739297276718341e-03 -5.0356108291084347e-04
      3.7853657973991824e-04 2.7217982276205877e-05
      -1.2318122091693302e-03 6.0718514274289942e-04
      1.0577498401169922e-03 -2.4845962472362986e-03
      2.0520563877551054e-03 1.3329231160693901e-04
      1.5090166508916630e-03 1.3532937037258799e-03
      -2.5066093603463417e-03 -1.3801220405846833e-03
      2.3637018248354985e-04 2.4786624211029827e-03
      7.6784800687863461e-04 -1.3012221638679673e-03
      2.4906547033459827e-03 -1.1043562743765641e-03
      -1.4318982156896010e-03 -1.1471969312865490e-03
      -7.5506563896843071e-05 1.4521507289266069e-03
      1.8574904917527992e-04 -1.0509141955589495e-03
      -9.3023880985647160e-04 -2.0139141162951579e-03
      -1.4626053733747875e-03 1.7804692234739154e-03
      -1.0704200659513896e-03 -9.8626957586166815e-04
      -1.7319874843055476e-03 7.8345758797214839e-04
      5.5136955996922411e-04 1.3119419476491814e-03
      9.5378771390859142e-04 -1.1917524974114041e-03
      1.9075631831270469e-03 2.1677159175003814e-03
      -1.7479292680582246e-03 2.3388175365901915e-03
      -1.4414672328941158e-03 2.4868870447708391e-03
      -3.6368173046095998e-04 -2.1650288096681865e-03
      3.6176008094722134e-04 -1.9873334752539616e-03
      -2.5534401780306368e-03 -1.2356369717150067e-03
      1.5754160199984268e-03 2.0326737549197061e-04
      2.0704191576747257e-03 2.4541206103737821e-03
      -1.1129360633313013e-04 -2.5815101940882126e-04
      9.7799013941220810e-04 -2.1934174091139975e-03
      -1.5716432145992126e-04 2.4343539637844123e-03
      -5.6925812267788402e-04 -1.1063926488086289e-03
      -1.0589620961131262e-03 9.3560769119807239e-04
      2.0668680765194825e-03 1.5844745591952055e-03
      -5.6650202600989918e-04 -2.0296746044154049e-03
      -5.7459713064450134e-04 2.4229139811697362e-03
      -9.7908102784597805e-04 -1.4044535760038119e-03
      5.3885818634431710e-05 7.3332943086578219e-04
      1.2987625377323380e-03 9.4696911404761541e-04
      1.6466375797577881e-03 1.5725843182727206e-03
      1.2627209731022745e-03 3.6626579495774872e-04
      -4.5439681165526278e-04 -7.5170349193030416e-04
      -1.4771357314612963e-03 6.4382074620160520e-04
      2.0053240151096312e-03 1.6367624519122281e-03
      1.6429713666423501e-04 -1.6791105269938558e-03
      7.2402858495094580e-04 -8.9230933306759972e-05
      2.0985298570541612e-03 -9.3918047098428506e-04
      -3.2793165882070009e-04 1.5443748013422263e-03
      -7.7460306445195431e-04 -9.4644377074727887e-04
      2.4800196484244612e-03 -1.3037593140479181e-03
      -4.7615185133329630e-04 -1.5264765861654882e-03
      1.0522199353390413e-03 -2.5152948663925388e-03
      7.3848117129245790e-04 1.4683991932584002e-03
      2.2489098402212263e-03 -6.1216842800474814e-04
      7.3480674092816676e-04 -2.0921404743633855e-03
      1.7519260197886527e-03 2.3792654843926317e-03
      1.3762407255399945e-03 1.7461977553925800e-03
      -2.9916122920491741e-04 -3.0168951901389956e-05
      1.3930016051208713e-04 -2.4545563503154851e-03
      1.5346323445638969e-03 2.2455439994093561e-03
      -3.1973411084662004e-04 -2.3270237951949733e-03
      -9.3780133005073101e-05 1.5382390209741025e-03
      -1.1418663523841770e-03 -2.1339647616595503e-04
      1.2701827318841003e-03 2.4734774443696617e-03
      -1.8911428880156952e-03 2.4099490304432180e-03
      3.2248439323025722e-04 1.6721258845070407e-03
      7.2651704104675219e-05 5.5528402105477269e-04
      9.2241838286681154e-04 1.7547111551820601e-03
      -2.2266706500697299e-03 -1.6430416118774060e-03
      1.8033468382288182e-04 -2.0843847442644564e-04
      -9.1860680700187210e-04 -8.6621657482981054e-04
      -8.1895492432965339e-04 -2.2049529798704726e-03
      1.3352612924400760e-03 1.6325020633279231e-04
      -2.1770229739273995e-03 7.9891202548756045e-05
      -8.9293859437049197e-04 1.4952653041044913e-03
      8.3427153992725767e-04 1.8048090245484278e-03
      -1.1093135314631240e-03 2.2661017572407974e-03
      4.3245556051478025e-05 1.3295472811210040e-03
      -2.1025999124509821e-03 1.3876304967442748e-03
      -8.6437040254888707e-04 1.7546767166741284e-03
      -1.0196611202178757e-05 2.0805180527656121e-03
      -2.1240051155563427e-03 -3.3889322781723561e-04
      -1.4053008882247222e-03 -1.0435218573196759e-03
      -2.8128867928078720e-04 -1.2365144982238170e-03
      1.4608490312668320e-03 1.1721918355638080e-03
      -1.2737935530180628e-03 -3.2290518144118354e-04
      -1.6484498155832970e-03 -1.3144913423770244e-03
      1.5797121248415252e-03 -1.4503311266870185e-03
      5.2101370597676118e-04 -1.0419710774156651e-03
      1.1597451503213055e-03 -3.2361234055518283e-04
      1.4039471577146864e-04 2.4231037317322575e-03
      1.5250651063357316e-03 -2.1825908859228189e-03
      1.5280757139704379e-03 3.0895857881113007e-04
      4.4671431167336937e-04 -1.2095978185163077e-03
      1.2532654725769408e-03 -6.8651096035317598e-04
      -2.4272884849765130e-03 2.0177526800983065e-03
      1.1109269916011546e-03 -2.3316644181658277e-03
      -1.8437385686203536e-03 -1.0377288609433207e-03
      -7.9347525171873307e-04 -2.9633352243702536e-04
      2.4545276683399197e-05 -2.4814997153981486e-03
      -9.8593814293567047e-04 4.7108509374831542e-04
      -1.4109814433944890e-04 -7.4362863172909970e-05
      -1.6694075822461763e-03 -1.1760033743902774e-03
      1.5343944670439332e-03 8.9162463454529883e-04
      -8.5057887190847115e-04 -1.3233141334255719e-03
      1.1657989252063903e-04 1.6778581587739180e-03
      1.3177536662581869e-03 -1.8789048251350025e-03
      1.9252241707339976e-03 -1.1632104245189155e-03
      -7.0607329059923076e-04 2.3459798916964907e-03
      3.4663165399175178e-04 2.1176119873907240e-03
      -1.0372845026940479e-03 -8.2038984669447574e-04
      -1.1248331859996319e-03 -1.4345945581050522e-03
      -8.2234402191242199e-04 9.3508217411096138e-04
      -1.4387910677909120e-03 -1.2009279951206134e-03
      -1.8911334307008200e-03 2.0295048130297708e-03
      9.1404616238633307e-04 1.3770455659699375e-03
      2.6179926835170675e-04 1.2516337206673930e-03
      -2.5572184268598773e-03 2.1316231274732147e-03
      -1.7691190938068861e-03 1.9249163083295308e-03
      -3.7769086036333431e-04 2.3876478479126348e-03
      -4.8083947152634650e-04 -1.0189572123142279e-03
      1.7052339082915119e-03 -4.5050015421954501e-04
      -6.6459658968212262e-04 -1.8413322417457757e-03
      1.2613944070667183e-03 1.2632941157503916e-03
      -1.4124936597683718e-03 -8.9613520698742562e-04
      6.0413164084492882e-04 -1.9650355648477170e-04
      1.0160829896719160e-03 -2.4070053431890530e-03
      -2.2609067757711314e-03 -2.0269498730159032e-03
      1.8859647255618035e-03 1.1267463584633795e-03
      -1.2858599667850638e-03 1.6713688677533758e-03
      3.4171742673265031e-04 -2.4029998431904323e-03
      -9.6049734375318785e-04 -4.2551140955347707e-04
      2.5046342990979512e-03 1.6783770778336414e-03
      7.8994315564491708e-04 1.6290273196520586e-03
      -2.0087882764055964e-03 -1.6401430563460352e-03
      1.2355150646093638e-03 4.1181915109193433e-04
      -2.9269735946615917e-04 1.1485697639086623e-03
      -2.0122025892170196e-03 -2.0728968631044220e-03
      -2.0750501169170626e-03 1.0093765158756996e-03
      -1.1585408728291031e-03 2.0012345201183990e-03
      2.0586124039562448e-03 2.9702260988817168e-05
      -4.5384694992691501e-04 2.0804423054707668e-03
      -2.2518118684319529e-03 -1.5908465223185165e-03
      9.1401783287513869e-04 -1.4087573613244853e-04
      2.5178635237086871e-03 -1.5199617303061285e-03
      -8.4216401526361400e-04 8.5963523004954981e-05
      2.3215966180070899e-03 1.9211069649259136e-03
      -1.7661973050589314e-03 1.5208499528707170e-04
      1.3820719134878265e-03 -8.0884932174858583e-04
      2.4041297531331512e-04 1.7342704435893697e-03
      2.3893009711151527e-03 2.3316486265283075e-03
      -2.5018547993937981e-03 -2.2786890425255855e-03
      4.0874283369646757e-04 2.1860625352684796e-03
      -3.3740553716142378e-04 -1.8511491597068499e-04
      -1.8169196651339680e-03 -1.0029896518547615e-03
      2.0630881294554713e-03 -1.9511739622069674e-04
      -1.5259798638421159e-03 9.8233502290701025e-04
      1.5758939848934878e-03 -1.0203867646267510e-04
      2.3487006353101075e-03 -9.7470051926250531e-05
      -1.1633830248458427e-03 7.1215118789796515e-04
      -2.4314014358509574e-05 -1.5641060324742056e-03
      2.1755676715476176e-03 -6.1916091526108665e-04
      1.5090325222826991e-03 -1.0333204742517255e-03
      -1.6503136715924442e-03 1.6689392836078175e-03
      -1.6068428522242240e-03 -2.4106649452935009e-03
      -1.2659648427497975e-03 2.0602601999719326e-03
      -1.9883357501018504e-03 2.0844527997869786e-04
      2.2036150030782064e-03 -8.8362695702547686e-04
      1.1331568693295968e-03 -1.2024805787642652e-03
      1.0833194799334566e-03 2.3382365655958935e-03
      5.1165398279661670e-04 2.3542631195958984e-04
      2.3471684311650824e-04 1.0413264733754625e-03
      -1.4899343009217678e-03 1.3227397469034699e-03
      6.0509600043753516e-04 9.6656919517429468e-06
      1.5921621588830086e-03 2.5547347639614116e-04
      -1.5550021444752222e-04 1.2054542845117944e-03
      -9.5831635969185363e-04 1.1488956588517230e-03
      2.4901501415812992e-03 1.9337027925947264e-04
      -6.2211053737503178e-04 -2.5236714721288082e-03
      -2.2322898162581911e-04 9.4709822541409186e-04
      9.7068561360191786e-04 -8.2865082951601274e-04
      -2.1667452359576053e-03 -1.5587387064370842e-03
      8.8465264090919658e-04 -1.0779697101927421e-03
      -7.2187597768393194e-04 -1.6054686257832599e-03
      2.0209090383750006e-03 1.8853689518509039e-04
      -1.0231516670711992e-03 1.7099728820990732e-04
      -2.0002840726444180e-03 6.4000171657261934e-04
      1.6399830076330049e-04 -5.4402086059057184e-05
      1.8729036417300723e-03 -2.6027525223577810e-03
      3.7576275984017785e-05 -1.9272865374942308e-03
      1.0271071783960557e-03 -2.0620039735158458e-03
      1.4352827284977528e-03 7.9867339495599159e-04
      1.3828610138805447e-03 9.5160144448181035e-04
      -1.3741298137122679e-03 2.1974773615297274e-03
      3.5607885917681960e-04 -6.6593160827454958e-04
      8.2225607470576636e-04 1.9976005049075112e-03
      -1.0983412980940183e-03 7.9542047286282921e-04
      -1.1062825333097923e-04 2.6005701845321647e-03
      -1.7306168437354429e-04 6.0887151197949168e-05
      1.2609094912331331e-03 -9.5675207197837796e-04
      5.9823768060447192e-04 -1.4753484929815742e-03
      -4.6425503541130074e-04 1.8302529289644502e-03
      1.8274132199123472e-03 1.8046187501007682e-03
      2.4020787193623442e-03 -1.3441200495526757e-04
      -1.3062343995204468e-03 -1.3666440456350775e-03
      -2.1124699090876095e-03 5.0692909181929125e-04
      -1.8594317850481202e-03 5.5673231858712022e-04
      -9.8706064361699791e-04 -2.2867416466000445e-03
      1.1258666284105353e-03 -1.4333094731066962e-03
      7.5183679114325440e-04 1.2901022892967595e-03
      5.5663094846503493e-04 7.4131505119219327e-04
      5.0784873229102652e-04 -1.4331571709396229e-03
      -1.5437401534611830e-03 2.2109606494683902e-03
      1.0666236360184025e-03 -1.4834960940666559e-03
      1.4363143055977426e-03 1.3923696595030850e-03
      4.6877913736210726e-04 4.2987526865400971e-04
      -5.3886662790430899e-04 1.6508688094830839e-03
      4.2290509296556537e-04 8.4493920053704504e-04
      -7.7011026929990319e-04 8.4793023112072542e-04
      -2.1772360858676012e-03 6.1051537726491652e-04
      -1.4661096866212086e-03 -1.7740472444217150e-03
      -2.2053593383104132e-03 4.7894187843006694e-06
      1.6287842876917858e-03 1.6767201311558789e-03
      -6.5083398163813002e-04 9.0189930509300160e-04
      3.1349633314703152e-04 9.3766422124337892e-04
      1.9752715812774760e-03 -2.8919609842576187e-04
      1.1444969838403085e-03 5.8926951014309922e-04
      7.3321607195635219e-04 -7.7716584845973781e-04
      -1.8495689427658146e-03 1.9628003863483862e-03
      -2.2787819399448408e-03 1.8283579425997869e-03
      -2.2907861150378442e-03 3.0530138880137912e-04
      1.8503379021893561e-03 -2.4562186549541413e-03
      -1.1838822604070571e-03 9.5077091792158453e-04
      9.8654176891203849e-04 1.0259398386727840e-04
      -1.8153435727086213e-03 2.4478749055700708e-03
      -1.3823167831109305e-03 -1.2153559146723012e-03
      7.2441251423405255e-05 1.3216966512445720e-03
      1.3055688292031963e-03 -2.2178552577706238e-03
      3.0672795884285610e-04 2.6158655507953726e-03
      -2.2682377218739133e-03 -1.4726316589922723e-03
      -3.8280797581297457e-04 -2.2449449417732141e-03
      1.4864426662689928e-03 1.3439731825773185e-03
      -1.1582459754766732e-03 3.8393387917287148e-04
      -1.6899318716928581e-03 1.3417908661796322e-03
      -9.7930662303042379e-04 -1.7160620763584280e-03
      -1.2417318090292549e-03 1.9062419674057071e-03
      4.8737900349813909e-04 -1.1052575837535155e-03
      2.3536135064068870e-03 -2.3809768735502160e-03
      -1.8443471711096379e-04 2.1279240929225865e-03
      2.1188934929064732e-03 -2.2642116509965157e-03
      -2.8146162232525122e-04 1.7212421260585750e-03
      4.5797498378719466e-04 -1.7205900016446676e-03
      -1.4545711535586907e-03 -6.1838306771464120e-04
      -7.8255340833144360e-04 7.8520809598847771e-04
      -1.8797165881235622e-03 1.8388583069281566e-03
      -9.2906581485520173e-04 -2.1958062918340294e-03
      -1.3280795852512668e-04 1.8151871832345291e-03
      -1.5267650449837362e-03 -2.4102802195158082e-03
      1.2926231269181484e-03 1.7491415851562696e-03
      1.5125254149574200e-03 -1.1812659297507761e-03
      -2.3021697277304885e-03 -1.2059933637338730e-04
      7.6875589599538746e-04 -3.7697907626936354e-04
      -7.3167802574093525e-04 -1.1646166407393720e-03
      -2.2398069979535857e-03 -1.0884989760433362e-04
      -1.7851812567111682e-03 1.3167277700927316e-04
      1.7826811152396786e-03 1.5485556607405765e-03
      1.9613091057322212e-03 2.0575610765562807e-03
      6.2398217017577487e-04 -2.5784920272894671e-03
      -1.4561855906251608e-03 2.8785345150918689e-04
      -1.9653804388095474e-03 1.4239450773204548e-03
      -2.2259288895171868e-03 -4.1476607599582894e-04
      1.7857352984811735e-03 -2.3822077352201928e-03
      -1.3739077347898034e-03 -2.1833072766807961e-03
      2.5360698871394497e-03 -2.6214417555936524e-04
      1.7594466465525838e-04 1.4184428793935281e-03
      2.5033700418833054e-03 5.9329730809928503e-04
      -2.4232909580813289e-03 -9.8526370778945786e-06
      -2.1130757823219371e-03 -4.3859206284531556e-04
      -1.5915189515687343e-03 -2.1656547386723467e-03
      -4.0622222601552424e-05 1.0904265135440220e-03
      2.7876444450934690e-04 2.3949124405510339e-03
      2.9406380654973358e-04 -6.0845565368443551e-04
      2.3618922761447897e-03 1.4279646005436757e-03
      -8.2118076216016183e-04 2.2251270640099652e-04
      -2.4457736441528977e-04 -1.3015018993245253e-03
      -2.3842745284145014e-03 -8.5660732088227256e-05
      -1.4368777506213487e-03 -4.2880709073151840e-04
      -9.3399347528132551e-04 -9.5815993299637817e-04
      -2.7702287203834527e-04 -1.3919522037444975e-03
      5.5981973741046844e-04 1.2592437520365339e-03
      3.9861550429308885e-04 1.4830090444329723e-03
      1.0275557454611762e-03 -2.0087718358453841e-03
      -2.4572510218307210e-03 -2.1701284509745988e-04
      -5.6554801757875781e-04 3.0908211060486996e-04
      2.2150317755591582e-03 -2.0118046087417244e-03
      1.6549863984914438e-04 -2.3675163615882950e-03
      1.1888472324001506e-04 -2.0341658220247002e-03
      1.6010836094964136e-04 -1.6811283410240972e-03
      -1.1071188084136271e-03 -1.8530738513712994e-03
      -2.2470678961867521e-03 -1.1432373288089849e-03
      2.2966250661984682e-03 1.3686642263637553e-03
      1.8070739202528211e-04 -1.9172996233089159e-03
      -9.0103876252913462e-04 1.3754064848330513e-03
      -3.0120130217046025e-05 -2.2845069790664420e-03
      1.0552773176240109e-05 2.4962663274669082e-03
      4.2937795505649710e-04 -2.4050878548078514e-03
      -1.1975223429181957e-03 1.8940133511852141e-03
      2.3489037994633751e-03 -2.6549862649916225e-04
      1.2382135856688799e-03 -6.0674249351113654e-04
      6.7845748038211195e-04 1.8147876717580436e-04
      -1.3723543711872805e-04 7.1181159099982332e-04
      -2.5018075762018514e-03 -2.2819829298439862e-03
      -1.9499373599970932e-03 -6.7936107708332580e-04
      -1.8006463499556338e-03 6.4336688518092395e-05
      -5.3179262666446902e-04 -1.6266426424359427e-03
      6.1729614329622323e-04 1.1581170067967148e-04
