<?xml version="1.0"?>
<opencv_storage>
<opencv_ml_svm>
  <format>3</format>
  <svmType>C_SVC</svmType>
  <kernel>
    <type>LINEAR</type></kernel>
  <C>1.</C>
  <term_criteria><epsilon>1.1920928955078125e-07</epsilon>
    <iterations>1000</iterations></term_criteria>
  <var_count>784</var_count>
  <class_count>10</class_count>
  <class_labels type_id="opencv-matrix">
    <rows>10</rows>
    <cols>1</cols>
    <dt>i</dt>
    <data>
      0 1 2 3 4 5 6 7 8 9</data></class_labels>
  <sv_total>45</sv_total>
  <support_vectors>
    <_>
      0. 0. 0. 0. 0. 0. 0. 0. 0. 0. 0. 0. 0. 0. 0. 0. 0. 0. 0. 0. 0. 0.
      0. 0. 0. 0. 0. 0. 0. 0. 0. 0. 0. 0. 0. 0. 0. 0. 0. 0. 0. 0. 0. 0.
      0. 0. 0. 0. 0. 0. 0. 0. 0. 0. 0. 0. 0. 0. 0. 0. 0. 0. 0. 0. 0. 0.
      0. 0. -1.44418609e-05 -2.34066334e-04 -5.57907370e-05 0.
      -1.67461869e-04 -3.92386166e-04 -9.35816352e-05 0. 0. 0. 0. 0. 0.
      0. 0. 0. 0. 0. 0. 0. 0. 0. 0. 0. -2.95520949e-05 -2.62685298e-05
      0. 0. -1.18664902e-04 -1.96586014e-04 -1.21492722e-05
      1.03909428e-04 -4.64134064e-04 -7.88301404e-04 -4.26837651e-04 0.
      0. 0. 0. 0. 0. 0. 0. 0. 0. 0. 0. 0. 0. 0. 0. 0. -2.52834579e-04
      -3.51341587e-04 -1.50387626e-04 -1.40541335e-04 -1.43769619e-04
      -4.14700306e-04 -8.51629593e-05 -4.76534216e-04 -7.12798169e-07
      -3.44809203e-04 2.31235244e-04 -1.18928765e-04 -4.31255321e-04
      -1.71109059e-05 -5.41806403e-05 -1.88623035e-05 0. 0. 0. 0. 0. 0.
      0. 0. 0. 0. 2.82709766e-06 6.30143477e-05 -2.99031526e-04
      -2.98135448e-04 2.23841416e-05 3.22705055e-05 -2.77215644e-04
      -6.47065579e-04 1.36086228e-03 7.77723559e-04 -3.88214685e-04
      -8.83161847e-05 4.39377909e-04 -2.91447996e-05 -8.20954388e-04
      -8.00541777e-04 -1.17830385e-03 -7.30302010e-04 -1.45515867e-06 0.
      0. 0. 0. 0. 0. 0. 0. 0. -1.94683780e-05 3.45781300e-05
      -5.36815132e-05 -5.28839337e-05 1.44659614e-04 3.71282280e-04
      -8.42047666e-05 3.11260228e-05 1.34871516e-04 4.71280306e-04
      5.26938355e-04 2.78043211e-04 -5.93037039e-05 -7.47493468e-05
      -7.12975976e-04 -4.00555145e-04 -3.58628575e-04 5.77438004e-05
      2.82987185e-05 0. 0. 0. 0. 0. 0. 0. -1.20696488e-04
      -1.38801362e-04 -2.26951033e-05 -1.34162037e-04 -7.49575483e-05
      2.94004858e-04 4.30719112e-04 7.17117684e-04 -3.07784416e-04
      3.15699261e-04 1.51051921e-04 3.47761466e-04 2.64000526e-04
      7.71932420e-04 4.88292600e-04 4.10233770e-04 -3.28871654e-04
      2.94759928e-04 4.22651705e-04 5.10043290e-04 3.96248157e-04
      1.33617927e-04 0. 0. 0. 0. 0. 0. -1.13596696e-04 -1.38081465e-04
      3.57155586e-05 -8.25714869e-06 6.96906773e-06 1.45323036e-04
      2.37890257e-04 3.27415910e-04 -7.63369491e-04 1.07754335e-04
      -3.10175092e-04 -2.86073191e-04 8.97817139e-04 8.25321185e-04
      -2.29877594e-04 -1.99120390e-04 4.17556119e-04 5.42164023e-04
      4.89081314e-04 2.14508953e-04 1.16036128e-04 4.87674333e-05 0. 0.
      0. 0. 0. 0. -1.40059565e-04 -1.08420820e-04 1.75794281e-04
      6.80719895e-05 -9.02936517e-05 -1.22867234e-04 1.18588883e-04
      1.22851430e-04 -1.60130454e-04 -4.62817727e-04 -6.43753563e-04
      3.49397596e-04 1.83487515e-04 2.83930596e-04 -6.58629055e-04
      -5.03962394e-04 6.51717128e-04 8.14216968e-04 6.56678749e-04
      2.05586257e-04 1.10789351e-05 8.90535739e-05 0. 0. 0. 0. 0. 0.
      -1.40059565e-04 1.01701698e-05 2.52337515e-04 2.21991111e-04
      1.82306612e-04 -3.22687585e-04 1.69370382e-04 1.56059643e-04
      2.91056244e-06 -6.47544162e-04 6.51271621e-05 1.31220833e-04
      -3.14008066e-04 4.14128503e-04 -1.12242051e-04 4.74287262e-05
      4.05290717e-04 4.77051857e-04 5.09190722e-04 3.04473360e-04
      3.17007580e-05 8.94069599e-05 0. 0. 0. 0. 0. 0. -1.20104341e-04
      1.41692333e-04 3.07265727e-04 4.16727707e-04 3.55527794e-04
      -1.44138015e-04 3.59798083e-04 2.53778766e-04 -2.14458414e-05
      -4.23744117e-04 3.26833309e-04 -5.96154481e-04 -5.53766382e-04
      4.16028488e-04 2.80011940e-04 4.33916517e-04 2.28159959e-04
      5.06865559e-04 5.70905046e-04 2.13111271e-04 9.65047293e-05
      9.24942506e-05 0. 0. 0. 0. 0. 0. 3.49222937e-05 2.33148341e-04
      3.04203539e-04 3.35444114e-04 4.36475180e-04 4.99310263e-04
      2.48240249e-04 2.75656610e-04 2.64968723e-04 -4.50996187e-04
      -1.47853556e-04 -4.45883139e-04 -3.44215165e-04 1.73974317e-04
      4.55787085e-04 5.20220608e-04 8.14014493e-06 6.47843932e-04
      4.99649264e-04 2.28731413e-04 1.05851817e-04 9.90888730e-05 0. 0.
      0. 0. 0. 0. 1.23295918e-04 3.12174467e-04 2.35644475e-04
      5.10848651e-04 4.98968002e-04 2.65263399e-04 3.15177953e-04
      3.81412770e-04 3.12710821e-04 -1.01407722e-03 -8.03802628e-04
      -9.64965438e-04 -2.97919556e-04 2.45126459e-04 1.16812321e-03
      1.92805222e-04 -7.81340423e-05 6.06162066e-04 6.27199304e-04
      3.45783803e-04 1.11557689e-04 1.03561746e-04 0. 0. 0. 0. 0. 0.
      1.55833317e-04 2.90299184e-04 3.70688824e-04 5.90090291e-04
      4.40033327e-04 -3.35809018e-04 5.10761049e-04 2.81541114e-04
      -3.65215528e-05 -8.12882849e-04 -1.53883290e-03 -1.06137630e-03
      -6.10389456e-04 5.59118984e-04 1.58882106e-03 2.49717705e-05
      2.01458257e-04 5.41167101e-04 5.75963117e-04 4.78876755e-04
      2.30085585e-04 1.01439997e-04 0. 0. 0. 0. 0. 0. 2.21533308e-04
      4.17569594e-04 4.06395324e-04 4.82159725e-04 3.06131376e-04
      1.05091349e-04 5.55310689e-04 4.22369805e-04 -3.92732007e-04
      -1.03312754e-03 -1.31067028e-03 -1.97962159e-04 9.05071938e-05
      1.04921660e-03 2.90092634e-04 6.67983331e-05 4.25988255e-04
      5.36131498e-04 3.32449388e-04 4.90226026e-04 2.90387077e-04
      5.09773381e-05 0. 0. 0. 0. 0. 0. 2.75490602e-04 3.98592849e-04
      4.34663816e-04 1.03890232e-03 3.17244092e-04 5.27036667e-04
      6.77334960e-04 -1.02355025e-05 -8.68502757e-05 -9.06030880e-04
      -9.48226603e-04 -2.54712184e-04 7.84738048e-04 1.19583076e-03
      2.76345352e-04 2.19516878e-04 9.46768560e-04 3.94626841e-04
      2.69837386e-04 3.14428558e-04 -7.20454627e-05 -1.13942522e-04 0.
      0. 0. 0. 0. 0. 3.02778120e-04 3.37876903e-04 4.35234571e-04
      4.75018198e-04 3.18707462e-04 8.54272861e-04 9.13590367e-04
      3.79985693e-04 -1.92706881e-04 -4.92933497e-04 -2.45463743e-04
      -2.69695098e-04 4.04832326e-06 7.72637082e-04 8.63742083e-04
      4.34469548e-04 6.74634299e-04 9.81764970e-05 2.36498265e-04
      3.66803812e-04 -2.71397352e-04 -5.30615391e-04 0. 0. 0. 0. 0. 0.
      2.12102488e-04 3.57956742e-04 2.10012746e-04 7.00269520e-05
      1.83122291e-04 5.85644972e-04 5.87113085e-04 2.55558058e-04
      -4.19257965e-04 -4.09590109e-04 -4.68729268e-04 -1.29752909e-04
      -6.09551906e-04 5.41814428e-04 1.64322482e-04 6.78746670e-04
      1.40767748e-04 3.60847953e-05 2.64162867e-04 1.96382243e-04
      -5.25961746e-04 -5.38362656e-04 0. 0. 0. 0. 0. 0. 2.10500802e-04
      4.23449470e-04 1.32605361e-04 1.95876244e-04 4.23995225e-04
      8.88738141e-05 -5.70345204e-04 -5.68019168e-05 1.32643996e-04
      -9.49392415e-05 -2.76819574e-05 -1.21737103e-04 -2.54862884e-04
      -1.68247170e-05 1.04928760e-04 3.17560945e-04 1.16479481e-04
      1.13117749e-04 1.63221761e-04 -2.83079804e-04 -6.33251911e-04
      -5.36251406e-04 0. 0. 0. 0. 0. 0. 9.91106499e-05 1.00675767e-04
      -2.01569695e-04 2.52369588e-04 -5.80198830e-05 -5.52743732e-04
      -4.78075119e-04 4.00548925e-05 7.74882850e-04 5.57541964e-04
      -2.69135606e-04 -3.81506077e-04 -7.12021545e-04 -1.05071219e-03
      -6.55977987e-04 -2.48221331e-04 -1.95977540e-04 -3.36152189e-05
      -3.43381544e-04 -6.71415590e-04 -5.97875915e-04 -3.54685966e-04 0.
      0. 0. 0. 0. 0. 5.09877755e-05 -1.25415638e-04 -2.82159657e-04
      -3.80272832e-04 -4.54938563e-05 -9.52122500e-05 3.36175086e-04
      8.45556788e-04 8.29619123e-04 5.69488446e-04 -1.92709384e-04
      -2.76674429e-04 -6.89009263e-04 -3.15308571e-04 -5.29566372e-04
      -3.69796442e-04 -6.77263073e-04 -5.68372197e-04 -3.81090154e-04
      -3.56989418e-04 -4.66580939e-04 -7.60041366e-05 0. 0. 0. 0. 0. 0.
      -9.01922540e-05 -1.46480699e-04 1.42793506e-04 -2.35624946e-04
      -1.22666737e-04 -4.29218664e-04 1.99589791e-04 7.93746673e-04
      1.29098131e-03 -3.12422257e-04 3.41740000e-04 1.72365370e-04
      2.11131424e-04 -7.65976656e-05 -2.00488255e-04 1.05775413e-04
      -3.91217531e-04 -3.48717498e-04 -5.35546860e-05 -2.53347116e-05
      -4.43357458e-05 0. 0. 0. 0. 0. 0. 0. -4.68247708e-05
      1.98854308e-04 4.63547214e-04 4.61057440e-04 2.15329128e-04
      -6.88532251e-04 3.47233698e-04 6.89113338e-04 2.36322841e-04
      -3.53958108e-04 2.63511145e-04 8.98423968e-05 -3.14914214e-04
      -2.35440661e-04 -1.30909524e-04 4.54201945e-05 -2.29919446e-04
      -3.23600689e-05 -2.08753477e-06 0. 0. 0. 0. 0. 0. 0. 0. 0.
      4.36026894e-05 3.76272685e-04 3.70719237e-04 2.78402469e-04
      3.55753815e-04 -2.17222565e-04 -7.57517526e-04 -1.24163882e-04
      7.23838049e-04 1.64434998e-04 2.26180578e-04 -1.91601255e-04
      -1.59069474e-04 -2.12458268e-04 1.19018172e-04 -9.72020916e-06
      -7.19715308e-06 -4.03165132e-06 -2.40624240e-06 0. 0. 0. 0. 0. 0.
      0. 0. 0. 0. 0. 0. 0. 0. 1.71355787e-05 4.59804687e-05
      2.07030080e-05 -4.64753510e-04 -6.32766110e-04 3.39855651e-05
      8.56778968e-07 0. 0. 0. 0. 0. 0. 0. 0. 0. 0. 0. 0. 0. 0. 0. 0. 0.
      0. 0. 0. 0. 0. 0. 0. 0. 0. 0. 0. 0. 0. 0. 0. 0. 0. 0. 0. 0. 0. 0.
      0. 0. 0. 0. 0. 0. 0. 0. 0. 0. 0. 0. 0. 0. 0. 0. 0. 0. 0. 0. 0. 0.
      0. 0. 0. 0. 0. 0. 0.</_>
    <_>
      0. 0. 0. 0. 0. 0. 0. 0. 0. 0. 0. 0. 0. 0. 0. 0. 0. 0. 0. 0. 0. 0.
      0. 0. 0. 0. 0. 0. 0. 0. 0. 0. 0. 0. 0. 0. 0. 0. 0. 0. 0. 0.
      -1.44133839e-04 8.79770378e-05 7.46968784e-04 4.13154456e-04 0. 0.
      0. 0. 0. 0. 0. 0. 0. 0. 0. 0. 0. 0. 0. 0. 0. 0. 0. -1.41742930e-05
      -4.42409764e-05 -1.13766750e-04 -2.54702900e-04 -2.17827444e-04
      -2.96458136e-04 -3.31022398e-04 -8.31774887e-05 -2.19418667e-04
      -8.16757383e-05 -8.79715401e-07 0. 0. 0. 0. 0. 0. 0. 0. 0. 0. 0.
      0. 0. 0. 0. 1.79867893e-05 3.16327641e-05 -2.55673076e-04
      -2.63320893e-04 -1.15503045e-03 -1.88497390e-04 6.34928583e-04
      -2.38656969e-04 -1.09864958e-03 -2.08043552e-04 4.81490337e-04
      -3.41505685e-04 -4.64789191e-04 3.29303701e-04 -1.83622542e-04
      -3.78710592e-06 0. 0. 0. 0. 0. 0. 0. 0. 0. 0. -1.17299809e-04
      -7.11566128e-04 -4.37898882e-04 1.74513931e-04 2.78128253e-04
      -1.31004912e-04 -4.12535621e-04 -5.42055117e-04 1.00926461e-03
      -6.20533770e-04 4.38822208e-05 7.01427634e-04 -6.93019188e-04
      1.86590914e-04 -8.09756530e-05 1.23124896e-03 1.16797583e-03
      1.11610407e-03 4.38642601e-04 1.51285640e-04 0. 0. 0. 0. 0. 0. 0.
      0. -8.59247870e-04 -2.78692110e-04 7.45118305e-05 2.38029112e-04
      5.18233028e-05 -7.05286002e-05 2.11591745e-04 -1.10197288e-03
      -6.06914575e-04 -5.68108226e-04 7.51865155e-04 -1.14033488e-03
      -3.84287821e-04 5.16992935e-04 -4.90963648e-05 -4.56274080e-04
      -1.56049931e-03 -3.40981613e-04 -4.04728431e-04 5.70630189e-04 0.
      0. 0. 0. 0. 0. -2.14132979e-06 -4.03956547e-05 -3.19258805e-04
      1.73680761e-04 5.48072858e-04 2.62245769e-04 -1.46369054e-03
      -2.96525395e-04 3.86964995e-04 7.52681008e-05 1.57098984e-03
      4.91795727e-05 -6.37641759e-04 3.94547969e-04 3.49800772e-04
      -1.06859516e-04 5.01002833e-05 1.40677346e-03 -3.34912213e-04
      6.52846997e-04 4.41966724e-04 2.15316177e-04 -7.47449594e-05 0. 0.
      0. 0. 0. -6.11808500e-05 -2.66716408e-04 -1.46359773e-04
      -7.57554197e-04 1.27202744e-04 -4.80149902e-04 2.03110336e-04
      3.58066725e-04 3.07415670e-04 -6.24623266e-04 -9.07280308e-04
      7.14961963e-04 -6.87113963e-04 -1.01910147e-04 1.91554835e-04
      8.78470819e-05 2.82797177e-04 5.45110786e-04 1.48339110e-04
      -5.78337385e-05 9.75646893e-04 9.77452146e-04 -8.97811333e-05 0.
      0. 1.99795504e-05 0. 0. -7.03579790e-05 -9.99440090e-04
      -3.63801140e-04 -8.40290231e-05 -1.92358173e-04 5.14650659e-04
      4.32144880e-04 2.84859911e-04 -1.11594854e-03 1.20030914e-03
      4.02391233e-05 6.08339615e-04 3.32716241e-04 7.03002093e-04
      7.21656979e-05 5.53056016e-04 -7.23939913e-04 -1.05874002e-04
      4.19251337e-05 1.14015816e-03 -2.35942920e-04 9.00218205e-04
      2.68743577e-04 0. 0. 0. 0. 0. -4.67136124e-05 -6.72238530e-04
      -3.62485327e-04 -3.99645796e-04 -5.02340903e-04 1.60062380e-04
      1.00962417e-04 1.27329200e-04 2.18968402e-04 8.34446226e-04
      6.97741169e-04 -2.80030596e-04 -1.23020110e-03 -7.32688233e-04
      1.26490442e-04 -5.07653691e-04 7.71453022e-04 1.07873348e-04
      -4.80027120e-05 -1.70767354e-03 2.48343073e-04 1.33466732e-04
      5.15938795e-04 -1.66696668e-06 0. 0. 0. 0. -9.09836672e-05
      2.80136243e-04 -3.64556909e-05 -1.37701078e-04 8.14329658e-04
      -5.29467827e-04 -3.34754295e-04 -2.17004374e-04 -5.80077758e-04
      -8.10243480e-04 8.88678711e-04 9.52093396e-04 5.82608802e-04
      9.24331136e-04 -2.80209861e-05 -1.24323356e-04 1.38447867e-04
      -2.39610963e-04 1.71795841e-06 1.02079404e-03 5.21351583e-04
      1.95542016e-04 3.29930481e-04 -6.25112516e-05 0. 0. 5.87665563e-05
      0. -9.89717737e-05 -5.29375044e-04 -1.22278789e-03 -3.27198708e-04
      -3.17796337e-04 8.97038379e-04 1.58423209e-04 8.51262477e-04
      5.60962304e-04 -3.58492805e-04 1.69433095e-03 -6.89467008e-04
      -3.96317017e-04 5.16212021e-04 1.27173320e-03 1.05375983e-03
      6.35322183e-04 5.07191871e-04 6.37551071e-04 5.70499978e-04
      1.76471396e-04 1.20158642e-04 1.45107377e-04 0. 0. 0. 0. 0.
      -1.93421918e-04 -2.91433418e-04 3.48804460e-04 9.82372512e-05
      1.02157835e-04 6.91592402e-04 1.23963080e-04 -2.57453848e-05
      1.41594489e-03 9.47037362e-04 -4.80190793e-04 -1.99256101e-05
      5.86554306e-05 -5.45081217e-04 7.83930533e-04 2.21245922e-04
      -4.47540893e-04 1.48717139e-04 2.24146097e-05 3.98687174e-04
      1.28028030e-03 9.54852439e-04 3.95624986e-04 0. 0. 0. 0. 0.
      -2.29301266e-04 7.63105985e-04 1.29714538e-03 1.06589333e-03
      6.15496712e-04 1.80560397e-04 7.46533275e-04 -1.13429409e-03
      -5.84662776e-04 -5.89491276e-04 -3.04775720e-04 -3.59883881e-04
      -4.10911220e-04 1.48022300e-04 -9.44966683e-04 3.47658002e-04
      7.91091821e-04 -1.03664526e-04 4.08865977e-04 4.63894976e-04
      8.65446127e-05 -4.59007977e-04 1.41872544e-04 0. 0. 0. 0. 0.
      -1.37777446e-04 1.24577933e-03 5.12797327e-04 8.87942617e-04
      -2.96700193e-04 7.99615344e-04 7.74490705e-04 6.88669039e-04
      6.30057184e-04 7.48083985e-04 8.59391410e-04 -2.26848852e-03
      8.42596928e-04 -1.47599599e-03 -1.85618745e-04 4.02488658e-04
      -3.39367689e-04 5.67385694e-04 2.59327440e-04 6.51510432e-04
      -6.53631359e-05 -3.28330061e-04 -5.57090389e-04 -2.05292963e-04 0.
      0. 0. -4.68630378e-06 -3.34774231e-04 1.13139767e-03
      -1.15661579e-03 -5.21298265e-04 1.15276710e-03 2.32849328e-04
      -2.70041037e-05 7.65910372e-04 -1.06628542e-03 2.05823337e-04
      -4.99551417e-04 -1.42990763e-03 1.22262527e-05 -3.59830592e-05
      -3.87498236e-04 2.64193659e-04 -3.05486144e-04 7.46349397e-04
      2.07156831e-04 7.74510961e-04 9.12375574e-04 -2.82510620e-04
      -6.14788732e-04 -9.51292575e-04 -1.89585862e-05 0. 0.
      -3.31388619e-05 -4.20558557e-04 -7.76485540e-04 1.02785102e-03
      3.64071602e-04 -2.41356276e-04 3.75168223e-04 -3.21389613e-04
      6.51135517e-04 1.08773715e-03 -5.88373805e-04 -6.83984952e-04
      -4.58300172e-04 -3.06525675e-04 -7.05566257e-04 1.13287817e-04
      -1.95539091e-03 2.75152590e-04 -6.97256357e-04 -5.82375331e-04
      -6.50923757e-04 -5.16834007e-05 -2.11096922e-04 -1.38135476e-03
      -9.84106446e-04 -5.07947043e-05 0. 0. -5.69051153e-05
      -4.19870630e-04 -1.03056838e-03 1.96654044e-04 -2.07117973e-05
      1.17727883e-04 -3.18984617e-04 9.92210582e-04 -6.43717649e-04
      -8.95039935e-04 4.43400604e-05 -1.73451484e-03 1.46874067e-04
      -8.66497343e-04 -2.16781380e-04 3.87903157e-04 5.00819180e-04
      1.16421761e-04 1.12323416e-03 -2.86194700e-04 1.17712683e-04
      6.27652567e-04 -7.94193766e-04 -1.06234394e-03 -2.98775878e-04
      -5.35415093e-05 0. 0. -1.53978544e-05 -3.18477891e-04
      -7.48893945e-04 -1.25954684e-03 -3.22475709e-04 -1.61679025e-04
      7.90044869e-05 -8.71217926e-05 7.73398322e-04 5.22034068e-04
      6.11244701e-04 -5.67172596e-04 6.12211879e-04 -8.42888432e-04
      -5.07946883e-04 -6.42180094e-04 -5.73234807e-04 5.10253070e-04
      -1.04836922e-03 7.08325417e-04 -2.32409337e-04 -1.76076010e-05
      -4.92131629e-04 -6.26282417e-04 -2.72842764e-04 -1.11476809e-04 0.
      0. -5.30634225e-06 4.72101783e-05 -1.32205794e-04 4.92563471e-04
      2.01151852e-04 -3.11825250e-04 7.92500505e-04 -5.28072065e-04
      -8.80252570e-04 3.17659840e-04 4.15170565e-04 -4.42356803e-04
      1.82229724e-05 -7.52203632e-04 -2.15887980e-04 4.82989635e-05
      -5.15056745e-05 -1.61933218e-04 2.44385126e-04 -8.10375845e-04
      -4.97356348e-04 -4.38041607e-05 1.56668102e-04 -1.12053519e-03
      -7.23550678e-04 0. 0. 0. -3.95934767e-05 -1.65729114e-04
      4.23677120e-04 2.59510940e-04 -3.13662604e-04 -3.86440894e-04
      4.07040730e-04 -5.68785530e-04 4.32592293e-04 -2.31269209e-04
      8.90919415e-04 8.48866417e-04 8.41177942e-04 -1.15289434e-03
      -2.19143520e-04 5.26534241e-05 7.59574526e-04 -8.35688901e-04
      1.61430012e-06 -7.29343621e-04 1.01197133e-04 -1.45972954e-04
      -1.00181700e-04 -4.54673514e-04 -1.34772912e-04 0. 0. 0.
      -7.79624097e-05 -8.67380411e-04 -8.65517504e-05 -4.08442866e-04
      -1.37762644e-03 5.81504253e-04 -4.51278960e-04 1.03526232e-04
      1.15600749e-04 4.94835782e-04 -1.47157072e-04 -1.62444121e-04
      -7.13621906e-04 4.35647671e-04 8.37741682e-05 -1.33765361e-03
      -4.93798871e-04 7.39006966e-04 -9.04157991e-04 3.63113832e-05
      -1.10346579e-03 -6.42020197e-04 -7.72442436e-04 -1.51544809e-04
      3.32234522e-05 0. 0. 0. -1.02045042e-05 -1.00591475e-04
      -1.01750193e-03 -3.13186058e-04 5.45812713e-04 -7.27999257e-04
      -7.12814275e-04 -8.27117983e-05 9.65307641e-04 -1.15674979e-03
      1.08400593e-03 7.87895522e-04 5.73957164e-04 1.18432736e-05
      4.65859746e-04 -3.16179969e-04 -6.81352511e-04 6.85567153e-04
      2.98951374e-04 -2.12524203e-04 2.82448073e-05 4.09606349e-04
      -2.19875787e-04 -1.20025194e-04 3.42509838e-06 0. 0. 0. 0.
      -8.43130183e-05 -1.22093351e-03 -2.06539306e-04 -7.00880599e-04
      5.74153382e-04 1.84719654e-04 3.68044239e-05 4.90320846e-04
      -2.26721895e-04 1.03701539e-04 7.63159594e-04 -3.33228782e-05
      2.99016210e-05 -1.37588033e-03 -2.47573014e-04 -2.64260801e-04
      -9.79416654e-04 -2.96858198e-04 -8.81186133e-05 -1.26501382e-03
      -2.11278140e-03 -6.34982774e-04 0. 0. 0. 0. 0. 0. 0.
      7.06324761e-04 1.66882959e-03 -5.16910688e-04 -1.56784256e-04
      -1.72102125e-04 -3.41244304e-04 1.64000056e-04 -3.09434428e-04
      5.18617162e-04 1.02286669e-03 3.92916525e-04 3.66547232e-04
      -2.31171231e-04 5.12681843e-04 6.55412150e-04 -7.50395702e-04
      -8.24583287e-04 -6.16065052e-04 -3.75812262e-04 -7.22635246e-04
      -3.42032581e-04 -9.44341082e-05 0. 0. 0. 0. 0. 0. 0. 0.
      -2.54013448e-05 -1.75802576e-04 -1.86226956e-04 -1.84333694e-04
      -1.96583060e-05 8.25592942e-05 1.54270514e-04 -2.39233254e-04
      -2.80551147e-04 -2.71099183e-04 -6.26293942e-04 -5.46124647e-04
      -6.54453819e-04 -4.67402075e-04 -2.05065735e-04 0. 0. 0. 0. 0. 0.
      0. 0. 0. 0. 0. 0. 0. 0. 0. 0. 0. 0. 0. 0. 0. 0. 0. 0. 0. 0. 0. 0.
      0. 0. 0. 0. 0. 0. 0. 0. 0. 0. 0. 0. 0. 0. 0. 0. 0. 0. 0. 0. 0. 0.
      0. 0. 0. 0. 0. 0. 0. 0. 0. 0. 0. 0. 0.</_>
    <_>
      0. 0. 0. 0. 0. 0. 0. 0. 0. 0. 0. 0. 0. 0. 0. 0. 0. 0. 0. 0. 0. 0.
      0. 0. 0. 0. 0. 0. 0. 0. 0. 0. 0. 0. 0. 0. 0. 0. 0. 0. 0. 0. 0.
      1.34062197e-04 3.66436667e-04 1.74280853e-04 0. 0. 0. 0. 0. 0. 0.
      0. 0. 0. 0. 0. 0. 0. 0. 0. 0. 0. 0. 0. 0. 0. 0. 0. 0.
      -8.20884452e-05 -2.53578473e-04 -2.92848999e-04 -6.81488964e-05 0.
      0. 0. 0. 0. 0. 0. 0. 0. 0. 0. 0. 0. 0. -7.31022679e-04
      -7.28155952e-04 -7.39995216e-04 -5.70862903e-04 -3.32284981e-04
      -1.26576936e-03 -1.18915678e-03 -9.07045498e-04 1.26452546e-03
      6.54812669e-04 -5.13699488e-04 -1.61338050e-03 -1.29844586e-03
      -1.51540025e-03 -1.29505852e-03 -8.52283614e-04 -9.45401262e-05
      2.42836122e-05 9.23976677e-06 0. 0. 0. 0. 0. 0. 0. 0. 0.
      -7.47954880e-04 -5.91388729e-04 -1.93396278e-04 -4.33506008e-04
      -5.41007437e-04 -1.09185069e-03 2.78737250e-04 -5.03636023e-04
      1.46510429e-04 -1.52379907e-05 -9.84489918e-04 -2.92554963e-04
      -5.73557219e-04 -1.15096402e-04 4.56419657e-04 1.63521778e-04
      -1.14475552e-03 -5.33557672e-04 -3.10357573e-04 2.37802014e-04 0.
      0. 0. 0. 0. 0. 0. -2.72296485e-04 -1.04697724e-03 -2.97656843e-05
      -7.26270198e-04 -5.26285730e-04 -1.31964707e-03 3.21407424e-04
      1.43338824e-04 -2.16217199e-03 -5.44184353e-04 1.32598449e-03
      -1.29465631e-03 -1.08586228e-03 3.37356847e-04 5.77854866e-04
      1.18910939e-05 -5.67766081e-04 4.40461736e-04 -2.05094984e-04
      -1.96868926e-03 -3.83370352e-04 0. 0. 0. 0. 0. 0. 0.
      -2.43121060e-04 -3.78872297e-04 -4.75710520e-04 1.16175950e-04
      1.28002849e-03 -1.64957275e-03 -6.19549071e-04 6.94495975e-04
      -2.14507323e-04 -6.30813476e-04 9.33498159e-05 -1.11537171e-03
      1.12551358e-03 -1.90977077e-03 -5.87654242e-04 -9.26480512e-04
      -5.94672922e-04 -1.24518154e-03 7.53484375e-04 -8.17043940e-04
      -5.92459925e-04 0. 0. 0. 0. -3.84572049e-05 0. 0. -2.78551452e-04
      -1.00296771e-03 -3.68322944e-04 -7.80320435e-04 -4.81357711e-04
      -3.62525199e-04 4.30593704e-04 5.34839091e-05 -1.42040395e-03
      1.03453374e-06 -2.58199667e-04 -7.25916543e-05 1.02219557e-04
      4.00937250e-04 1.33961544e-03 3.70989990e-04 1.47613289e-03
      1.06623054e-04 1.63291860e-03 -4.02117555e-04 -7.13891175e-04
      4.23402089e-05 0. 0. 0. -6.04797096e-05 1.57640079e-05
      1.89976508e-05 -4.55571135e-04 -1.55667413e-03 -1.41803583e-04
      -5.57418272e-04 8.57836450e-04 1.10159256e-03 3.61944461e-04
      -1.21119118e-03 5.54117956e-04 3.85202584e-04 3.81370744e-04
      -4.67051519e-04 -4.79786919e-04 -7.77614303e-04 4.55260131e-04
      -4.37100185e-04 -2.50704907e-04 -4.83671494e-04 -1.28289266e-03
      -2.29785976e-04 -6.13378710e-04 4.20476426e-05 0. 0. 0.
      -6.93544498e-05 6.46728540e-06 -2.05997596e-04 -1.03799405e-03
      -1.50365080e-03 3.89546622e-04 -7.80864211e-04 1.07006192e-04
      -1.30865970e-04 6.74058858e-04 -2.37787117e-05 6.01683685e-04
      -3.54009448e-04 -4.09618515e-04 -5.40374545e-04 3.79491248e-04
      2.73190904e-04 -9.63739469e-04 -1.09379995e-03 -7.50259496e-04
      -1.78052299e-03 -1.74569909e-03 -2.48114055e-04 7.32931076e-04
      7.67826496e-05 0. 0. 0. -3.45128756e-05 0. -4.12268739e-04
      -5.83318935e-04 1.97559697e-04 1.31361431e-03 3.19231185e-04
      6.24084612e-04 -3.56745411e-04 1.18612335e-03 1.52236404e-04
      2.73681013e-04 -1.11278656e-04 -3.14005709e-04 8.69004507e-05
      7.40188116e-04 7.17682939e-04 5.79358020e-04 2.18893704e-03
      6.52456074e-04 1.29161845e-03 4.73062595e-04 -7.48812687e-04
      7.81183408e-05 7.70873448e-05 0. 0. 0. -2.53094440e-05 0.
      -3.95271316e-04 -5.97129867e-04 -3.93163600e-06 1.33646035e-03
      -1.68434999e-04 -6.15830359e-04 1.37153082e-03 7.95730622e-04
      2.87234958e-04 6.34231081e-04 -2.03401214e-04 5.98775550e-05
      -9.54939111e-04 -1.10437314e-03 -8.54171580e-04 -6.59965270e-04
      4.05285275e-04 6.98143558e-04 1.10099977e-03 2.98255985e-03
      4.47739498e-04 9.37243691e-04 7.67826496e-05 0. 0. 0.
      -4.27302302e-06 0. -7.79065449e-05 -6.62858220e-05 -2.69253389e-04
      1.55175047e-03 -1.85784622e-04 7.68510450e-04 1.38107792e-03
      -8.40902154e-04 -7.91005674e-04 6.11077237e-04 -9.60431760e-04
      -1.54395716e-03 -1.57920481e-03 -8.35597340e-04 3.76785873e-04
      2.30590449e-04 -7.59408111e-04 -5.32017089e-04 1.10136194e-03
      1.51232467e-03 1.29215815e-03 1.28996978e-03 7.67826496e-05 0. 0.
      0. 0. 0. -1.97285728e-04 9.40834987e-04 -7.22945493e-04
      2.68088625e-04 1.04193075e-03 5.34104474e-04 9.40775499e-04
      2.79518536e-05 1.01143634e-03 -3.17722297e-04 -8.12057697e-04
      -7.26216589e-04 -1.33957912e-03 1.11195310e-04 -9.82110272e-04
      -8.43165792e-04 7.93696090e-04 -9.95470211e-04 7.82787334e-04
      1.83851237e-03 7.07457366e-04 1.43103756e-03 9.84794970e-05 0. 0.
      0. 0. 0. -3.27793532e-04 3.68526875e-04 7.15906324e-04
      5.84409456e-04 3.82398604e-04 1.09393724e-04 2.15290143e-04
      1.20198424e-03 -2.94903457e-05 9.85287596e-04 7.09996792e-04
      -2.53976183e-03 3.06544331e-04 -1.18314696e-03 -1.49882224e-03
      2.22490635e-04 7.03814323e-04 2.59035529e-04 9.68664477e-04
      1.96688983e-04 1.16530061e-03 1.17873796e-03 1.02818871e-04 0. 0.
      0. 0. 0. -2.96703547e-05 8.38784559e-04 3.75621632e-04
      -1.16157904e-03 8.36335239e-04 -3.38883372e-04 6.96384697e-04
      1.74466230e-03 6.18832477e-04 9.46062617e-04 -8.14997649e-04
      -2.28086556e-03 6.08634786e-04 -1.30749750e-03 7.56002904e-04
      1.17298868e-03 -1.37834926e-03 3.98216420e-04 -4.53592016e-04
      -1.35722826e-03 2.07083111e-04 -2.50907106e-05 6.53416209e-05 0.
      0. 0. 0. 0. -7.36609451e-04 1.73428562e-04 8.25061579e-04
      8.97264341e-04 1.18186371e-03 -2.19128415e-04 4.46403981e-04
      -1.07703754e-03 4.35599359e-04 1.00201310e-03 -2.54787738e-03
      -1.06015279e-04 -1.55003974e-04 -1.18438977e-04 1.56907807e-03
      -1.33286056e-03 3.11783951e-04 -2.63803784e-04 9.02311120e-04
      -8.46429495e-04 -1.85441368e-05 -1.51575659e-03 3.88333247e-05 0.
      3.08142880e-05 0. 0. 0. -1.39421865e-03 -1.09607622e-03
      1.03190192e-03 8.68404866e-04 -2.14887405e-04 1.01974460e-04
      2.09765788e-03 2.77475192e-04 7.64077529e-04 9.41931678e-04
      -1.24423136e-03 1.08026597e-03 1.08955405e-03 8.64553498e-04
      -7.34237081e-04 2.35382438e-04 -2.20155009e-04 2.97506427e-04
      -4.25827311e-04 7.53343105e-04 -3.77475983e-04 -1.10296265e-03
      2.72549878e-05 0. 2.67057156e-04 0. 0. 0. -1.10248802e-03
      -6.47851557e-04 6.59149600e-06 -1.84232704e-04 -4.57677525e-04
      3.18215316e-04 1.24221889e-03 7.76642933e-04 2.08496916e-04
      -2.67140596e-04 -1.21944700e-03 -6.22446751e-05 -1.28035364e-03
      -2.50379182e-03 3.93506140e-04 -4.98821260e-04 -3.64907784e-04
      -1.50354870e-03 -2.92625889e-04 -5.01933391e-04 -2.64385977e-04
      -5.19542198e-04 4.33936930e-06 0. 0. 0. 0. 0. -8.86014313e-04
      -5.95377933e-04 -5.98157174e-04 -3.04990244e-04 1.00137270e-03
      6.23299042e-04 -3.26835434e-04 -1.69839012e-04 3.20185383e-04
      1.21531927e-03 1.53223262e-03 -4.43676754e-06 1.26384664e-03
      1.70614134e-04 -1.18844619e-03 3.04350484e-04 -5.91146469e-04
      -4.89183352e-04 -5.12330327e-04 -4.28495725e-04 -8.95688776e-04
      -1.34132006e-05 0. 0. 0. 0. 0. 0. -6.58900128e-04 -1.18135766e-03
      -2.61590234e-04 -9.27064335e-04 8.31631536e-04 -2.31991362e-05
      -4.02206584e-04 5.79175772e-04 5.36140404e-04 1.01553358e-03
      3.29634873e-04 -2.00021034e-03 7.13495712e-04 6.02115360e-05
      -6.06582325e-04 1.56334572e-04 -1.00146448e-04 -1.81260562e-04
      -2.76246428e-04 1.66329672e-04 -1.20804203e-03 4.53800836e-04 0.
      0. 0. 0. 0. 1.21495832e-05 -3.10033211e-04 -1.40404853e-04
      9.04049317e-04 -4.86062345e-05 -2.44009480e-05 -5.60366258e-04
      7.56809954e-04 3.57954530e-04 9.82797239e-04 -5.13098901e-04
      1.19829806e-03 3.67747823e-04 -1.27996306e-03 1.26436155e-03
      -3.92681744e-04 -7.08481821e-04 -9.52664923e-05 5.15953579e-04
      -7.88998092e-04 -2.33204570e-04 2.86169787e-04 2.78183550e-04 0.
      0. 0. 0. 0. 0. -2.77343992e-04 -6.39215810e-04 -1.19703538e-04
      7.18680676e-04 -4.01732046e-04 -1.94348759e-04 -3.52535062e-05
      -2.61464389e-04 3.15539619e-05 2.46678432e-03 7.39153940e-04
      3.79546866e-04 -1.30662404e-04 -1.58654311e-05 -5.18990390e-04
      1.05347608e-04 -2.08201687e-04 -9.03440887e-05 4.98868700e-04
      4.69859697e-05 9.07092879e-04 7.10047534e-05 0. 0. 0. 0. 0. 0.
      -3.00011685e-04 -1.00667425e-03 -9.99166587e-05 1.13023692e-04
      -6.43530147e-05 2.58593296e-04 8.47362462e-05 -3.47295078e-04
      5.73766942e-04 1.31467041e-05 1.41662968e-04 1.51342712e-03
      6.41779858e-04 -1.32078619e-03 1.26991450e-04 -8.90900905e-04
      1.47334722e-04 -4.72050851e-05 -2.18668531e-04 4.43183933e-04
      1.80299467e-04 0. 0. 0. 0. 0. 0. 0. -4.35275524e-06 3.05244699e-04
      6.57222699e-04 -1.19833136e-03 -8.98379774e-04 -1.74218137e-03
      4.42618591e-04 -1.27862964e-04 -1.84228091e-04 3.83414939e-04
      4.85903904e-04 1.00824528e-03 -1.87167461e-04 -4.24863574e-05
      3.32038762e-05 -5.92629018e-04 -2.73665384e-04 -4.61485295e-04
      -2.29512429e-04 -8.93161850e-05 0. 0. 0. 0. 0. 0. 0. 0. 0. 0.
      -6.68760855e-04 -1.01553998e-03 -1.37932575e-03 -1.46852154e-03
      -1.44812465e-03 -1.57673052e-03 -1.64307375e-03 -1.58427923e-03
      -1.12228142e-03 -7.83674652e-04 -3.69576068e-04 -4.86605946e-04
      -4.06064064e-04 -1.31784022e-04 0. 0. 0. 0. 0. 0. 0. 0. 0. 0. 0.
      0. 0. 0. -3.34380427e-04 -6.68760855e-04 -6.68760855e-04
      -6.68760855e-04 -6.68760855e-04 -7.05811079e-04 -7.45507714e-04
      -8.03599251e-04 -4.72580956e-04 -2.09229838e-04 -6.64919426e-05
      -1.01094694e-04 -2.24359275e-04 -8.06983953e-05 0. 0. 0. 0. 0. 0.
      0. 0. 0. 0. 0. 0. 0. 0. 0. 0. 0. 0. 0. 0. 0. 0. 0. 0. 0. 0. 0. 0.
      0. 0. 0. 0. 0. 0. 0. 0. 0.</_>
    <_>
      0. 0. 0. 0. 0. 0. 0. 0. 0. 0. 0. 0. 0. 0. 0. 0. 0. 0. 0. 0. 0. 0.
      0. 0. 0. 0. 0. 0. 0. 0. 0. 0. 0. 0. 0. 0. 0. 0. 0. 0. 0. 0. 0.
      8.27477372e-04 2.26177135e-03 1.07572053e-03 0. 0. 0. 0. 0. 0. 0.
      0. 0. 0. 0. 0. 0. 0. 0. 0. 0. 0. 0. 0. 0. 0. 0. -4.66475576e-05
      -3.05003283e-04 -2.92444311e-04 4.33512789e-04 3.81625032e-05 0.
      0. 0. 0. 0. 0. 0. 0. 0. 0. 0. 0. 0. 0. 0. 0. -2.22412382e-05
      -1.82234668e-04 -1.82234668e-04 -2.59162534e-05 7.14126654e-05
      1.11037989e-04 1.21897465e-04 -7.79471666e-05 -2.51677429e-05
      4.35603986e-04 4.93640779e-04 5.10581478e-04 1.03610731e-03
      3.36254539e-04 -1.01122854e-03 -7.12098612e-04 -2.24565490e-04
      -6.72865790e-05 0. 0. 0. 0. 0. 0. 0. 0. 0. -1.43491866e-06
      -1.75800017e-06 1.46293765e-04 2.99258187e-04 2.07508356e-06
      5.38871791e-05 9.60695266e-04 4.07532236e-04 -4.95157321e-04
      -5.13394538e-04 2.90368480e-04 1.43922376e-03 -3.87431064e-04
      -1.04611216e-03 7.24972866e-04 2.11098493e-04 -6.45269174e-04
      1.29619351e-04 4.07361018e-04 -1.34829024e-03 -9.52633680e-04 0.
      0. 0. 0. 0. 0. 0. 6.67310960e-05 4.90230566e-04 2.83218367e-04
      -3.34300392e-04 -6.79045479e-05 2.59360269e-04 -4.76939138e-04
      1.64688056e-04 9.59858240e-04 -4.71944950e-04 7.10490931e-05
      6.08751841e-04 8.25394294e-04 -9.51715847e-05 1.80379226e-04
      -4.47190483e-04 4.01626225e-04 -7.22326280e-04 -1.69305643e-03
      -1.21253729e-03 0. 0. 0. 0. 0. 0. 0. 0. 2.59528042e-05
      5.53193095e-04 4.09718341e-04 -1.19853023e-04 -4.88670310e-04
      3.70942813e-04 -6.34829557e-05 -6.64572173e-04 1.11499149e-03
      1.30160607e-03 -7.60401672e-05 5.86266513e-04 -1.56585855e-04
      -6.02123095e-04 3.61552738e-05 -1.82522330e-04 3.60719532e-05
      8.10849015e-04 -4.60311567e-04 -1.01534452e-03 -8.06744792e-05 0.
      0. 0. 0. 0. 0. -9.06897476e-05 -8.26597156e-04 -2.21663417e-04
      -7.16191484e-04 -2.31678234e-04 2.11295031e-04 5.89784831e-05
      -7.27560604e-04 -2.48226075e-04 1.15165021e-03 8.86405585e-04
      -6.00720989e-04 2.69622105e-04 1.12024730e-03 2.51670077e-04
      -2.14456610e-04 -6.75332965e-04 -1.21064915e-03 -8.18707485e-05
      1.79580908e-04 7.33956549e-05 5.52456360e-04 -6.53188545e-05 0.
      2.37094879e-04 0. 0. 0. -4.40939795e-04 -5.96620957e-04
      1.47165207e-04 2.22671180e-04 9.03070264e-04 1.51610479e-03
      -4.93766602e-05 -3.43882421e-04 -1.18584045e-04 -8.28868186e-04
      5.19106106e-04 1.30451366e-03 1.05281360e-03 7.10804132e-04
      4.69680032e-04 -5.97403086e-05 -6.61331636e-04 3.29897332e-04
      6.98576390e-04 3.36895901e-05 -1.09536084e-03 -3.35175224e-04
      -1.40048040e-04 0. 0. 0. 4.46969170e-05 9.93264803e-06
      -7.13793415e-05 -3.38956161e-05 1.63334014e-03 4.65355173e-04
      -3.02871078e-04 -4.75890829e-06 1.45526079e-03 4.89046040e-04
      1.29738497e-03 -1.20830970e-04 -2.55239138e-04 7.68731639e-04
      1.77956477e-03 -1.17621780e-03 -5.19600522e-04 1.67998194e-03
      1.01858750e-03 -1.03038538e-03 -3.96875781e-04 2.24108575e-04
      -2.46778945e-04 -3.73109156e-04 -1.10156368e-04 0. 0. 0.
      2.30106351e-04 2.04822427e-04 5.25540963e-04 3.95084120e-04
      5.97528066e-04 1.93620333e-04 5.15309221e-04 6.06462054e-05
      4.22020297e-04 2.77836836e-04 2.75917046e-05 1.86587195e-03
      1.46858080e-03 2.88824929e-04 1.19147194e-03 2.25417505e-04
      1.71600212e-03 3.72571754e-04 5.26311342e-04 -3.67210276e-04
      3.07706709e-04 -1.86547913e-04 -6.16948411e-04 -3.68327659e-04
      -7.19614445e-06 0. 0. 2.26220131e-04 0. 3.63038343e-05
      5.24628675e-04 -1.50274122e-04 -3.66064574e-04 5.41945592e-05
      1.40672573e-03 -9.66555730e-04 -1.14275236e-03 5.23743627e-04
      -2.08750577e-03 2.01645438e-04 7.38253060e-04 1.38197781e-03
      6.81478647e-04 1.18899264e-03 1.85452067e-04 -5.92824304e-04
      1.45061582e-03 1.86452351e-04 2.32431036e-03 1.38408015e-03
      1.42339384e-03 -6.26583351e-05 0. 0. 0. 0. 0. 3.64467633e-05
      2.47316988e-04 -4.97182715e-04 2.90813186e-04 -4.03943443e-04
      -1.85941550e-04 -4.78953472e-04 7.65910023e-04 -4.25714170e-05
      -6.81858684e-04 -5.73317848e-05 6.73106289e-04 3.63710046e-06
      5.79432934e-04 4.09545901e-04 2.73289974e-04 6.39029196e-04
      7.91515689e-04 -8.71957338e-04 1.40759419e-03 1.29264942e-03
      6.08598755e-04 -6.81871781e-04 -3.67462868e-04 0. 0. 0. 0.
      3.23018357e-05 1.78407296e-04 -3.12394521e-04 7.87004188e-04
      2.57848733e-04 -2.74148362e-04 1.40995521e-03 -7.58622540e-04
      -9.39291785e-04 2.57335545e-04 -8.93153599e-04 -3.12502682e-03
      -1.77770326e-05 -2.26616146e-04 -1.36771798e-03 -3.27545655e-04
      9.87048261e-04 -3.44670611e-04 5.05637145e-04 1.42227043e-03
      3.34962067e-04 -4.56048088e-04 -1.05139997e-03 -8.04472249e-04 0.
      0. 0. 0. 0. -1.14455353e-03 1.35414407e-03 -3.96471616e-04
      -9.94784059e-04 -1.03983085e-03 8.79650062e-04 -7.91804458e-04
      2.21711773e-04 4.25347331e-04 5.85420756e-04 -3.22703063e-03
      -1.47607212e-03 -3.03012715e-03 -8.48829979e-04 1.91953441e-04
      -6.93326059e-04 -6.63771934e-05 7.96599663e-04 4.78161295e-04
      -1.43296260e-03 5.97007165e-04 7.30008833e-05 -1.59276329e-04 0.
      0. 0. 0. 0. -2.31797094e-04 3.05717200e-04 -9.61052894e-04
      -2.27563622e-04 -1.00972503e-03 -7.34949776e-04 2.99157371e-04
      -4.45984071e-04 -1.81342170e-04 2.91030417e-04 -2.67316471e-03
      -6.93487818e-04 -2.82560039e-04 -9.48563160e-04 -9.75345902e-05
      2.16067347e-05 1.79952110e-06 3.48269205e-05 3.28065362e-04
      3.81272752e-04 1.58333476e-03 1.70657804e-04 -7.36743154e-04 0. 0.
      0. 0. 0. -5.22672781e-04 -2.02300478e-04 5.76153980e-04
      6.20094288e-05 5.26123447e-04 -1.72177947e-03 9.22399340e-04
      8.70247095e-05 -2.41338494e-04 -1.82342506e-03 4.09110973e-04
      -1.53136859e-03 -9.57180921e-04 -6.16213423e-04 2.32627543e-04
      -1.07001688e-03 -5.15737978e-04 -5.83450077e-04 3.59940052e-04
      6.62828563e-04 6.12076372e-04 -5.85895206e-04 -7.36743154e-04
      8.32642472e-05 0. 0. 0. -1.12693306e-04 -1.19858749e-04
      3.03703011e-04 -1.33454421e-04 3.02553875e-04 1.38122262e-03
      7.38009112e-04 1.17421290e-03 7.16086011e-04 -8.70080985e-05
      -1.65959774e-03 -4.34570829e-04 -8.33978585e-04 2.03706149e-04
      -1.89408856e-05 -1.00650825e-03 8.53538164e-04 -4.27990395e-04
      -1.14112883e-03 2.42984752e-04 -4.12768888e-04 -2.20418820e-04
      -4.19238408e-04 -2.64994567e-04 7.21623481e-04 0. 0. 0.
      -3.37598554e-04 1.63657183e-03 -5.82995766e-04 -6.85092236e-04
      -5.49259188e-04 1.16630655e-03 -4.98136680e-04 3.83023929e-04
      -5.77166036e-04 -1.11640897e-03 -1.20225898e-03 -1.06471218e-03
      -1.24031142e-03 -8.65626731e-04 2.44201248e-04 -1.60121650e-03
      -7.41923752e-04 -1.96146546e-03 -1.34392132e-04 2.79762025e-04
      1.17788710e-04 -3.94620612e-04 0. 0. 0. 0. 0. 0. -9.92448884e-04
      8.70250457e-04 1.32244270e-06 8.48752039e-04 1.80789025e-03
      -2.10474522e-04 8.33048078e-04 1.00389624e-03 5.36957290e-04
      1.37910934e-03 1.03173079e-03 -8.52278259e-04 -4.35743772e-04
      -6.94207032e-04 7.19062344e-04 -6.32275944e-04 -2.21032271e-04
      -4.54044173e-04 -3.16197635e-04 -9.89563923e-05 -1.84417993e-04
      -1.69964333e-04 0. 0. 0. 0. 0. 0. -5.40150679e-04 2.48017750e-04
      4.37929499e-04 5.36063686e-04 6.20130857e-04 9.05390421e-04
      7.15639500e-04 3.48985166e-04 9.18866892e-04 1.30805688e-03
      -3.69381072e-04 -8.06005148e-04 -8.19846056e-04 -1.16224552e-03
      -4.18591109e-04 -3.08463321e-04 -2.46299343e-04 -1.07444823e-03
      -3.21686210e-04 -1.14321930e-03 -6.46238506e-04 -2.29934813e-04 0.
      0. 0. 0. 0. 0. -2.21500624e-04 1.57045451e-05 -5.72417164e-04
      8.38315987e-04 1.63978722e-03 -1.72992772e-03 1.53941219e-03
      4.30337765e-04 3.82787228e-04 8.38497945e-04 9.03470500e-04
      -3.81381746e-04 -5.80927357e-04 -7.60128823e-05 -2.98061466e-04
      9.97496187e-04 -4.73509368e-04 -1.06647238e-03 -8.51855322e-04
      -1.39759097e-03 -2.82733497e-04 -2.71471508e-04 0. 1.06627401e-03
      0. 0. 0. 0. 0. 5.11638762e-04 6.68640423e-04 1.29275909e-03
      7.10216002e-04 1.28570735e-03 1.67874771e-03 5.49047836e-04
      2.78385094e-04 1.90974481e-03 1.42005400e-03 1.66738522e-03
      1.40121498e-03 7.65223289e-04 -5.16145723e-04 -9.70589695e-04
      -7.80033704e-04 -1.44895620e-03 -1.29601546e-03 -8.06642463e-04
      1.86576362e-04 -2.20491260e-04 0. 1.09925153e-04 0. 0. 0. 0. 0.
      2.90955562e-04 7.47509766e-04 1.04495790e-03 5.77874715e-04
      -5.70104283e-04 2.12192361e-04 4.88334859e-04 2.85436196e-04
      1.97239657e-04 4.44685604e-04 7.64281664e-04 -4.12017398e-04
      -1.14727928e-03 -1.35952243e-04 2.10456885e-04 -7.33734923e-05
      -1.24331180e-03 -9.85179679e-04 7.95015367e-05 -6.23058759e-06
      -9.93065842e-05 0. 0. 0. 0. 0. 0. 0. 2.90955562e-04 2.64157949e-04
      -7.65945762e-04 -1.35372533e-03 -2.51074904e-03 -1.03389169e-03
      1.25885964e-03 -1.86579372e-03 -9.37468867e-05 -1.88368533e-04
      3.12656717e-04 6.80091151e-04 -1.16568444e-04 9.93573456e-04
      3.91136477e-04 -5.10626414e-04 -3.64583539e-04 -1.28176107e-04
      -3.20440267e-05 0. 0. 0. 0. 0. 0. 0. 0. 0. -4.50737076e-04
      -1.59439829e-03 -8.67657131e-04 -3.87182925e-04 -1.17074174e-04
      -1.13651564e-03 -1.77184632e-03 -8.37916217e-04 -9.37203062e-04
      -7.70540151e-04 -3.73109186e-04 -1.11669232e-03 -9.66358639e-04
      -1.64469850e-04 -2.28561039e-04 -1.14813301e-05 0. 0. 0. 0. 0. 0.
      0. 0. 0. 0. 0. 0. -4.57464514e-04 -1.70203706e-03 -1.64149026e-03
      -3.49825801e-04 0. 0. 0. 0. 0. 0. 0. -8.79559252e-07
      -1.51284185e-04 -1.58086157e-04 -1.97478876e-04 -1.14813301e-05 0.
      0. 0. 0. 0. 0. 0. 0. 0. 0. 0. 0. 0. 0. 0. 0. 0. 0. 0. 0. 0. 0. 0.
      0. 0. 0. 0. 0. 0. 0. 0. 0. 0. 0. 0. 0.</_>
    <_>
      0. 0. 0. 0. 0. 0. 0. 0. 0. 0. 0. 0. 0. 0. 0. 0. 0. 0. 0. 0. 0. 0.
      0. 0. 0. 0. 0. 0. 0. 0. 0. 0. 0. 0. 0. 0. 0. 0. 0. 0. 0. 0. 0.
      2.37087836e-04 6.48040092e-04 3.08214192e-04 0. 0. 0. 0. 0. 0. 0.
      0. 0. 0. 0. 0. 0. 0. 0. 0. 0. 0. 0. 0. 0. 0. 0. 0. -5.01878021e-05
      -2.96944520e-04 -2.32586142e-04 -2.87308998e-04 0. 0. 0. 0. 0. 0.
      0. 0. 0. 0. 0. 0. 0. -8.65299535e-06 -1.25468432e-04 0. 0. 0.
      1.32861680e-06 -4.86351855e-05 6.30123322e-05 4.16393013e-04
      6.32661919e-04 2.94035126e-04 1.98050184e-04 5.69650554e-04
      -5.07889839e-04 -3.38281185e-04 -6.56415126e-04 -4.58792289e-04
      -8.75160622e-04 -7.43707060e-04 -4.10033274e-04 -4.34487243e-04
      -3.06936738e-04 0. 0. 0. 0. 0. 0. -1.51427421e-05 0. 0.
      5.50930345e-05 1.55440517e-04 3.70566529e-04 1.04586092e-04
      5.01228322e-04 9.58881574e-05 -2.27060911e-04 6.89424342e-04
      -2.66423071e-04 6.16836114e-05 -4.29409774e-05 2.20786940e-04
      -7.22009747e-04 -1.50720545e-04 2.74362479e-04 -3.62924533e-04
      -3.30434705e-04 -1.42297271e-04 -7.80133472e-04 -8.37410062e-06 0.
      0. 0. 0. 0. -1.18978685e-04 -5.23496010e-06 -8.88835348e-05
      -7.38605231e-05 8.98499391e-04 -7.10099703e-05 -2.57049163e-04
      7.47868209e-04 5.68828982e-05 -3.33619682e-04 3.27867951e-04
      5.01031347e-04 3.81712627e-04 1.05214072e-04 -5.89180818e-05
      1.22608268e-04 -4.71344945e-04 -6.00861560e-04 -6.24465829e-05
      -1.30271888e-04 -7.07110798e-04 -3.13325756e-04 -1.44806123e-04 0.
      0. 0. 0. 0. 0. -2.76321312e-04 -4.03870537e-04 5.35960680e-05
      -2.63085385e-04 -8.43473186e-04 7.29569409e-04 -4.60351817e-04
      7.04990351e-04 -7.01579673e-04 -2.03721429e-05 5.57700405e-04
      -6.80693833e-04 7.32554647e-04 6.28862199e-06 -1.73397901e-04
      -9.43106206e-05 1.85203506e-04 -1.69191466e-04 6.32136129e-04
      -8.80332489e-04 -6.80345984e-04 -3.70732450e-04 -5.36336411e-05 0.
      0. 0. 0. 0. -2.24980293e-04 -1.28511136e-04 6.39055041e-04
      -1.15748706e-04 -5.02841314e-04 4.63277422e-04 -7.97015964e-04
      5.07623365e-04 2.22991483e-04 -1.37585332e-04 2.51605874e-04
      -4.54820227e-04 5.35471700e-05 4.06796789e-05 2.94169207e-04
      4.54201072e-05 -5.16667729e-04 -2.29740705e-04 -3.29250179e-04
      -1.32949199e-05 2.31344675e-04 -4.28959291e-04 -2.41924819e-04 0.
      0. 0. 0. 0. -2.27046505e-04 -4.50240041e-04 3.99825862e-04
      2.48343043e-04 1.48432455e-05 6.28308277e-04 1.25178281e-04
      -2.39078814e-04 1.89099650e-04 -4.04470542e-04 5.22913237e-04
      1.88066260e-04 4.51725355e-04 7.26766893e-06 7.17652787e-04
      3.64828957e-05 3.00437765e-04 -3.75151758e-05 2.68539792e-04
      -5.22940361e-04 -7.59014685e-04 -1.08774519e-03 -2.62086804e-04
      -4.01035152e-07 0. 0. 1.57841845e-04 3.50759656e-05 1.55916248e-04
      -7.54537992e-04 4.99849673e-04 -1.23521360e-03 -5.60360437e-04
      1.87783808e-04 -4.74752422e-04 -7.82657997e-04 9.13954937e-05
      6.20204955e-04 -6.51535520e-04 -5.73871832e-04 1.24376954e-03
      -6.72850001e-04 -2.62281043e-04 7.98899237e-07 8.36919411e-04
      1.91243671e-04 -5.33915067e-04 7.11250934e-04 -4.93733212e-04
      -8.38149921e-04 -2.06079741e-04 -4.85252531e-05 0. 0.
      8.12593207e-04 7.47532351e-04 4.45314246e-04 7.74910768e-06
      5.54633971e-06 7.06969411e-04 -2.10488477e-04 2.90982163e-04
      -1.84193603e-04 -1.45642698e-04 1.69818974e-04 3.73841758e-04
      1.03587285e-04 -4.40264994e-04 -1.93798289e-04 7.69384555e-04
      1.66174359e-05 1.77756490e-04 -4.29115098e-05 -8.50636279e-04
      5.64263086e-04 3.26044421e-04 -1.16432412e-03 -7.47720245e-04
      -5.63445210e-04 -6.89780427e-05 0. 0. 0. 3.01695050e-04
      -1.02117774e-03 -5.77497740e-05 -1.04202540e-03 3.34868411e-04
      -6.59628058e-05 -2.37568602e-04 1.24931641e-04 3.84049199e-04
      -1.08096190e-03 -1.49210828e-04 -1.10857633e-04 -6.99593802e-04
      3.56109485e-05 -2.75525876e-04 -4.84962744e-04 5.53229067e-04
      4.04730148e-04 -3.86345819e-05 8.88687093e-04 9.14432676e-05
      -1.94794236e-04 3.77030228e-04 -3.37778882e-04 0. 0. 0. 0.
      1.26405488e-04 -1.86076824e-04 -2.58800341e-04 7.29522435e-05
      -3.81114281e-04 1.38814168e-04 5.20664500e-04 -2.29704729e-05
      -1.35590744e-04 1.15090079e-04 -9.97982133e-05 5.59547334e-05
      -5.93949982e-04 -2.97301041e-04 2.12306215e-04 1.28035404e-04
      7.46661899e-05 6.31828560e-04 9.20369581e-04 -2.28891338e-04
      7.39205716e-05 1.45404623e-03 -1.99981059e-05 -7.06867781e-04 0.
      0. 0. 0. -1.52026348e-06 -1.15232840e-04 -5.67296138e-06
      5.13830164e-04 -9.54308605e-04 -2.71379104e-04 -2.54312326e-04
      -5.04111777e-05 3.92275455e-04 -1.09095439e-04 -1.11584575e-03
      -5.31295373e-04 -2.56077299e-04 -1.93703250e-04 -5.78357198e-04
      2.95523176e-04 6.44524465e-04 -9.51605616e-04 3.08808871e-04
      1.28160068e-03 1.38953875e-03 8.14498984e-04 1.14961970e-03
      -3.36285506e-04 0. 0. 0. 0. -5.44446928e-04 -1.76108646e-04
      8.55119724e-04 3.39572609e-04 1.04880589e-03 2.88752926e-04
      9.33745003e-04 -6.37126272e-04 2.92805227e-04 2.40509762e-04
      3.41143430e-04 -1.33481377e-03 -8.10208003e-05 -1.10901266e-04
      1.11042499e-03 4.53836874e-05 7.86648772e-04 4.21949517e-04
      1.37115410e-03 3.76049604e-04 5.63828973e-04 4.35920636e-04
      1.54937536e-03 0. 0. 0. 0. 0. -7.32735672e-04 -6.04980451e-04
      3.87472937e-05 -1.90282823e-04 5.85471746e-04 -4.13272588e-04
      -2.56861385e-04 4.85947559e-04 -7.19768228e-04 7.29155960e-04
      -4.83747310e-04 -1.27383322e-03 8.16147309e-04 -3.09532013e-04
      4.59054514e-04 -5.75799902e-04 1.78278191e-04 4.84767719e-04
      -7.73172724e-05 -1.61203250e-04 1.48040694e-04 -1.68712781e-04
      2.64879433e-04 0. 0. 0. 0. 0. -6.84278028e-04 1.12245465e-03
      1.01782840e-04 8.19240871e-04 1.15200928e-05 5.02198760e-04
      3.68942419e-04 4.41233220e-04 -3.24074172e-05 1.23226462e-04
      -9.76959243e-04 4.93926753e-04 -4.45651647e-04 3.86319880e-04
      4.23694466e-04 -1.18293960e-04 2.50921294e-04 2.62685237e-04
      -1.00693615e-04 -1.33444046e-04 -3.23969609e-04 -5.13367238e-04
      -2.56108178e-04 0. 4.38537754e-05 0. 0. 0. -3.21235158e-04
      7.99599278e-04 2.75444007e-04 -1.14505505e-03 9.57896351e-04
      -6.44119747e-04 4.12737485e-04 1.09883712e-03 -3.95976967e-04
      9.71360074e-04 -7.81544019e-04 -2.75579048e-04 9.14969278e-05
      4.36797214e-04 -5.23007366e-05 6.65935222e-04 3.14856734e-05
      8.31581187e-04 4.24360223e-05 -9.21171450e-05 -2.90066557e-04
      -3.82578175e-04 -6.09815645e-04 0. 3.80066078e-04 0. 0. 0.
      -2.90474825e-04 -1.44481106e-04 -4.38487477e-04 -2.24420903e-04
      -5.82744069e-05 5.69876458e-04 5.19132700e-05 2.99600943e-04
      -1.96193359e-04 -3.41313629e-04 -8.30182325e-05 -3.80969839e-04
      3.76750599e-04 -6.05730107e-04 3.71346512e-04 -2.70395743e-04
      -2.51484424e-04 -9.25540109e-04 4.34567162e-04 -4.40402597e-04
      1.73147666e-04 -1.98101348e-04 -3.37241858e-04 0. 0. 0. 0. 0.
      -5.67440293e-04 -3.57791985e-04 2.22095536e-04 3.36814555e-04
      -1.18382864e-04 2.17468158e-04 5.41331712e-04 1.72559681e-04
      7.61512143e-04 -5.91708056e-04 4.17531905e-04 -3.01718625e-04
      4.59090188e-05 3.60672013e-04 -2.96914601e-04 5.54029284e-05
      1.01497972e-04 -7.49408791e-04 2.51698686e-04 5.03755291e-04
      -3.40019687e-05 -3.14824749e-04 -1.38160409e-04 0. 0. 0. 0. 0.
      5.94439625e-05 -8.14770930e-04 1.27810679e-04 -1.00331020e-03
      7.79333786e-05 -8.12675571e-05 -6.64085092e-04 4.76647954e-04
      6.00331230e-04 3.92250688e-04 -2.95690872e-04 1.91916668e-04
      -3.04463872e-04 -2.14319356e-04 3.90607602e-05 1.41241602e-04
      7.53857952e-04 1.91039449e-04 4.58009483e-04 -3.17553815e-04
      -6.48373098e-04 4.28397689e-05 -1.55162343e-04 0. 0. 0. 0.
      1.57367376e-05 4.30483255e-04 4.10478155e-04 -1.01236532e-04
      5.10863785e-04 5.05553093e-04 -2.48909200e-04 -1.20758050e-05
      2.04720942e-04 -2.03643169e-04 5.53895778e-04 -2.62617337e-04
      2.33618688e-04 -8.27085823e-05 3.61538667e-04 -9.47114779e-04
      1.67131249e-04 -2.45168456e-04 -3.67955538e-04 -4.99826449e-04
      1.86447913e-04 -9.42208935e-05 1.71793188e-04 -2.16461049e-04
      -1.72402597e-05 0. 0. 0. 0. -1.99901406e-04 -2.37694680e-04
      3.60255071e-04 6.69058121e-04 -8.82879773e-04 -1.68366038e-04
      3.83998326e-04 -2.68775038e-05 -1.08160882e-03 1.12718402e-03
      -3.50081944e-04 3.70512629e-04 2.87462055e-04 -2.69683049e-04
      4.58152499e-04 -1.32988766e-03 -1.31574343e-04 -1.81707772e-04
      2.15044332e-04 1.01959042e-04 -8.51408477e-05 -1.48942359e-04
      -2.43279224e-04 -9.19480590e-05 0. 0. 0. 0. -1.44129459e-04
      -1.46246213e-03 -6.15903060e-04 6.14600285e-05 5.73226018e-04
      2.69489392e-05 -1.94153836e-04 1.43886777e-04 1.46296894e-04
      -4.36611153e-05 4.76859888e-04 6.49786845e-04 2.98727653e-04
      -6.46251137e-04 7.96130043e-04 4.41674812e-04 -1.58688973e-03
      3.68509500e-04 -1.74795656e-04 -6.44460742e-05 -2.23585797e-04
      -2.41765039e-04 -2.43279224e-04 -5.55519509e-05 0. 0. 0. 0. 0.
      -9.72814523e-05 -4.07020474e-04 -2.12052022e-04 -4.62942717e-06
      -6.74693321e-04 -1.77848306e-05 2.00714989e-04 -8.64893314e-04
      7.10456108e-04 -2.56667176e-04 2.27666722e-04 -2.36584651e-06
      -2.57464388e-04 7.40133342e-04 5.69065625e-04 -4.12320922e-04
      -1.84647593e-04 -5.25539690e-05 -1.16695935e-06 0. 0. 0. 0. 0. 0.
      0. 0. 0. 0. 0. -1.09773609e-04 -1.49266270e-04 7.14297785e-05
      -4.77863097e-04 -3.48441652e-04 -4.28787345e-04 -6.02599350e-04
      4.61185846e-04 1.09561859e-06 -4.84841410e-04 -4.73050284e-04
      -3.53825191e-04 -2.12717088e-04 -7.17923249e-05 -1.56317365e-05 0.
      0. 0. 0. 0. 0. 0. 0. 0. 0. 0. 0. 0. 0. 0. 0. -1.70256444e-05
      -7.51674088e-05 -1.95818837e-04 -3.19144601e-04 -2.98204279e-04
      -3.29455332e-04 -3.24445195e-04 -2.97861290e-04 -2.77392828e-04
      -5.98804399e-05 0. 0. 0. 0. 0. 0. 0. 0. 0. 0. 0. 0. 0. 0. 0. 0. 0.
      0. 0. -6.16010366e-05 -1.37791794e-04 -1.37791794e-04
      -4.64709592e-05 0. 0. 0. 0. 0. 0. 0. 0. 0. 0. 0. 0. 0. 0.</_>
    <_>
      0. 0. 0. 0. 0. 0. 0. 0. 0. 0. 0. 0. 0. 0. 0. 0. 0. 0. 0. 0. 0. 0.
      0. 0. 0. 0. 0. 0. 0. 0. 0. 0. 0. 0. 0. 0. 0. -5.00917167e-06
      -1.19489407e-04 -2.63937254e-04 -5.81352288e-05 4.58664836e-05 0.
      4.51418076e-04 1.23387610e-03 5.86843526e-04 0. 0. 0. 0. 0. 0. 0.
      0. 0. 0. 0. 0. 0. 0. 0. -1.51747718e-05 -1.59407791e-04
      -1.42115954e-04 -1.33244772e-04 -2.31332146e-04 -3.72824084e-04
      -6.69579487e-04 -5.37349260e-04 -3.69690970e-04 -9.36862256e-04
      -1.19853136e-03 -6.69956557e-04 -8.55423568e-04 -4.27676132e-04
      -1.20715486e-05 -4.50724765e-05 -1.67624912e-05 0. 0. 0. 0. 0. 0.
      0. 0. 0. 0. 0. 2.59867666e-04 -2.87132716e-04 -7.28576561e-04
      -7.36743968e-04 -4.41706652e-04 -7.06437742e-04 -4.24321886e-04
      -2.03642121e-04 -3.19597224e-04 -3.34052340e-04 -8.29183322e-04
      6.34017750e-04 8.96950194e-04 -9.29566973e-04 -4.42917517e-05
      7.62440439e-04 1.27241874e-04 2.70768243e-04 4.57091752e-04
      3.29881732e-05 3.86883876e-05 0. 0. 0. 0. 0. 0. -2.58017644e-05
      -6.39850739e-04 -7.84933043e-04 1.74553221e-04 -3.23790737e-04
      -2.02086521e-05 -1.15932210e-03 6.46772911e-04 -1.00777776e-03
      1.01182748e-04 4.94360109e-04 1.26516243e-04 -2.38675398e-06
      1.27489259e-03 -1.51785149e-04 4.38885414e-04 -4.22995858e-04
      -1.31669687e-03 -3.13748082e-04 -2.72714358e-04 -3.38464888e-04
      -3.48731628e-05 0. 0. 0. 0. 0. 0. -1.16824660e-04 -5.44121664e-04
      -1.39008829e-04 -9.79986042e-04 -3.18713748e-04 9.13789845e-05
      6.99146884e-04 5.81927947e-04 9.03068634e-04 -1.41778932e-04
      -2.19897338e-04 1.24603312e-03 -1.03870500e-03 -6.16403646e-04
      -3.12781835e-04 -6.88352797e-04 1.53303081e-05 -7.63298667e-05
      -2.81427609e-04 -7.63072225e-04 -1.26181962e-03 -3.54399708e-05
      -1.24655089e-05 0. 0. 0. 0. 0. -1.67711478e-04 -5.05170727e-04
      6.13833021e-04 -3.44757776e-04 1.76730668e-04 -1.79494236e-05
      -5.04618918e-04 6.03739638e-04 3.75437958e-05 5.04619020e-05
      -1.38975520e-04 -6.95907569e-04 9.82981059e-04 9.81886988e-04
      9.95863695e-04 1.26375782e-03 -2.06890152e-04 1.69279543e-03
      3.17640428e-04 4.66332167e-05 -1.05892669e-03 -3.08779854e-04
      -6.82769896e-05 -4.50458137e-05 0. 0. 0. 0. -2.25820928e-04
      -4.08870430e-04 6.04693603e-04 -1.64158904e-04 1.16671168e-03
      7.69477745e-04 -7.73566484e-04 -6.12990043e-05 1.11443608e-03
      4.13156464e-04 -2.72759353e-04 7.08007065e-05 -4.64208279e-04
      9.08502960e-04 -2.91590521e-04 -4.97784815e-04 -1.20937948e-05
      1.95949018e-04 1.56917272e-03 9.87393316e-04 5.52385100e-05
      -5.96548271e-05 -6.20442370e-05 -2.91806227e-05 0. 0. 0. 0.
      -3.60070873e-04 -2.28772216e-04 -4.98445879e-05 -1.77616850e-04
      2.16322605e-05 -1.39835975e-05 6.36179058e-04 -7.69580773e-04
      -1.30096552e-04 1.31182765e-04 1.65068044e-03 6.28758804e-04
      8.49615142e-04 1.00339623e-03 1.40743132e-03 1.23152800e-03
      1.12945167e-03 6.40311220e-04 -6.41525685e-06 -2.21357186e-04
      1.45798025e-03 9.39082456e-05 -9.34913169e-06 0. 0. 0.
      2.01734238e-05 4.48298306e-06 -4.74916451e-04 1.31838111e-04
      9.65221261e-04 -1.16678560e-03 8.36605541e-05 -6.91511304e-05
      4.17837262e-04 -2.62378628e-04 2.07591904e-04 6.66766073e-06
      1.84487770e-04 1.56880895e-04 4.25267179e-04 1.30334601e-03
      -2.30543272e-04 -1.95664237e-04 6.36991288e-04 1.26376966e-04
      5.75667073e-04 -8.88687355e-05 7.43028650e-04 9.97172610e-05 0. 0.
      0. 0. 1.03855775e-04 1.34451388e-04 -3.49410984e-04 1.29725609e-04
      4.60909476e-04 2.53263774e-04 4.24758706e-04 3.55022872e-04
      -4.59312752e-04 1.21265603e-03 -1.18286733e-03 1.98506837e-04
      1.49810244e-03 4.57810704e-04 1.31471432e-03 9.91160632e-04
      2.02654337e-04 8.14902538e-04 -1.06864878e-04 9.31436371e-04
      2.30443524e-03 1.27471081e-04 -3.61569691e-04 -8.34391831e-05 0.
      0. 0. 0. 0. 5.49877004e-04 1.01952901e-04 -5.94282057e-04
      -4.16030351e-04 -7.69527862e-04 5.79649583e-04 -2.61163164e-04
      1.40845936e-04 7.54273089e-04 -6.53216266e-04 -1.22503028e-03
      6.70901427e-05 -4.05555271e-04 -5.03825257e-04 9.67297179e-04
      3.23569257e-05 -9.40656057e-04 1.13057753e-03 9.74251670e-05
      7.38163217e-05 1.35577517e-03 -4.14678827e-04 -2.82071396e-05 0.
      0. 0. 0. 0. 5.52041922e-04 5.64348047e-05 -3.59766156e-04
      1.66787126e-04 1.54584961e-06 -1.31935161e-03 3.14765930e-04
      1.48553241e-04 -1.01373655e-04 -1.60217780e-04 8.76383347e-05
      4.08414140e-04 -2.76516163e-04 1.06474865e-04 3.06135800e-04
      6.39238395e-04 3.86546599e-04 1.19151094e-03 5.37179294e-04
      -2.11261169e-04 6.66115375e-04 -2.11250561e-04 -1.87629430e-05 0.
      0. 0. 0. 0. 4.89260652e-04 6.71964255e-04 -5.34228573e-04
      2.66492949e-04 -4.38787712e-04 -1.15843759e-04 -1.02179707e-03
      -8.42283305e-04 -2.56453292e-04 3.94735282e-04 -1.86161941e-03
      -1.88043457e-03 -1.17851530e-04 -6.67722314e-04 8.84486886e-04
      8.52996425e-04 4.31313034e-04 -5.38798515e-04 -4.72641150e-05
      3.62008635e-04 -1.21257524e-03 -8.70818563e-04 1.98362875e-04 0.
      0. 0. 0. 0. 0. 3.35371529e-04 -1.18821539e-04 7.95725500e-05
      9.51153110e-04 -1.02677930e-03 -2.18070069e-04 -1.20269705e-03
      -1.95578599e-04 5.85455891e-05 -3.54138901e-04 -8.71885626e-04
      1.07844662e-05 -1.59319956e-03 -2.97474966e-04 1.20802353e-04
      -6.77240241e-05 5.83048677e-05 3.68028122e-04 2.84961221e-04
      8.54462909e-04 4.61189047e-04 -1.88630111e-05 0. 0. 0. 0. 0. 0.
      4.97196859e-04 -2.08551675e-04 -9.87628009e-04 1.21269266e-04
      9.21480460e-05 7.29418942e-04 4.25239297e-04 -3.05120426e-04
      -3.71939968e-04 -4.62723576e-04 -7.45807949e-04 4.74763619e-05
      -1.58239127e-04 -7.96398090e-04 5.11403370e-04 1.06077925e-04
      3.36487938e-05 -1.07878249e-03 2.32325852e-04 2.27515353e-04
      1.28119905e-03 -7.64630153e-04 0. 0. 0. 0. 0. 0. 6.50805596e-04
      -1.35024849e-04 -1.69367937e-04 -7.82625517e-04 2.59101362e-04
      -4.75904963e-04 2.00554918e-04 -1.35817379e-03 5.07767691e-05
      -9.99316573e-04 -6.26680790e-04 -8.00891721e-05 -5.42762864e-04
      -7.42142147e-05 -4.12610301e-04 3.06379865e-04 4.00033896e-04
      -1.97335365e-04 -3.99094948e-04 -4.68385042e-06 9.61229944e-06
      -1.03882246e-03 0. 3.77309116e-05 0. 0. 0. 0. 9.43582345e-05
      5.38438908e-05 5.65512339e-04 -7.64637571e-06 3.31525051e-04
      1.80408824e-04 -3.92832852e-04 7.54485445e-05 1.51714030e-05
      -2.08083162e-04 -5.26466465e-05 -3.79857287e-04 -6.98571268e-04
      1.61450810e-03 -1.09960209e-03 -4.02815291e-04 4.63335018e-04
      5.73379977e-04 -7.70326369e-05 -3.79215431e-04 4.49023268e-04
      -3.40581348e-04 0. 3.27001238e-04 0. 0. 0. 0. -1.11933346e-04
      6.38645026e-04 -5.17090084e-04 -2.48223892e-04 5.23846829e-04
      -9.09121300e-04 6.34164549e-04 4.90599021e-04 3.90300120e-04
      -1.60528230e-03 -1.21170923e-03 6.15093042e-04 -9.93238413e-04
      -4.03216196e-04 1.25161532e-04 -1.44364766e-03 -3.51706054e-04
      -1.25878985e-04 6.95200521e-04 -7.33322697e-04 -6.77615026e-05
      8.03247458e-05 0. 0. 0. 0. 0. 0. -8.85932823e-05 1.93869364e-05
      -6.72041206e-04 7.97890534e-04 5.25517738e-04 -1.03275874e-03
      -4.59256931e-04 -1.58525177e-03 9.58298508e-04 -4.60830372e-04
      3.72809620e-04 5.21161164e-05 2.87087139e-04 -1.01985573e-03
      2.37781717e-03 -9.40483587e-04 3.12370074e-04 -5.39707427e-04
      -3.76740994e-04 -4.77245951e-04 9.75039075e-05 4.69318475e-05 0.
      0. 0. 0. 0. 0. -4.38415416e-04 -5.66055882e-04 -1.47917322e-04
      -9.87337553e-04 3.72674811e-04 -6.60049962e-04 1.32411034e-04
      6.32530791e-05 -3.91009031e-04 -6.78144497e-05 -6.99647469e-04
      -1.73706227e-04 1.35729177e-04 -3.99833691e-04 4.74601373e-04
      -1.58632596e-04 3.13183322e-04 8.34923761e-04 -4.08983615e-04
      9.85068255e-05 1.78505274e-04 -2.26986958e-05 0. 0. 0. 0. 0. 0.
      1.79709095e-04 3.68349196e-04 1.22217147e-03 4.18740005e-04
      -9.25539120e-04 -4.92018880e-04 -4.77529102e-05 1.66669284e-04
      -5.50876779e-04 6.50579284e-04 -1.23377529e-03 7.91648170e-04
      -6.33541902e-04 -8.09139863e-04 -1.44377525e-04 -7.67582795e-04
      -9.56605189e-04 3.01396358e-04 5.71007840e-04 5.12875908e-04
      1.26553321e-04 0. 0. 0. 0. 0. 0. 0. 1.13831793e-05 1.09696506e-04
      9.30951559e-04 2.06034791e-04 6.22154912e-04 2.18197529e-04
      9.11291718e-05 -9.83156613e-04 1.42548885e-03 -3.19515588e-04
      -1.57984323e-04 1.55166417e-04 8.80641528e-06 2.41034271e-04
      1.86837191e-04 7.04066770e-06 1.74873770e-04 -4.04371647e-04
      7.02696794e-04 4.50255873e-04 9.17372017e-06 0. 0. 0. 0. 0. 0. 0.
      0. 1.75964863e-06 9.54314164e-05 -2.72677105e-04 -3.27452581e-05
      -2.79581698e-04 1.14115700e-03 5.04796102e-04 6.05619396e-04
      -3.80323007e-04 2.87909177e-04 -8.16854066e-04 1.77648515e-04
      1.12597796e-03 -1.26716634e-03 -1.48437836e-03 -1.79779294e-04
      2.35025145e-05 1.92061314e-04 6.29203569e-05 0. 0. 0. 0. 0. 0. 0.
      0. 0. 0. 0. 5.98280531e-06 4.53389730e-05 5.22233837e-04
      8.68393457e-04 -9.29653237e-04 -1.08021498e-03 -2.46936281e-04
      1.37034338e-03 1.29098725e-03 -6.04935223e-04 -2.59986758e-04
      -4.02061763e-04 -7.56220616e-05 -2.36612723e-05 0. 0. 0. 0. 0. 0.
      0. 0. 0. 0. 0. 0. 0. 0. 0. 0. 0. 0. 0. 0. 0. 0. 0. 0. 0. 0. 0. 0.
      0. 0. 0. 0. 0. 0. 0. 0. 0. 0. 0. 0. 0. 0. 0. 0. 0. 0. 0. 0. 0. 0.
      0. 0. 0. 0. 0. 0. 0. 0. 0. 0. 0. 0. 0. 0. 0. 0. 0. 0. 0. 0. 0. 0.
      0. 0. 0. 0. 0. 0. 0. 0. 0. 0. 0. 0. 0. 0. 0. 0. 0. 0. 0.</_>
    <_>
      0. 0. 0. 0. 0. 0. 0. 0. 0. 0. 0. 0. 0. 0. 0. 0. 0. 0. 0. 0. 0. 0.
      0. 0. 0. 0. 0. 0. 0. 0. 0. 0. 0. 0. 0. 0. 0. 0. 0. 0. 0. 0. 0.
      3.01920401e-04 8.25249124e-04 3.92496528e-04 0. 0. 0. 0. 0. 0. 0.
      0. 0. 0. 0. 0. 0. 0. 0. 0. 0. 0. 0. 0. 0. 0. 0. 0. 0. 0.
      1.50960201e-04 6.70934241e-06 0. 0. 0. 0. 0. 0. 0. 0. 0. 0. 0. 0.
      0. 0. 0. 0. 0. 0. 2.78406264e-06 1.20642717e-05 7.70257320e-05
      1.70863961e-04 3.69618610e-05 5.94197008e-05 5.94197008e-05 0.
      8.31824218e-05 1.20047356e-04 4.72627380e-06 0. 0. 0. 0. 0. 0. 0.
      0. 0. 0. 0. 0. 0. 0. 0. 0. 0. 4.64010445e-05 2.35717307e-04
      3.65688407e-04 6.32321753e-04 2.40183406e-04 4.73959226e-04
      4.57165384e-04 3.96524731e-04 6.09798881e-04 4.92045248e-04
      1.60141586e-04 0. 0. 0. 0. 0. 0. 0. 0. 0. 0. 0. 0. 0.
      -3.46195040e-04 -5.39469591e-04 -2.55205639e-04 -7.85356329e-04
      -5.93377743e-04 1.45517552e-04 1.11787673e-03 1.00900407e-03
      -3.07620823e-04 -6.22504303e-05 7.42889242e-04 1.23175466e-03
      1.92602398e-04 3.44807864e-04 6.10077579e-04 5.60563523e-04
      9.07349458e-04 8.57740524e-04 5.95214136e-04 1.02502927e-04 0. 0.
      0. 0. 0. 0. 0. 0. -3.46195040e-04 -3.91657319e-04 -1.10320549e-03
      -1.29893655e-03 -4.10334789e-04 -5.54990314e-04 3.08482966e-04
      -3.53544136e-04 -4.61491902e-04 -3.81914608e-04 1.23272825e-04
      1.30388991e-03 1.59034552e-03 1.90398219e-04 -6.58990641e-04
      2.12684376e-04 6.17452082e-04 2.04436335e-04 6.65954081e-04
      1.23696533e-04 2.13241419e-05 0. 0. 0. 0. 0. 0. 0. -2.29380763e-04
      -2.16800530e-04 -1.22200151e-03 -8.04148440e-04 -6.49238995e-04
      1.01593228e-04 3.61937186e-04 -3.49565613e-04 -8.67143623e-04
      5.59650653e-04 8.52224330e-05 -1.09899882e-03 -4.55430476e-04
      9.81513731e-05 -2.18248679e-04 -3.07378388e-04 -3.45500681e-04
      -1.48271711e-03 6.23744738e-04 4.21750796e-04 1.67310529e-04
      1.24975239e-04 0. 0. 4.10197463e-05 0. 0. -7.17146249e-05
      -3.16549034e-04 -3.65086089e-05 -3.15172132e-04 -1.00188881e-05
      1.98842245e-05 -3.04495450e-04 -7.79111229e-04 3.95206240e-04
      1.29304035e-03 -1.30045647e-03 2.50149285e-04 4.36622649e-04
      1.33737724e-03 7.18247320e-04 7.67001300e-04 -1.32283557e-03
      -7.37440947e-04 -1.38532743e-03 -8.61606386e-05 8.97733553e-04
      5.24450035e-04 0. 0. 0. 0. 0. 0. -3.71322385e-04 -7.70151848e-04
      -4.76566813e-04 -1.22782774e-04 5.98319806e-04 -7.54149107e-04
      -8.45376926e-04 3.46370070e-04 -5.57100750e-04 1.20073790e-03
      3.90199799e-04 -6.09438692e-04 -3.02311237e-04 1.05257274e-03
      -6.77385251e-04 -1.08005456e-03 -5.84917027e-04 5.91716205e-04
      -5.09625825e-04 -1.23695377e-03 -1.11509918e-03 2.38667984e-04
      -8.69325304e-05 -1.49027197e-04 -1.94881723e-04 0. 0.
      -1.98628968e-05 -4.04789200e-04 -6.73580100e-04 -1.63840756e-04
      -3.85353283e-04 -7.43579803e-05 7.75340071e-04 -1.40471180e-04
      8.16966058e-05 4.51265194e-04 -4.24178870e-04 8.84213252e-04
      8.05538089e-04 -7.04700768e-04 -7.33725959e-04 -8.26954027e-04
      -1.53456593e-03 -2.43171628e-04 -3.30581039e-04 -9.37345438e-04
      -9.97286756e-04 -1.67197839e-04 4.85533092e-05 -2.16853674e-04
      -1.31831752e-04 -5.25416399e-05 0. 3.15816636e-04 0.
      -4.77357826e-04 -1.09206559e-03 -1.24512461e-03 1.62658162e-05
      1.27987890e-03 5.09403995e-04 -1.43245934e-03 6.47834560e-04
      3.46658955e-04 -1.18656689e-03 5.30684018e-04 -3.37807520e-04
      -2.48347642e-04 7.12485868e-04 4.41540033e-04 -2.96152371e-04
      7.00972916e-04 -5.33700746e-04 -6.71896269e-04 -5.06590353e-04
      -7.80132774e-04 3.94748895e-06 -1.33742360e-05 0. 0. 0. 0. 0.
      -6.07178721e-04 -1.68031416e-04 -1.48137426e-03 2.27862838e-04
      -9.21984087e-04 -3.25972913e-04 5.16744331e-04 7.57276939e-05
      -9.57340817e-04 6.29139133e-04 1.55644445e-03 8.31247831e-04
      -6.45163644e-04 -1.34913996e-03 -3.34971759e-04 -6.23248576e-04
      -4.60983341e-04 -8.90091993e-04 -2.30811434e-04 1.69290550e-04
      7.78980087e-04 -5.82972134e-04 3.60263621e-05 0. 0. 0. 0. 0.
      -4.69721330e-04 3.46432469e-04 -1.05851900e-03 -2.38879307e-04
      3.10764648e-04 1.32705574e-03 -2.07507561e-04 8.81971864e-05
      6.37984660e-04 1.79689704e-03 3.71815870e-04 -1.28942367e-03
      -6.62180304e-04 -9.13403812e-04 1.69547915e-04 5.35864732e-04
      3.98636854e-04 -1.42935751e-04 5.81600652e-05 3.81300488e-04
      8.82133143e-04 -5.52740181e-04 1.57386778e-04 0. 0. 0. 0. 0.
      -3.23432527e-04 9.65702930e-04 4.50007530e-04 2.10647704e-03
      -7.39052994e-05 1.84526391e-04 1.03208213e-03 -7.41610653e-04
      1.42770295e-04 2.72454112e-04 5.04647207e-04 -1.60041265e-03
      -1.80617988e-03 -1.02656824e-03 -5.27666358e-04 -4.96940804e-04
      -8.81749002e-05 2.03898715e-04 1.29931327e-03 4.31685650e-04
      7.35472247e-04 -1.65176287e-04 1.73697248e-04 0. 0. 0. 0. 0.
      -5.47660457e-04 1.39653834e-03 2.52053374e-04 -3.70352995e-04
      -5.40861161e-04 2.96582090e-04 2.64911883e-04 -5.19670721e-04
      5.40084555e-04 4.88195918e-04 -3.37347505e-04 -2.10741558e-03
      -2.14938493e-03 -1.22320850e-03 -1.28891406e-04 -2.50487152e-04
      -1.85352637e-05 5.94008714e-04 -3.52188188e-04 4.48513194e-04
      1.10888656e-03 5.15215739e-04 1.94994922e-04 0. 0. 0. 0. 0.
      -3.48866655e-04 1.03564444e-03 -3.64457868e-04 3.85263964e-04
      7.48148072e-04 5.40235080e-04 -4.42585646e-04 1.28150545e-03
      -2.45718780e-04 -7.49713858e-04 -1.19935197e-03 -1.98950453e-04
      -9.08344693e-04 -1.02864718e-03 -2.23740262e-05 -6.53585710e-04
      5.29632380e-05 7.03040801e-04 1.17518866e-04 2.54003884e-04
      5.24703821e-04 1.00488134e-04 3.75274576e-05 0. 4.61167247e-06 0.
      0. 0. -1.26018058e-04 4.69145045e-04 2.78603056e-06 1.21848134e-03
      3.35701596e-04 9.40390863e-04 1.42001547e-03 1.25553424e-03
      5.09412603e-05 1.14131358e-03 5.06148965e-04 -3.80863436e-04
      -1.05404598e-03 1.95841403e-05 -4.68771177e-04 -1.01221248e-03
      2.23125084e-04 1.05260973e-04 2.81083689e-04 6.59561018e-04
      2.21911934e-04 -4.67579172e-04 -7.32801855e-05 -4.84172633e-05
      3.99678247e-05 0. 0. 0. 3.80791695e-04 -3.74797091e-05
      5.31449099e-04 1.48020545e-03 2.43457296e-04 8.62478279e-04
      1.18391775e-03 1.39523693e-03 8.76345672e-04 7.34080619e-04
      -2.24268209e-04 1.42871620e-04 -2.60702305e-04 -5.15788037e-04
      -1.34830640e-04 -1.21400505e-03 2.98718733e-05 -1.75301207e-03
      -6.14128367e-04 7.36568938e-04 -4.94158827e-04 -4.86844983e-05
      -1.13845999e-04 -1.13845999e-04 0. 0. 0. 0. 7.33318797e-04
      -7.15927672e-06 7.04821359e-05 6.61759754e-04 1.74981961e-03
      6.80495577e-04 1.25404412e-03 2.55807827e-04 1.80465722e-04
      4.63035278e-04 4.47862403e-04 3.71952425e-04 1.00363209e-03
      -6.22709398e-04 -4.88113437e-04 7.45562545e-04 5.19827125e-04
      -1.02137937e-03 4.00727818e-04 9.92121641e-04 2.16882268e-04
      -7.51461703e-05 0. 0. 0. 0. 0. 0. 1.15848240e-03 1.90762430e-03
      4.64260898e-04 7.27755949e-04 1.53016497e-03 2.75344733e-04
      2.06810399e-03 1.08274457e-03 2.13410589e-03 3.54469492e-04
      3.19828687e-04 -1.93257511e-04 5.48288284e-04 1.80553223e-04
      5.56838582e-04 -6.17959813e-05 2.43681076e-04 -8.51484583e-05
      5.06967248e-04 9.89262597e-04 2.59899563e-04 1.39213123e-04 0. 0.
      0. 0. 0. 0. 1.02286879e-03 7.45553814e-04 -1.07929693e-03
      1.00806949e-03 1.61088514e-03 8.67343333e-04 1.49405014e-03
      1.40851218e-04 5.01584436e-04 1.08630287e-04 -1.56263504e-05
      -1.54919879e-04 -3.58514488e-04 1.12180377e-03 -2.24102594e-04
      -2.08675396e-04 1.09681569e-03 -1.35256341e-04 -5.04261989e-04
      5.94609883e-04 3.12942284e-04 3.35996534e-04 0. 2.03911841e-04 0.
      0. 0. 0. 6.74447918e-04 3.56039964e-04 1.84110715e-04
      1.29648135e-03 1.26523129e-03 7.89242855e-04 1.66335871e-04
      4.02363694e-05 1.45579025e-03 9.50945483e-04 1.42788677e-03
      1.01568316e-04 3.88147659e-04 5.37204905e-04 -3.14905483e-04
      -9.60522448e-05 1.25245264e-04 -5.54211147e-04 -9.70827532e-04
      3.60847189e-04 3.81085323e-04 1.59989999e-04 0. 2.10218386e-05 0.
      0. 0. 0. 0. -7.73318927e-04 -2.17752749e-04 -1.02166249e-03
      -7.44072138e-04 -3.07092967e-04 4.99713700e-04 1.03427074e-03
      -2.80828855e-04 8.70147429e-04 9.47060005e-04 6.38103869e-04
      7.75521446e-04 -3.70090973e-04 4.36575880e-04 9.93682770e-04
      -4.25289501e-04 -1.12769671e-03 -8.03065723e-06 2.76948267e-04
      1.80156814e-04 2.68890767e-06 0. 0. 0. 0. 0. 0. 0. -2.34685140e-04
      -1.35101331e-03 -1.36591622e-03 -3.86722240e-04 -1.05185900e-03
      4.58305847e-04 2.60310480e-04 -1.21894688e-03 -1.52177512e-04
      -3.00778716e-04 6.14524703e-04 8.35788203e-04 -1.30017498e-03
      1.52879773e-04 -3.81695019e-04 -1.80779118e-03 -2.02566720e-04
      -2.22401941e-04 -1.72449400e-05 0. 0. 0. 0. 0. 0. 0. 0. 0. 0.
      -4.07768675e-04 1.30929053e-04 1.04326091e-03 1.48287058e-04
      -9.17393132e-04 -8.77905346e-04 -9.45049629e-04 -1.59108581e-03
      -2.11831112e-03 -2.80556432e-03 -1.11842377e-03 -5.07860444e-04
      -1.07415253e-03 -1.77704240e-03 -4.14614595e-04 -3.62942024e-04
      -4.84416174e-04 -9.92566202e-05 0. 0. 0. 0. 0. 0. 0. 0. 0. 0. 0.
      0. -1.70987951e-05 -7.42666380e-05 -1.52850611e-04 -1.67624108e-04
      -7.06123756e-05 0. -1.38089992e-04 -3.99493700e-04 -2.83550384e-04
      -8.84355250e-05 -6.06149377e-04 -4.07411892e-04 0. -1.94842563e-04
      -4.65977180e-04 -3.41317245e-05 0. 0. 0. 0. 0. 0. 0. 0. 0. 0. 0.
      0. 0. 0. 0. -4.43447207e-05 -1.18718153e-05 0. 0. -1.26506886e-04
      -3.34339638e-05 0. 0. 0. 0. 0. 0. 0. 0. 0. 0. 0. 0.</_>
    <_>
      0. 0. 0. 0. 0. 0. 0. 0. 0. 0. 0. 0. 0. 0. 0. 0. 0. 0. 0. 0. 0. 0.
      0. 0. 0. 0. 0. 0. 0. 0. 0. 0. 0. 0. 0. 0. 0. 0. 0. 0. 0. 0. 0.
      4.20267810e-04 1.14873203e-03 5.46348165e-04 0. 0. 0. 0. 0. 0. 0.
      0. 0. 0. 0. 0. 0. 0. 0. 0. 0. 0. 0. 0. 0. 0. 0. 0. 0. 0.
      2.10133905e-04 9.33928459e-06 0. 0. 0. 0. 0. 0. 0. 0. 0. 0. 0. 0.
      0. 0. 0. 0. 0. 0. -3.57172597e-04 -5.86214184e-04 -3.27081303e-04
      -4.38380986e-04 -4.37783950e-04 -2.19311944e-04 -9.68206441e-05
      -1.42272547e-04 -9.18992882e-05 2.82021192e-05 1.60140439e-06
      -1.00802077e-04 -2.56577099e-04 -2.63620575e-04 -2.33959479e-04
      -2.30420716e-04 -1.79619296e-04 -3.81010614e-05 0. 0. 0. 0. 0. 0.
      0. 0. 1.04452178e-04 -2.17475346e-04 -4.85516241e-04
      1.05468862e-04 3.59181897e-04 -2.85520382e-05 -8.02692666e-04
      2.01664661e-04 8.66777729e-04 -8.01261689e-04 2.64012546e-04
      -1.08861877e-03 5.16587927e-04 -8.74603458e-04 -4.16178751e-04
      4.51005209e-04 8.29050405e-05 -1.51291955e-04 -2.99769425e-04
      -2.03642892e-04 -3.88357039e-05 0. 0. 0. 0. 0. -1.31505103e-05
      4.49484942e-05 2.09954582e-04 -3.98361037e-04 3.67662957e-04
      1.76493311e-04 1.04898051e-03 -3.26579786e-04 -1.13126286e-03
      -3.91981128e-04 -9.82700221e-05 -7.11029163e-04 3.06491624e-04
      -3.08118528e-04 1.25703588e-03 9.86363855e-04 -1.37775508e-03
      -2.91363685e-04 -2.28107281e-04 -5.64471644e-04 -5.27918688e-04
      -1.25432824e-04 0. 0. 0. 0. 0. 0. -7.15879578e-05 1.26087922e-04
      1.49339721e-05 -2.65429640e-04 -3.08537019e-05 -1.13788398e-03
      1.59233983e-04 -7.21321267e-04 -2.90513217e-05 2.79676227e-04
      1.34040951e-04 -8.84034147e-04 4.55553352e-04 -8.51752702e-04
      -6.97068099e-05 -1.25848327e-03 1.11082481e-05 3.28649912e-04
      3.21550440e-04 5.99030973e-05 -1.21786213e-03 -3.64376727e-04
      -8.32700835e-07 0. 0. 0. 0. 0. -2.01464034e-04 -1.08780849e-04
      3.37374368e-04 -1.98323876e-04 -7.28950254e-04 -1.42671794e-04
      -6.24248496e-05 9.58820747e-04 -2.86076160e-04 -3.18829203e-04
      3.87571839e-04 -9.14269069e-04 2.01396964e-04 3.15018144e-04
      5.48820361e-04 3.55546334e-04 -3.53016047e-04 -3.00351327e-04
      -6.29753107e-04 6.03272754e-04 1.02431176e-03 -6.91649329e-04
      -3.78878867e-05 0. 0. 0. 0. 0. -1.19403172e-04 -2.23466559e-04
      8.40038119e-04 -1.00564095e-03 -1.58024952e-04 7.59460614e-04
      -2.81966291e-04 -3.00296902e-04 -5.53180580e-05 -8.48774973e-04
      1.01820850e-04 -7.50673236e-04 6.93299633e-04 -6.77109987e-04
      -9.34697619e-06 -4.64595039e-04 -1.05484556e-04 5.06384182e-04
      7.20912931e-06 -1.67094148e-03 1.86181889e-04 -4.06501204e-04 0.
      0. 0. 0. 1.23771879e-05 2.75048615e-06 -7.01075332e-05
      -4.01964615e-04 -1.35180853e-05 4.33680601e-04 1.93977685e-04
      -7.09740561e-04 4.52376000e-04 -4.36060946e-04 6.07186812e-04
      8.36566323e-05 -3.76332464e-05 9.33101226e-04 -8.44802766e-04
      2.63111258e-04 -8.42967769e-04 1.07321939e-04 2.88734329e-04
      -1.24476943e-03 -3.00000800e-04 2.92278943e-04 -1.43829931e-03
      -6.61018945e-04 -8.76162812e-05 0. 0. 0. 6.37195990e-05
      5.59265536e-05 -1.84762001e-04 -1.47585379e-04 -3.48032831e-04
      1.29537570e-04 -8.21962662e-04 1.75162073e-04 -1.10821857e-04
      -9.38390207e-04 -3.14585282e-04 5.26050222e-04 3.91449663e-04
      8.09750985e-04 8.28503573e-04 1.49345014e-03 -1.04228624e-04
      -1.50402033e-04 9.31684976e-04 3.98915203e-04 -2.01792704e-04
      2.40249137e-04 -2.04241578e-03 -7.99204689e-04 0. 0. 0.
      2.81042558e-05 0. 0. -6.06136688e-04 -4.18685595e-05
      -4.12834401e-04 -9.77656222e-04 5.51716657e-04 -1.20505656e-03
      -1.64752113e-04 9.83261853e-05 -2.64574977e-04 2.98485917e-04
      -1.05749094e-03 8.29015698e-05 -7.29682040e-04 -2.11386883e-04
      7.64022639e-04 7.82193500e-04 -6.60685415e-04 -4.20766533e-04
      1.37282812e-04 1.42591107e-05 6.79137826e-04 -1.00476970e-03 0. 0.
      0. 0. 0. 0. -3.74920608e-04 4.77419264e-04 5.98232320e-04
      -1.11842807e-03 -1.12412192e-04 6.44600368e-04 2.18187997e-04
      5.98363171e-04 8.13385646e-04 -7.05074053e-04 -3.21066094e-04
      -1.01259304e-03 6.08169241e-04 1.47374420e-04 2.72187404e-04
      -2.76635517e-04 5.49817749e-04 9.23685206e-04 -2.34625506e-04
      -4.58389222e-05 5.39437984e-04 -7.81200826e-04 0. 0. 0. 0. 0. 0.
      3.25655274e-04 9.42361658e-04 5.53534250e-04 1.16673298e-03
      1.49767485e-03 2.25587515e-04 -5.92224649e-04 -5.89409727e-04
      -1.02418091e-03 -3.39895516e-04 -6.62838167e-04 -1.10570667e-03
      -3.28814494e-04 -8.76925245e-04 2.62127694e-04 -2.07977515e-04
      -1.05907163e-03 -5.43377428e-05 6.89193257e-04 4.09904402e-04
      1.04456081e-03 1.65690697e-04 0. 0. 0. 0. 0. 0. 5.36845939e-04
      3.28195951e-04 1.96142370e-04 4.49591578e-04 -8.94770026e-04
      1.98893849e-05 -1.04683830e-04 -8.38362248e-05 5.39897010e-04
      6.24485663e-04 -1.56842684e-03 4.84975724e-04 -1.28507195e-03
      -9.28836816e-04 5.74940117e-04 -7.03378581e-04 4.78376372e-04
      -1.16496009e-03 6.90936926e-04 2.57150619e-04 9.30907670e-04
      5.77610335e-04 0. 0. 0. 0. 0. 4.47089633e-06 7.12731737e-04
      -1.02507867e-04 5.39676985e-04 5.67266019e-04 -7.46645324e-04
      -6.05224224e-04 2.18510817e-04 -9.15954370e-05 -7.98079709e-04
      -8.87860253e-04 -1.61582767e-03 3.14296951e-04 -3.62000108e-04
      3.61594983e-04 4.07224652e-05 -7.23143050e-04 4.67730802e-04
      8.79368687e-04 -4.71070700e-04 -2.48408876e-04 2.16227170e-04
      2.27680997e-04 0. 0. 0. 0. 0. 3.57671706e-05 4.78034519e-04
      7.31671113e-04 -4.94340260e-04 6.81666133e-05 5.39921632e-04
      -5.42809314e-04 -1.21734258e-04 -1.95063360e-04 8.02420953e-04
      -1.16365741e-03 2.88698851e-04 -2.13471896e-04 -1.09330821e-03
      1.09119159e-04 -2.23856143e-04 5.51418198e-05 5.06797514e-04
      -4.93765576e-04 -4.50894877e-04 8.16158776e-04 5.08922909e-04
      -1.68250932e-04 0. 0. 0. 0. 0. 9.61242695e-05 4.50251653e-04
      4.68708255e-04 2.86911207e-04 5.79947839e-04 4.51110973e-04
      -6.09054950e-06 5.49024960e-04 -1.52801676e-03 7.77554524e-04
      -1.10969623e-03 -2.31399899e-04 6.39985665e-04 5.87034912e-04
      6.83702674e-05 2.77190615e-04 7.14844966e-04 2.86640832e-04
      6.89806708e-04 1.90045871e-03 -1.36953255e-04 -5.75615442e-04
      2.94388214e-04 0. 0. 0. 0. 0. 9.78008538e-05 5.15954234e-05
      -3.94497853e-04 4.09967586e-04 -1.87045825e-05 6.02107437e-04
      5.60948160e-04 5.78612671e-04 1.00739510e-03 -7.89888029e-04
      -2.13223189e-04 -2.11593942e-04 4.95896325e-04 -9.14529199e-04
      4.19633114e-04 6.59800207e-05 9.27530229e-04 4.95200547e-05
      7.33116700e-04 8.81891639e-04 -6.58521967e-05 -1.06721313e-03
      1.15987030e-04 0. 0. 0. 0. 0. 1.31230569e-04 -3.00916217e-05
      2.33704428e-04 1.27092330e-03 6.87718566e-04 7.44679244e-04
      5.29758749e-04 3.76722310e-04 5.98039303e-04 1.41234847e-03
      -2.44310941e-04 4.76581743e-04 8.93426535e-04 1.29801407e-03
      2.98568630e-04 6.26990863e-04 -2.52706610e-04 4.27553372e-04
      -6.39732927e-04 -6.55628275e-04 -2.24751115e-04 -4.46075079e-04
      6.80946960e-06 0. 0. 0. 0. 0. 2.39649467e-04 1.11675414e-04
      8.96685873e-04 -1.40272174e-03 1.15024290e-04 3.79819627e-04
      1.42204095e-04 -2.09633217e-04 4.71088337e-04 9.40387661e-04
      1.02574762e-03 1.01192167e-03 -9.97745199e-04 2.65653100e-04
      4.72942484e-04 -2.84980808e-04 7.72904896e-04 -4.92460211e-04
      -5.43703136e-05 1.41056720e-04 -5.17878681e-04 1.73450782e-04 0.
      0. 0. 0. 0. 0. 2.15417735e-04 -2.64686038e-04 -7.96894310e-04
      -7.23431120e-04 -1.28104628e-04 -8.48750002e-04 -1.29456399e-04
      9.40277532e-04 5.87426301e-04 -6.10359071e-04 -5.35037718e-04
      1.16301184e-04 -7.09723390e-04 3.97916556e-05 -1.00184821e-04
      -4.06176143e-04 -3.19346145e-04 4.86740697e-04 2.36231674e-04
      -1.45757367e-04 2.49429169e-04 2.14815693e-04 0. 4.24496066e-05 0.
      0. 0. 0. 0. -1.12900697e-03 -8.96979356e-04 9.51883194e-05
      3.47222784e-04 7.45235157e-05 7.20042386e-04 -7.26566592e-04
      -1.70120806e-03 1.58423418e-03 2.71618221e-04 -1.87943311e-04
      1.04093831e-03 3.91006142e-05 3.97273980e-05 -8.93953023e-04
      9.35346296e-04 -3.26119043e-04 -8.15176027e-05 7.44993798e-04
      2.70079297e-04 7.85206576e-05 0. 4.37624840e-06 0. 0. 0. 0. 0.
      -3.28956434e-04 -5.65459253e-04 5.07834950e-04 1.07205508e-03
      -1.02421991e-03 4.65709512e-04 4.81578871e-04 3.82544327e-04
      1.19444891e-03 -7.91364640e-04 5.24934381e-04 8.01480259e-04
      -3.49990500e-04 1.41095498e-03 -2.00727582e-03 -1.35910546e-03
      5.22494025e-04 3.31870280e-04 7.23171661e-06 -1.22230995e-04
      -5.41680311e-05 0. 0. 0. 0. 0. 0. 0. 1.04679377e-04 5.60239132e-04
      5.69896656e-04 -4.04415368e-05 2.88439333e-04 5.30071411e-05
      -6.17243233e-04 -1.01514405e-03 8.58100306e-04 -3.84626008e-04
      5.58548309e-05 9.33276606e-04 6.04244648e-04 1.49540766e-03
      -6.76291966e-05 -5.53618418e-04 -3.13407400e-05 -8.62325487e-06
      -4.10727298e-05 0. 0. 0. 0. 0. 0. 0. 0. 0. 0. -2.85518763e-05
      -1.68292594e-04 -7.26862199e-05 -2.51201302e-04 -2.58228538e-04
      -1.24357583e-04 3.80949758e-04 -4.00889287e-04 -1.23261684e-03
      -9.95886279e-04 -6.46396133e-04 -1.14770606e-03 -5.85350965e-04
      -1.12153270e-04 -8.47448828e-05 -6.49215217e-05 -1.48675235e-05 0.
      0. 0. 0. 0. 0. 0. 0. 0. 0. 0. 0. 0. 0. 0. 0. 0. 0. 0. 0. 0. 0. 0.
      0. 0. 0. 0. 0. 0. 0. 0. 0. 0. 0. 0. 0. 0. 0. 0. 0. 0. 0. 0. 0. 0.
      0. 0. 0. 0. 0. 0. 0. 0. 0. 0. 0. 0. 0. 0. 0. 0. 0.</_>
    <_>
      0. 0. 0. 0. 0. 0. 0. 0. 0. 0. 0. 0. 0. 0. 0. 0. 0. 0. 0. 0. 0. 0.
      0. 0. 0. 0. 0. 0. 0. 0. 0. 0. 0. 0. 0. 0. 0. 0. 0. 0. 0. 0. 0.
      4.46633203e-04 1.22079742e-03 5.80623164e-04 0. 0. 0. 0. 0. 0. 0.
      0. 0. 0. 0. 0. 0. 0. 0. 0. 0. 0. 0. 0. 0. 0. 0. 0. 0. 0.
      2.23316601e-04 9.92518198e-06 0. 0. 0. 0. 0. 0. 0. 0. 0. 0. 0. 0.
      0. 0. 0. 0. 0. 0. 2.83871782e-06 1.23011105e-05 7.85378579e-05
      1.60860669e-04 2.92613578e-04 4.75264096e-04 2.64656876e-04
      2.14404761e-04 2.92012672e-04 4.30682034e-04 8.13354782e-05
      1.86669638e-06 0. 0. 0. 0. 0. 0. 0. 0. 0. 0. 0. 0. 0. 0. 0. 0.
      9.70510737e-05 3.43790627e-04 -5.48350683e-04 -4.24364334e-05
      4.24355851e-04 4.80091840e-04 1.79547904e-04 2.12577543e-05
      5.95754129e-04 -4.36956645e-04 5.90993091e-04 1.99298549e-04
      2.70768156e-04 8.38698528e-04 7.45433645e-05 0. 0. 0. 0. 0. 0. 0.
      0. 0. 4.74776215e-07 2.13649291e-05 1.41953322e-04 2.65947572e-04
      7.43263052e-04 -6.27479458e-05 4.68966959e-04 -1.49748827e-04
      -2.07860675e-03 -3.13430297e-04 1.42389501e-04 1.37837802e-03
      -6.27144473e-04 -1.97178195e-03 1.24800415e-03 5.02997369e-04
      -2.32998282e-04 -2.27089869e-04 9.75778734e-04 2.25649885e-04 0.
      0. 0. 0. 0. 0. 0. 0. 8.30858426e-06 2.51246209e-04 1.10275832e-04
      8.68110743e-04 7.87548313e-04 -5.62805100e-04 1.91645333e-04
      -1.58479903e-03 5.01479371e-04 -3.21228086e-04 -3.19382671e-04
      -6.67299784e-04 9.01708627e-05 -1.01196754e-03 -1.63719393e-04
      -1.30072050e-03 -8.44231516e-04 -9.95208160e-04 9.66294494e-04
      8.55803228e-05 -2.85247195e-04 -3.02048084e-05 0. 0. 0. 0. 0. 0.
      3.22847845e-05 3.09764349e-04 1.81185205e-05 5.22539834e-04
      -1.74429477e-03 9.49629466e-04 -8.24781484e-04 2.08473555e-03
      -2.10424094e-03 -4.91654391e-05 -6.51043665e-04 -1.20199833e-03
      -3.34969140e-04 1.80312345e-05 2.61259411e-04 -1.62836834e-04
      -1.27929205e-04 -7.72376137e-04 1.67454011e-04 7.07054860e-04
      -3.62876046e-04 -2.30451536e-04 0. 0. 6.78850774e-05 0. 0. 0.
      -8.17006585e-05 3.01141088e-04 7.33089051e-04 -1.07964815e-03
      3.14497447e-04 2.30619218e-03 -2.84333393e-04 -1.10759668e-03
      1.75667182e-03 -4.38421906e-04 3.47115070e-04 4.01153520e-04
      3.32013704e-04 -2.93323596e-04 5.67017007e-04 -7.21493154e-04
      6.44908170e-04 -1.85440236e-04 2.20330749e-05 1.37755077e-03
      -9.20074119e-04 -2.74799764e-04 0. 0. 0. 0. 6.59423968e-05
      1.46538669e-05 -9.06254048e-04 -5.59828826e-04 -7.44739897e-04
      2.67661904e-04 1.82660733e-04 -1.77147624e-03 4.87057463e-04
      -1.28295459e-03 5.53549209e-04 6.38994330e-04 5.62794216e-04
      -9.82781174e-04 1.20869066e-04 -4.19282092e-04 -8.03716190e-04
      6.56285149e-04 -5.69032622e-04 1.26274826e-04 5.81567700e-04
      9.46540036e-04 -7.93012034e-04 -1.16603864e-04 0. 0. 0. 0.
      3.39481252e-04 3.07953393e-04 -2.14637665e-04 -6.79439923e-04
      -2.91126518e-04 -1.51541852e-03 -8.71057797e-04 6.41626422e-04
      3.54177522e-04 2.96956368e-05 2.80569493e-05 1.04952464e-03
      8.27505195e-04 -9.32736613e-04 7.21413409e-04 1.43304025e-03
      -2.42729177e-04 9.69066517e-04 2.05302567e-04 1.70855608e-04
      5.38428256e-04 -1.59031595e-04 -1.08375272e-03 -2.33905012e-04 0.
      0. 0. 2.24749921e-04 0. 4.48194536e-04 -4.10770241e-04
      -1.08806905e-03 4.40092641e-04 -1.60979835e-04 -2.84618174e-04
      -6.37701363e-04 -1.03844446e-03 -2.44179595e-04 -2.17315322e-03
      -8.00323905e-04 1.38624257e-03 -2.40033565e-04 -5.44392446e-04
      5.58707106e-04 8.26823758e-04 1.17048621e-04 -7.91069120e-04
      -5.36767358e-04 -5.29938028e-04 -2.70895252e-04 2.22419039e-04
      -3.62797990e-04 0. 0. 0. 0. 0. 3.92979360e-04 -4.75991896e-04
      -1.85431656e-03 3.14581441e-04 -2.23586831e-04 -1.10388256e-03
      -9.26094581e-05 1.16876245e-03 -4.52180626e-04 6.63078099e-04
      1.49453839e-03 -1.47440680e-03 -1.80252292e-03 2.10685903e-04
      -5.33074723e-04 6.41420367e-04 -1.06044882e-03 1.66006992e-03
      2.33737574e-05 1.80359682e-04 -3.48614813e-05 7.86258606e-04
      1.71476604e-05 0. 0. 0. 0. 0. 3.39986116e-04 4.81746712e-04
      -7.87420955e-04 3.38826270e-04 -7.80300004e-04 1.52114226e-04
      1.05918932e-03 -1.61116489e-03 -2.49899662e-04 3.57201556e-04
      -2.51603022e-04 -1.35541242e-03 6.85113599e-04 -8.86658672e-04
      -8.93356628e-04 -3.88096989e-04 2.70403369e-04 1.42144752e-04
      -1.23988860e-03 6.30300026e-04 1.16891824e-04 -2.25196709e-04
      1.39736250e-04 0. 0. 0. 0. 0. -5.05302814e-05 -1.19633635e-03
      4.78878937e-04 -8.97468708e-04 -3.65326501e-04 -4.31537104e-04
      -1.90792751e-04 8.20940768e-04 6.67813350e-04 4.47852071e-04
      -1.00825149e-04 -2.98187044e-03 -4.10433888e-04 -1.08047179e-03
      -1.16689363e-03 -1.94747961e-04 -1.14001683e-03 -9.23214189e-04
      5.72699180e-04 1.18647353e-03 4.08606575e-04 3.89124354e-04
      2.24070114e-04 0. 0. 0. 0. 0. -1.29656444e-04 -1.70510635e-03
      -1.94915410e-04 -6.04730973e-04 6.23862317e-04 -2.22094517e-04
      -4.66092693e-04 1.14138871e-04 2.00100312e-05 -2.92942597e-04
      2.76827253e-04 -1.44786295e-03 -1.30932278e-03 -1.59013632e-03
      9.30010341e-04 -4.19769422e-05 -7.85399170e-04 -6.16733159e-04
      1.56935258e-03 4.03966173e-04 6.48391782e-04 1.00765273e-03
      1.57048693e-04 0. 0. 0. 0. 0. 1.60086478e-04 -2.72453763e-04
      9.86322528e-04 -1.12235243e-03 1.05593039e-03 1.19529304e-03
      4.80718649e-04 1.47020724e-03 9.44927800e-04 -1.46765984e-03
      -3.80304875e-04 8.78149760e-04 -7.96452048e-04 -3.02930275e-04
      -1.16238068e-03 5.43951523e-04 5.09370642e-04 5.67097391e-04
      3.18717706e-04 -3.54068616e-04 3.46147164e-04 4.38221352e-04
      3.98406191e-05 0. 3.84037958e-06 0. 0. 0. 4.07238840e-04
      1.22731755e-04 1.17481709e-03 6.64154533e-04 6.76929601e-04
      -2.45344301e-04 3.96409159e-04 6.29797636e-04 9.82034453e-06
      1.41317653e-03 -1.08735519e-03 2.99247273e-04 8.24250674e-05
      -9.84586659e-04 1.40502161e-04 -1.73092805e-04 9.77305695e-04
      2.30275487e-04 5.65799011e-04 7.94500113e-04 1.36477931e-03
      1.09279965e-04 5.91362868e-06 0. 3.32832897e-05 0. 0. 0.
      2.57874926e-04 -3.68393026e-04 1.17346435e-03 2.26400181e-04
      1.88033533e-04 8.24325834e-04 1.46677461e-03 9.56781791e-04
      7.26023689e-04 4.74533357e-04 -1.10795605e-03 -2.02274509e-03
      1.00850873e-03 2.27928162e-04 -2.56224722e-03 3.98115866e-04
      -4.05423634e-04 -1.70657458e-03 -1.07935292e-03 1.99888338e-04
      7.42607575e-04 -2.12308340e-04 0. 0. 0. 0. 0. 0. 1.50186563e-04
      8.53358069e-04 1.20695168e-03 2.60378903e-04 2.01760704e-04
      1.35138616e-04 1.52845553e-03 -8.33136437e-04 -2.00967872e-04
      2.34805979e-03 -2.80043096e-05 -7.46715115e-04 3.88804037e-04
      -1.75649044e-03 1.18691626e-03 -1.76645955e-03 3.88410146e-04
      -1.23121822e-03 8.06863711e-04 7.85920420e-04 -5.30826801e-04
      -5.57736668e-04 -1.98694706e-05 0. 0. 0. 0. 0. -2.24195057e-04
      1.64537039e-03 -2.61705893e-04 1.27440653e-04 1.85300922e-03
      1.17896195e-03 1.16063165e-03 7.68123253e-04 -1.03703831e-04
      1.35991315e-03 1.24049350e-03 3.24337190e-04 1.09523290e-03
      1.24577561e-03 7.36522023e-04 -7.11170214e-05 -5.63289650e-05
      7.16418028e-04 6.95624389e-04 -1.23697886e-04 -7.48914084e-04
      -1.07611157e-03 -4.24709928e-04 0. 0. 0. 0. 0. -9.89217369e-05
      8.33179802e-04 -1.14443619e-03 4.04812803e-04 5.45703282e-04
      5.43576025e-04 8.36105086e-04 1.07867154e-05 1.83801074e-03
      5.65782655e-04 -2.33319428e-04 -7.03932892e-04 -2.73033020e-05
      -5.32596896e-04 2.60277622e-04 -4.52833105e-04 1.03695726e-03
      -8.49956239e-04 -2.89819454e-05 -5.54382605e-05 1.09670427e-05
      -8.61738285e-04 -1.49021025e-05 1.25779095e-03 0. 0. 0. 0.
      -3.20032734e-04 1.59960196e-04 3.42373329e-04 1.29412836e-03
      9.76263254e-04 -1.04705403e-04 -2.19713140e-04 -6.66872249e-04
      4.60755429e-04 1.12997170e-03 3.06409260e-04 -8.34884646e-04
      1.32358773e-03 1.05687403e-04 -8.34526087e-04 2.03879070e-04
      8.13057472e-04 -3.95158131e-04 -2.13240462e-04 -2.74097489e-04
      -5.56135550e-04 -1.18595269e-03 0. 1.29669163e-04 0. 0. 0. 0.
      -1.92455540e-04 5.45985997e-04 1.21255493e-04 -5.13804203e-04
      8.19036388e-04 6.19856641e-04 3.10337666e-04 1.83850958e-03
      4.08516062e-04 1.75479718e-03 1.11944741e-04 1.57337647e-03
      2.24266085e-04 -4.50284686e-04 9.19271610e-04 -2.12278843e-04
      -1.18492520e-03 -8.21703929e-04 -5.61251130e-04 -1.96609471e-04
      -6.99758471e-04 -1.83445634e-03 0. 0. 0. 0. 0. 0. 0.
      5.91115619e-04 8.46660347e-04 -7.47109239e-04 -4.53439483e-04
      -5.41461632e-04 -2.16635104e-04 6.33256859e-04 -2.14804942e-03
      -4.71257255e-04 1.06071110e-03 4.41922515e-04 6.03761058e-04
      -1.41295872e-03 9.05511843e-04 3.07932234e-04 -9.33480856e-04
      -9.84899350e-04 -3.81136138e-04 -2.75170052e-04 -6.97237265e-04
      -4.15771443e-04 0. 0. 0. 0. 0. 0. 0. -4.52607783e-05
      -2.09743099e-04 -1.30331318e-03 -9.61898651e-04 -8.19192093e-04
      -1.50584849e-03 -1.43146305e-03 -3.21914384e-04 -1.03403779e-03
      -1.69736135e-03 -8.55788589e-04 -4.76508518e-04 -6.74066599e-04
      -6.14650606e-04 -1.26130518e-03 -1.26053789e-03 -1.61573570e-03
      -1.12135930e-03 -4.04557592e-04 -2.66151328e-04 -6.42468585e-05 0.
      0. 0. 0. 0. 0. 0. 0. -1.78775197e-04 -1.15213636e-03
      -7.84300268e-04 -2.52239814e-04 -1.08475746e-04 -2.74811086e-04
      -5.70382457e-04 -7.78092421e-04 -6.35787146e-04 -1.74653571e-04
      -6.20201929e-04 -9.70516878e-04 -4.15858580e-04 -6.81727019e-04
      -2.65592156e-04 -1.08076306e-03 -9.60625010e-04 0. 0. 0. 0. 0. 0.
      0. 0. 0. 0. 0. 0. 0. 0. 0. 0. 0. 0. -7.02876205e-05
      -5.73267862e-05 0. 0. 0. -5.74550104e-05 -1.86972247e-04
      -1.94762742e-06 0. 0. 0. 0. 0. 0. 0. 0.</_>
    <_>
      0. 0. 0. 0. 0. 0. 0. 0. 0. 0. 0. 0. 0. 0. 0. 0. 0. 0. 0. 0. 0. 0.
      0. 0. 0. 0. 0. 0. 0. 0. 0. 0. 0. 0. 0. 0. 0. 0. 0. 0. 0. 0. 0.
      -1.36567774e-04 -1.39050838e-03 -1.36567774e-04 0. 0. 0. 0. 0. 0.
      0. 0. 0. 0. 0. 0. 0. 0. 0. 0. 0. 0. -2.41317015e-04
      -4.73514025e-04 -4.23030258e-04 -5.24708652e-04 -2.03166273e-03
      2.81128753e-03 -9.16795107e-04 1.04688772e-03 1.40559277e-03
      7.07265222e-04 -2.01309686e-05 2.56054173e-03 6.11852738e-04 0. 0.
      0. 0. 0. 0. 0. 0. 0. 0. 0. 0. -3.81908067e-05 -1.57612849e-05
      -7.39724273e-05 -3.90056055e-04 -9.63746978e-04 -8.63779278e-04
      -1.40084408e-03 1.06593616e-04 -5.71169541e-04 -7.06204228e-05
      -2.31356214e-04 -3.64539243e-04 7.15971037e-05 6.52271789e-04
      8.75678088e-04 1.15481135e-03 6.47482928e-04 -1.17997362e-04 0. 0.
      0. 0. 0. 0. 0. 0. 0. -9.41410035e-05 5.89992327e-04 5.08164121e-05
      -1.08802749e-03 2.88985495e-04 3.74102819e-04 -3.51951399e-04
      -1.62292650e-04 -2.26431104e-04 6.93732349e-04 -8.92681652e-04
      5.26847551e-04 5.08055615e-04 -9.29130532e-04 -3.12372751e-04
      7.13803747e-04 -2.52263970e-04 1.26792220e-04 -3.56905046e-04
      2.35377025e-04 1.57568342e-04 0. 0. 0. 0. 0. 0. 2.74323625e-04
      -1.13662725e-04 7.92879320e-04 4.78536676e-04 -5.68197516e-04
      8.52657191e-04 5.59698441e-04 -4.43838187e-04 -7.14067952e-04
      -8.46904062e-04 2.97325430e-04 -1.36533010e-04 4.36974980e-04
      -1.15160027e-03 -1.50499356e-04 -1.76747897e-04 -4.83022974e-04
      1.25157268e-04 1.04152446e-03 1.09800091e-03 -4.65194671e-06
      1.08379626e-03 0. 0. 0. 0. 0. 0. 5.84180641e-04 8.49505668e-05
      -5.49134857e-04 2.54856539e-04 -7.11472530e-04 -4.31313878e-04
      -8.88926967e-04 4.78749454e-04 4.88041143e-04 -1.83648532e-04
      3.26366950e-04 -1.75253779e-04 -7.13884132e-04 -4.04174090e-04
      1.05864974e-03 -4.10305307e-04 1.20168661e-04 1.25436392e-03
      -3.46001791e-04 8.45389266e-04 -2.21530063e-05 6.58415724e-04
      -4.95057175e-05 0. 0. 0. 0. 0. -2.36372332e-04 4.93133673e-04
      -3.72673443e-04 -8.37554922e-04 5.42960654e-04 -1.13206299e-03
      2.43158895e-04 6.81124147e-05 -8.55431252e-04 4.29374049e-04
      -9.36171331e-04 -6.63608589e-05 4.93823085e-04 -1.49596730e-04
      6.51308394e-04 -1.02391967e-03 1.91959902e-04 2.57950131e-04
      -5.25764008e-05 3.36136116e-04 8.24198709e-04 8.80287145e-04
      -4.26773404e-05 0. 0. 0. 0. 0. -7.01324461e-05 4.12326423e-04
      -1.06416771e-03 -1.69489195e-03 1.23645051e-03 -1.04064029e-03
      -2.04266878e-04 1.04143401e-03 -1.07127486e-03 1.38262927e-03
      7.10444292e-05 8.94588375e-05 -5.25782991e-04 -6.57757919e-05
      -3.50916176e-04 6.93021051e-04 -2.63153925e-04 -5.40773559e-04
      2.34982770e-04 1.21142366e-03 1.43660320e-04 4.22685116e-04 0. 0.
      0. 0. 0. 0. 0. 5.49031945e-04 -7.23065226e-04 -3.60551436e-04
      1.33243308e-03 6.04973931e-04 1.38028365e-04 5.96217651e-05
      -6.07253169e-04 -2.83303845e-04 5.47063770e-04 2.64749950e-04
      9.52863134e-04 7.11607106e-04 4.79686743e-04 3.70199305e-05
      -2.59280059e-04 6.21609943e-05 -1.02865370e-03 1.16332737e-03
      -5.65093535e-04 9.11852345e-04 0. 0. 0. 0. 0. 0. 0. 5.35578816e-04
      -1.30003248e-03 -2.09851773e-03 4.49551444e-04 -4.52107779e-04
      3.64196458e-04 -3.83858831e-04 7.88206176e-04 -1.23776239e-03
      2.17794935e-04 2.28606470e-04 -1.01753809e-04 -7.96278415e-04
      6.79110060e-04 -8.71956654e-05 3.51695897e-04 -1.03565073e-03
      -7.98277906e-05 5.01587638e-04 4.45679179e-04 9.93386930e-05 0. 0.
      0. 0. 0. 0. 0. 2.56934640e-04 -6.73982257e-04 -1.43232790e-03
      -8.99484265e-04 3.24461726e-04 6.89101755e-04 -5.03527524e-04
      -6.55973097e-04 -1.69122999e-04 1.45002117e-03 1.16274110e-03
      4.74927685e-04 -7.47439859e-04 -1.77491980e-04 6.70257214e-05
      3.57649667e-04 2.20050060e-04 3.31593037e-04 -2.44517025e-04
      3.58666410e-04 -8.19740744e-05 -6.63374012e-05 0. 0. 0. 0. 0. 0.
      3.21802101e-04 -4.83192882e-04 -1.84616496e-04 -3.41004401e-04
      -4.80446994e-04 3.01362830e-04 1.37356517e-04 1.57420436e-04
      3.67013767e-04 1.07793533e-03 4.68785758e-04 5.12872008e-04
      6.43118547e-05 -4.55807400e-04 9.80313402e-04 -8.81787331e-04
      9.47093300e-04 -5.90436102e-04 -4.53814937e-05 9.60491234e-05
      -7.81833660e-05 -7.64439028e-05 -4.43124054e-06 -1.55009984e-05 0.
      0. 0. 0. 4.37071052e-04 -6.16729667e-04 -3.44455213e-04
      -1.75141933e-04 9.73213828e-05 -4.55263274e-04 -1.46964402e-03
      1.39084295e-03 5.83008688e-04 3.49491107e-04 2.23865485e-04
      1.73621380e-03 8.17218272e-04 9.58741002e-04 -6.35500881e-04
      1.76092319e-04 2.84644979e-04 -5.33527927e-04 -4.63540287e-04
      -2.37315558e-04 -3.38149664e-04 -6.47400273e-04 -8.35431099e-04
      -1.41805431e-04 0. 0. 0. 0. 1.30948873e-04 -3.35154211e-04
      -9.52282571e-04 -1.40906684e-03 -2.06689961e-04 9.29489761e-05
      -9.48024332e-04 2.21155224e-05 -2.74173974e-04 4.94585081e-04
      -1.97888454e-04 2.34271560e-04 1.37329742e-04 8.28971097e-04
      -1.67087978e-03 -4.00959951e-04 -9.67007290e-05 -8.86356982e-04
      -5.84776164e-04 -7.98506138e-04 -5.45688439e-04 -3.77805525e-04
      -1.12414702e-04 -1.72233320e-06 0. 0. 0. -6.26556866e-05
      -2.76823121e-04 -2.15148568e-04 -5.26090444e-04 -2.75847182e-04
      6.16016157e-04 -7.78081012e-04 -3.25807487e-04 -8.69160867e-05
      3.55001277e-04 -2.08570840e-04 9.75043455e-04 1.48986379e-04
      1.34962378e-03 -2.57659587e-04 1.73213927e-03 -1.19371491e-03
      -2.00791430e-04 -3.21654603e-04 -2.11782462e-04 -1.12274065e-04
      -6.46857879e-05 -3.16670485e-05 -2.24885425e-05 -8.38656197e-05 0.
      0. 0. -1.82470947e-04 -2.11050734e-04 7.68627360e-05
      -8.57162348e-04 -1.47212634e-03 -1.67946715e-03 6.92798403e-06
      -1.62490376e-03 -8.99658538e-04 -5.14473999e-04 -6.77760807e-04
      -8.42525842e-05 -2.13629173e-04 -7.95709959e-04 -5.23348979e-04
      -1.99346730e-04 4.50604683e-04 -1.22707325e-03 -1.35596871e-04
      -1.21846865e-03 -5.67622657e-04 8.74581689e-04 -1.12320262e-03
      -6.07496942e-04 -1.72664499e-04 0. 0. 0. -2.78103311e-04
      -2.83579662e-04 -2.35207815e-04 -1.56288050e-04 -6.75339252e-04
      6.70413778e-04 -1.61020167e-03 -9.40852042e-05 -5.58240754e-05
      -2.46566575e-04 -1.06307118e-04 -1.25303297e-04 1.97156842e-05
      1.09735806e-03 2.17957044e-04 5.70362317e-04 -1.18831966e-04
      -6.70701673e-04 1.48264808e-04 3.47810565e-04 -1.89526574e-04
      5.44833369e-04 -1.20700221e-03 -1.62552067e-04 -8.87988881e-06 0.
      0. 0. -2.00667608e-04 -8.83936358e-04 4.16694587e-04
      -7.75525405e-05 -1.92266621e-03 -3.92987567e-05 -1.87916186e-04
      -1.19909027e-03 -1.44212530e-03 -2.46330455e-04 -9.59912490e-04
      -1.51381479e-04 4.15839109e-04 -4.62088617e-04 -1.55638438e-04
      -3.60094782e-06 -2.23691203e-03 -1.95366476e-04 -6.32683514e-04
      -6.65835105e-04 7.85351091e-04 4.21792443e-04 -6.72512746e-04
      -7.69484614e-04 -7.03334881e-05 0. 0. -5.87389195e-06
      -4.97047091e-04 -1.69356912e-03 -3.03528475e-04 2.82644178e-04
      -6.09988310e-05 9.25779110e-04 8.26344069e-04 2.44760304e-04
      -4.84302524e-04 -5.21195645e-04 6.38166268e-04 -9.77311516e-04
      -2.17567547e-04 7.60226860e-04 -1.26170611e-03 1.83432698e-04
      -6.48686138e-04 7.49913219e-04 -3.43743799e-04 -1.59684481e-04
      2.16704517e-04 1.87418380e-04 -2.52428377e-04 -7.95881788e-04
      -5.56232189e-05 0. 0. -4.38282732e-05 -3.56470991e-04
      -1.64935947e-04 -9.26927431e-04 1.60514945e-04 -3.89235647e-04
      -7.15589675e-04 -4.04245395e-04 -3.12255870e-05 1.75618581e-04
      -6.95536786e-04 1.84942255e-04 1.58805211e-04 -6.48926594e-04
      9.26781271e-04 -4.94818436e-04 3.86967120e-04 5.27148950e-04
      -1.57005398e-03 9.42984916e-05 2.82035791e-04 6.02871354e-04
      5.84912450e-05 -9.24993597e-04 7.41672411e-05 0. 0. 0.
      -8.63010282e-05 3.44098778e-04 -7.19227901e-05 -2.00743787e-04
      1.27383741e-04 4.37193870e-04 5.71892539e-04 -2.51852849e-04
      -4.56232985e-04 5.01807837e-04 -5.78686711e-04 -7.04196049e-04
      -4.65982666e-05 -4.89248196e-04 -7.80890477e-05 6.71495582e-05
      -2.24141945e-06 -9.05287743e-04 3.43256223e-04 2.89001269e-04
      -5.95087011e-04 -7.37687980e-04 7.79129274e-04 3.93155991e-04
      1.31815614e-05 0. 0. 0. -9.34785276e-05 -4.97420959e-04
      -1.55529636e-03 1.16573425e-03 4.49530417e-05 -1.07260118e-03
      6.06615271e-04 3.71199596e-04 -2.85103975e-04 -6.14006654e-04
      -1.94197826e-04 -1.12568564e-03 3.06891830e-04 -1.04319515e-04
      -5.70573495e-04 -2.90608092e-04 3.01661261e-04 -6.01617037e-04
      8.14827159e-04 5.98930183e-06 -6.56206626e-04 -2.58069253e-04
      6.43471489e-04 4.70068160e-04 0. 0. 0. 0. 0. -3.17320431e-04
      -8.89713818e-04 7.76713714e-04 -1.19771727e-03 7.10863678e-04
      -1.19974848e-03 7.37649680e-05 3.34388984e-04 -1.85558252e-04
      -8.93838223e-05 5.39720757e-04 -1.23579433e-04 -1.85094032e-04
      -1.40759104e-04 -8.37760337e-04 -8.50476383e-04 3.60446284e-04
      -9.71749949e-04 -1.27709261e-03 -4.77574155e-04 -3.77919641e-04
      -1.79322727e-04 -1.28486763e-05 0. 0. 0. 0. 0. 0. 1.35273885e-05
      3.53986106e-04 -6.75263407e-04 2.86725553e-04 -4.62444514e-05
      5.92030003e-04 1.66256243e-04 1.87526035e-04 -4.72710730e-04
      -2.74646125e-04 -9.73557413e-04 -6.53195428e-04 -1.07876933e-03
      2.07914651e-04 4.43136349e-04 -5.32807957e-04 -1.33642205e-03
      -1.26136257e-03 -9.78170545e-04 -1.22096011e-04 -1.12961279e-04
      -1.87376536e-05 0. 0. 0. 0. 0. 0. 0. 2.81494489e-04 3.24994820e-04
      -2.26639560e-04 -1.27409672e-04 -1.77046066e-04 -4.80537128e-04
      -3.26707726e-04 6.75508229e-04 -9.04875851e-05 -2.78866763e-04
      -1.38371950e-04 -3.28318885e-04 -4.38016636e-04 -3.42936022e-04
      -2.52974132e-04 -1.22294965e-04 -9.15336495e-05 -2.62596532e-05 0.
      0. 0. 0. 0. 0. 0. 0. 0. 0. 0. 0. 0. 0. 0. 0. 0. 0. 0. 0. 0. 0. 0.
      0. 0. 0. 0. 0. 0. 0. 0. 0. 0. 0. 0. 0. 0. 0. 0. 0. 0. 0. 0. 0. 0.
      0. 0. 0. 0. 0. 0. 0. 0. 0. 0. 0. 0. 0. 0. 0. 0.</_>
    <_>
      0. 0. 0. 0. 0. 0. 0. 0. 0. 0. 0. 0. 0. 0. 0. 0. 0. 0. 0. 0. 0. 0.
      0. 0. 0. 0. 0. 0. 0. 0. 0. 0. 0. 0. 0. 0. 0. 0. 0. 0. 0. 0. 0. 0.
      0. 0. 0. 0. 0. 0. 0. 0. 0. 0. 0. 0. 0. 0. 0. 0. 0. 0. 0. 0. 0. 0.
      -4.84892444e-05 -1.07612097e-04 -7.11158782e-06 7.10571534e-04
      1.33644929e-03 1.53702358e-03 1.46787497e-03 2.40759784e-03
      9.98148345e-04 9.16059013e-04 2.17247187e-04 0. 0. 0. 0. 0. 0. 0.
      0. 0. 0. 0. 0. -4.02159640e-04 -7.22872617e-04 -9.10461473e-04
      -9.82607249e-04 -3.65570071e-04 -5.37558866e-04 -1.05541223e-03
      -7.89795013e-04 1.74503453e-04 -5.43372844e-05 -2.45991419e-03
      1.16862264e-03 -5.69937984e-04 -1.34088332e-03 1.55197195e-04
      -1.82070595e-04 3.22516949e-04 -9.06569403e-05 0. 0. 0. 0. 0. 0.
      0. 0. -3.60684426e-05 -2.36981272e-04 4.63130476e-04
      -3.95006035e-04 -8.47423042e-04 6.09788476e-05 -7.62427444e-05
      -1.58913236e-03 -5.07378485e-04 -5.75766258e-04 -1.21957601e-04
      -7.63285439e-04 9.74568102e-05 5.12173283e-04 2.58154905e-04
      -7.43694312e-04 -1.05847750e-04 -3.99157492e-04 -3.83214792e-04
      -6.26282999e-05 3.25491739e-04 2.46941599e-05 0. 0. 0. 0. 0. 0.
      -1.61148728e-05 -2.57834326e-04 1.36401539e-03 -6.21322193e-04
      -1.91356381e-03 -2.46368145e-04 8.11184349e-04 -3.49787333e-05
      -9.46365064e-04 -5.25373325e-04 1.66473299e-04 1.23092352e-04
      -2.61193316e-04 -6.53786992e-04 -5.01497940e-04 -3.30873998e-04
      3.38028272e-04 4.59388539e-04 7.85451484e-05 1.07954303e-03
      1.60118833e-03 3.37577891e-04 0. 0. 0. 0. 0. -2.40888476e-04
      -4.21967648e-04 -3.72223323e-04 -1.29265222e-03 -1.11934124e-03
